<?xml version="1.0"?>
<opencv_storage>
<cascade>
  <stageType>BOOST</stageType>
  <featureType>HAAR</featureType>
  <height>20</height>
  <width>20</width>
  <stageParams>
    <boostType>GAB</boostType>
    <minHitRate>9.9500000476837158e-01</minHitRate>
    <maxFalseAlarm>5.0000000000000000e-01</maxFalseAlarm>
    <weightTrimRate>9.4999999999999996e-01</weightTrimRate>
    <maxDepth>1</maxDepth>
    <maxWeakCount>100</maxWeakCount></stageParams>
  <featureParams>
    <maxCatCount>0</maxCatCount>
    <featSize>1</featSize>
    <mode>BASIC</mode></featureParams>
  <stageNum>20</stageNum>
  <stages>
    <!-- stage 0 -->
    <_>
      <maxWeakCount>5</maxWeakCount>
      <stageThreshold>-4.8181334137916565e-01</stageThreshold>
      <weakClassifiers>
        <_>
          <internalNodes>
            0 -1 46 -7.6045826077461243e-02</internalNodes>
          <leafValues>
            -7.0238095521926880e-01 8.8524591922760010e-01</leafValues></_>
        <_>
          <internalNodes>
            0 -1 102 -8.9033413678407669e-03</internalNodes>
          <leafValues>
            -8.6117964982986450e-01 4.7863596677780151e-01</leafValues></_>
        <_>
          <internalNodes>
            0 -1 34 4.8112546210177243e-05</internalNodes>
          <leafValues>
            -5.3734505176544189e-01 6.7215979099273682e-01</leafValues></_>
        <_>
          <internalNodes>
            0 -1 0 -3.4170202910900116e-02</internalNodes>
          <leafValues>
            -3.9624240994453430e-01 8.4419292211532593e-01</leafValues></_>
        <_>
          <internalNodes>
            0 -1 28 -4.0999981574714184e-03</internalNodes>
          <leafValues>
            8.1779772043228149e-01 -5.3398573398590088e-01</leafValues></_></weakClassifiers></_>
    <!-- stage 1 -->
    <_>
      <maxWeakCount>5</maxWeakCount>
      <stageThreshold>-6.5350610017776489e-01</stageThreshold>
      <weakClassifiers>
        <_>
          <internalNodes>
            0 -1 6 7.3434770107269287e-02</internalNodes>
          <leafValues>
            -4.9238577485084534e-01 9.3548387289047241e-01</leafValues></_>
        <_>
          <internalNodes>
            0 -1 52 -2.6941975951194763e-01</internalNodes>
          <leafValues>
            -8.0947232246398926e-01 4.0156897902488708e-01</leafValues></_>
        <_>
          <internalNodes>
            0 -1 107 -4.4622167944908142e-02</internalNodes>
          <leafValues>
            8.2336109876632690e-01 -3.7453988194465637e-01</leafValues></_>
        <_>
          <internalNodes>
            0 -1 99 -6.0906842350959778e-02</internalNodes>
          <leafValues>
            2.9385769367218018e-01 -9.5906460285186768e-01</leafValues></_>
        <_>
          <internalNodes>
            0 -1 145 1.3140635564923286e-02</internalNodes>
          <leafValues>
            -4.3612849712371826e-01 7.2903424501419067e-01</leafValues></_></weakClassifiers></_>
    <!-- stage 2 -->
    <_>
      <maxWeakCount>7</maxWeakCount>
      <stageThreshold>-9.6192139387130737e-01</stageThreshold>
      <weakClassifiers>
        <_>
          <internalNodes>
            0 -1 44 3.9253439754247665e-02</internalNodes>
          <leafValues>
            -4.2857143282890320e-01 8.8505744934082031e-01</leafValues></_>
        <_>
          <internalNodes>
            0 -1 86 -3.3103235065937042e-02</internalNodes>
          <leafValues>
            6.5721213817596436e-01 -3.9443039894104004e-01</leafValues></_>
        <_>
          <internalNodes>
            0 -1 113 1.7161620780825615e-02</internalNodes>
          <leafValues>
            -2.6072791218757629e-01 9.2817878723144531e-01</leafValues></_>
        <_>
          <internalNodes>
            0 -1 20 -1.2366484105587006e-01</internalNodes>
          <leafValues>
            -7.7151155471801758e-01 3.7182614207267761e-01</leafValues></_>
        <_>
          <internalNodes>
            0 -1 2 2.0634088665246964e-02</internalNodes>
          <leafValues>
            -3.3444017171859741e-01 8.4892171621322632e-01</leafValues></_>
        <_>
          <internalNodes>
            0 -1 35 -8.9571566786617041e-04</internalNodes>
          <leafValues>
            8.0978405475616455e-01 -3.7126260995864868e-01</leafValues></_>
        <_>
          <internalNodes>
            0 -1 38 -3.6306110024452209e-01</internalNodes>
          <leafValues>
            4.5568495988845825e-01 -6.9991976022720337e-01</leafValues></_></weakClassifiers></_>
    <!-- stage 3 -->
    <_>
      <maxWeakCount>7</maxWeakCount>
      <stageThreshold>-7.0449191331863403e-01</stageThreshold>
      <weakClassifiers>
        <_>
          <internalNodes>
            0 -1 108 -2.8767747804522514e-02</internalNodes>
          <leafValues>
            7.8512394428253174e-01 -6.2130177021026611e-01</leafValues></_>
        <_>
          <internalNodes>
            0 -1 10 3.1809188425540924e-02</internalNodes>
          <leafValues>
            -3.3279895782470703e-01 7.3217505216598511e-01</leafValues></_>
        <_>
          <internalNodes>
            0 -1 25 -2.0699007436633110e-02</internalNodes>
          <leafValues>
            8.6526733636856079e-01 -2.2708086669445038e-01</leafValues></_>
        <_>
          <internalNodes>
            0 -1 36 5.7770991697907448e-03</internalNodes>
          <leafValues>
            -3.8272055983543396e-01 5.9519910812377930e-01</leafValues></_>
        <_>
          <internalNodes>
            0 -1 66 -5.6633800268173218e-03</internalNodes>
          <leafValues>
            4.1608464717864990e-01 -5.1153832674026489e-01</leafValues></_>
        <_>
          <internalNodes>
            0 -1 32 -4.0665622800588608e-03</internalNodes>
          <leafValues>
            7.9321384429931641e-01 -2.9666551947593689e-01</leafValues></_>
        <_>
          <internalNodes>
            0 -1 133 -7.6263751834630966e-03</internalNodes>
          <leafValues>
            7.3999112844467163e-01 -2.3706352710723877e-01</leafValues></_></weakClassifiers></_>
    <!-- stage 4 -->
    <_>
      <maxWeakCount>5</maxWeakCount>
      <stageThreshold>-9.3996059894561768e-01</stageThreshold>
      <weakClassifiers>
        <_>
          <internalNodes>
            0 -1 109 -7.3797017335891724e-02</internalNodes>
          <leafValues>
            6.5454542636871338e-01 -4.5555555820465088e-01</leafValues></_>
        <_>
          <internalNodes>
            0 -1 21 -2.0840617362409830e-03</internalNodes>
          <leafValues>
            3.7065684795379639e-01 -5.3471761941909790e-01</leafValues></_>
        <_>
          <internalNodes>
            0 -1 67 -1.7316801846027374e-01</internalNodes>
          <leafValues>
            -8.8470911979675293e-01 2.0736949145793915e-01</leafValues></_>
        <_>
          <internalNodes>
            0 -1 39 -1.9287908077239990e-01</internalNodes>
          <leafValues>
            2.2873909771442413e-01 -9.4038057327270508e-01</leafValues></_>
        <_>
          <internalNodes>
            0 -1 12 -7.8066587448120117e-03</internalNodes>
          <leafValues>
            6.5253251791000366e-01 -3.2677733898162842e-01</leafValues></_></weakClassifiers></_>
    <!-- stage 5 -->
    <_>
      <maxWeakCount>7</maxWeakCount>
      <stageThreshold>-8.6629211902618408e-01</stageThreshold>
      <weakClassifiers>
        <_>
          <internalNodes>
            0 -1 130 -5.3923476487398148e-02</internalNodes>
          <leafValues>
            9.3846154212951660e-01 -3.1555554270744324e-01</leafValues></_>
        <_>
          <internalNodes>
            0 -1 91 2.3710990790277719e-03</internalNodes>
          <leafValues>
            3.4491464495658875e-01 -6.6294926404953003e-01</leafValues></_>
        <_>
          <internalNodes>
            0 -1 4 8.3726525306701660e-02</internalNodes>
          <leafValues>
            -3.2720696926116943e-01 6.2633144855499268e-01</leafValues></_>
        <_>
          <internalNodes>
            0 -1 79 -1.2903083860874176e-01</internalNodes>
          <leafValues>
            -8.8408231735229492e-01 1.8932236731052399e-01</leafValues></_>
        <_>
          <internalNodes>
            0 -1 136 -4.0318876504898071e-02</internalNodes>
          <leafValues>
            2.9484289884567261e-01 -6.6421735286712646e-01</leafValues></_>
        <_>
          <internalNodes>
            0 -1 81 2.0199983846396208e-03</internalNodes>
          <leafValues>
            3.0713006854057312e-01 -6.1546039581298828e-01</leafValues></_>
        <_>
          <internalNodes>
            0 -1 5 -1.7437646165490150e-02</internalNodes>
          <leafValues>
            -3.5187566280364990e-01 5.5566990375518799e-01</leafValues></_></weakClassifiers></_>
    <!-- stage 6 -->
    <_>
      <maxWeakCount>6</maxWeakCount>
      <stageThreshold>-1.0657525062561035e+00</stageThreshold>
      <weakClassifiers>
        <_>
          <internalNodes>
            0 -1 26 -2.4638608098030090e-02</internalNodes>
          <leafValues>
            4.2553192377090454e-01 -8.8235294818878174e-01</leafValues></_>
        <_>
          <internalNodes>
            0 -1 142 -5.9442479163408279e-02</internalNodes>
          <leafValues>
            9.7948127985000610e-01 -3.2492882013320923e-01</leafValues></_>
        <_>
          <internalNodes>
            0 -1 42 2.6396703906357288e-03</internalNodes>
          <leafValues>
            -3.5739958286285400e-01 6.9786673784255981e-01</leafValues></_>
        <_>
          <internalNodes>
            0 -1 72 -7.0179656147956848e-02</internalNodes>
          <leafValues>
            7.4190068244934082e-01 -2.9202356934547424e-01</leafValues></_>
        <_>
          <internalNodes>
            0 -1 61 -1.1663311161100864e-02</internalNodes>
          <leafValues>
            3.3525237441062927e-01 -7.3134070634841919e-01</leafValues></_>
        <_>
          <internalNodes>
            0 -1 123 -3.2148038735613227e-04</internalNodes>
          <leafValues>
            4.8836880922317505e-01 -4.4824358820915222e-01</leafValues></_></weakClassifiers></_>
    <!-- stage 7 -->
    <_>
      <maxWeakCount>7</maxWeakCount>
      <stageThreshold>-1.0592004060745239e+00</stageThreshold>
      <weakClassifiers>
        <_>
          <internalNodes>
            0 -1 37 -7.6920121908187866e-02</internalNodes>
          <leafValues>
            3.8650307059288025e-01 -5.7480317354202271e-01</leafValues></_>
        <_>
          <internalNodes>
            0 -1 24 -1.2848660349845886e-02</internalNodes>
          <leafValues>
            5.5790412425994873e-01 -3.6068552732467651e-01</leafValues></_>
        <_>
          <internalNodes>
            0 -1 65 -3.1411975622177124e-02</internalNodes>
          <leafValues>
            -8.1652992963790894e-01 2.5510424375534058e-01</leafValues></_>
        <_>
          <internalNodes>
            0 -1 58 9.9038146436214447e-04</internalNodes>
          <leafValues>
            -4.2437735199928284e-01 4.7570851445198059e-01</leafValues></_>
        <_>
          <internalNodes>
            0 -1 132 -1.9008866729564033e-05</internalNodes>
          <leafValues>
            3.7548068165779114e-01 -5.3100132942199707e-01</leafValues></_>
        <_>
          <internalNodes>
            0 -1 80 -1.0877775028347969e-02</internalNodes>
          <leafValues>
            -9.0649461746215820e-01 1.8873946368694305e-01</leafValues></_>
        <_>
          <internalNodes>
            0 -1 118 2.6575865224003792e-02</internalNodes>
          <leafValues>
            -4.6480801701545715e-01 3.8782325387001038e-01</leafValues></_></weakClassifiers></_>
    <!-- stage 8 -->
    <_>
      <maxWeakCount>8</maxWeakCount>
      <stageThreshold>-8.8820374011993408e-01</stageThreshold>
      <weakClassifiers>
        <_>
          <internalNodes>
            0 -1 131 -5.7284716516733170e-02</internalNodes>
          <leafValues>
            7.1084338426589966e-01 -3.3333334326744080e-01</leafValues></_>
        <_>
          <internalNodes>
            0 -1 11 -2.7007391676306725e-02</internalNodes>
          <leafValues>
            4.5036268234252930e-01 -3.6972597241401672e-01</leafValues></_>
        <_>
          <internalNodes>
            0 -1 139 -3.4309213515371084e-04</internalNodes>
          <leafValues>
            4.3856549263000488e-01 -3.9048686623573303e-01</leafValues></_>
        <_>
          <internalNodes>
            0 -1 47 -1.1818179488182068e-01</internalNodes>
          <leafValues>
            7.6295179128646851e-01 -2.8815126419067383e-01</leafValues></_>
        <_>
          <internalNodes>
            0 -1 98 -1.4212943613529205e-01</internalNodes>
          <leafValues>
            2.5302016735076904e-01 -9.2567861080169678e-01</leafValues></_>
        <_>
          <internalNodes>
            0 -1 45 -1.7228975892066956e-02</internalNodes>
          <leafValues>
            -3.3541899919509888e-01 5.9697389602661133e-01</leafValues></_>
        <_>
          <internalNodes>
            0 -1 103 2.4770372547209263e-03</internalNodes>
          <leafValues>
            -4.6951565146446228e-01 4.7228655219078064e-01</leafValues></_>
        <_>
          <internalNodes>
            0 -1 23 -6.5945675596594810e-03</internalNodes>
          <leafValues>
            5.1045483350753784e-01 -3.5742700099945068e-01</leafValues></_></weakClassifiers></_>
    <!-- stage 9 -->
    <_>
      <maxWeakCount>8</maxWeakCount>
      <stageThreshold>-8.7673461437225342e-01</stageThreshold>
      <weakClassifiers>
        <_>
          <internalNodes>
            0 -1 144 -3.0864547006785870e-03</internalNodes>
          <leafValues>
            6.2886595726013184e-01 -3.6787563562393188e-01</leafValues></_>
        <_>
          <internalNodes>
            0 -1 134 -1.7764526605606079e-01</internalNodes>
          <leafValues>
            -8.7157928943634033e-01 2.2330342233181000e-01</leafValues></_>
        <_>
          <internalNodes>
            0 -1 75 -6.7145498178433627e-05</internalNodes>
          <leafValues>
            3.9540153741836548e-01 -4.1676783561706543e-01</leafValues></_>
        <_>
          <internalNodes>
            0 -1 50 2.4062376178335398e-04</internalNodes>
          <leafValues>
            -3.6983466148376465e-01 4.6506652235984802e-01</leafValues></_>
        <_>
          <internalNodes>
            0 -1 13 -5.2581455558538437e-02</internalNodes>
          <leafValues>
            1.6921725869178772e-01 -8.9166092872619629e-01</leafValues></_>
        <_>
          <internalNodes>
            0 -1 143 -1.9699975382536650e-05</internalNodes>
          <leafValues>
            4.4690209627151489e-01 -3.5751736164093018e-01</leafValues></_>
        <_>
          <internalNodes>
            0 -1 22 1.3723701704293489e-04</internalNodes>
          <leafValues>
            -3.3193570375442505e-01 4.8806476593017578e-01</leafValues></_>
        <_>
          <internalNodes>
            0 -1 43 2.4439240223728120e-04</internalNodes>
          <leafValues>
            -2.2974354028701782e-01 6.7732757329940796e-01</leafValues></_></weakClassifiers></_>
    <!-- stage 10 -->
    <_>
      <maxWeakCount>7</maxWeakCount>
      <stageThreshold>-8.1882703304290771e-01</stageThreshold>
      <weakClassifiers>
        <_>
          <internalNodes>
            0 -1 120 -1.8427275063004345e-04</internalNodes>
          <leafValues>
            4.3283581733703613e-01 -4.3589743971824646e-01</leafValues></_>
        <_>
          <internalNodes>
            0 -1 9 7.6255947351455688e-02</internalNodes>
          <leafValues>
            -2.9020950198173523e-01 6.1435842514038086e-01</leafValues></_>
        <_>
          <internalNodes>
            0 -1 90 -6.4096525311470032e-03</internalNodes>
          <leafValues>
            1.7733289301395416e-01 -1.</leafValues></_>
        <_>
          <internalNodes>
            0 -1 119 -7.6861090958118439e-02</internalNodes>
          <leafValues>
            5.5670034885406494e-01 -2.8432232141494751e-01</leafValues></_>
        <_>
          <internalNodes>
            0 -1 62 -5.9759870055131614e-05</internalNodes>
          <leafValues>
            5.5566036701202393e-01 -3.7039789557456970e-01</leafValues></_>
        <_>
          <internalNodes>
            0 -1 114 2.1756742149591446e-02</internalNodes>
          <leafValues>
            -2.7280768752098083e-01 6.3843214511871338e-01</leafValues></_>
        <_>
          <internalNodes>
            0 -1 152 -2.3262909962795675e-04</internalNodes>
          <leafValues>
            6.4130681753158569e-01 -2.4709303677082062e-01</leafValues></_></weakClassifiers></_>
    <!-- stage 11 -->
    <_>
      <maxWeakCount>7</maxWeakCount>
      <stageThreshold>-9.3705809116363525e-01</stageThreshold>
      <weakClassifiers>
        <_>
          <internalNodes>
            0 -1 127 3.4397490322589874e-02</internalNodes>
          <leafValues>
            -3.3673468232154846e-01 5.9574466943740845e-01</leafValues></_>
        <_>
          <internalNodes>
            0 -1 104 1.2181809870526195e-03</internalNodes>
          <leafValues>
            2.2881442308425903e-01 -7.4436843395233154e-01</leafValues></_>
        <_>
          <internalNodes>
            0 -1 88 -4.8534390516579151e-03</internalNodes>
          <leafValues>
            4.9768444895744324e-01 -3.0072548985481262e-01</leafValues></_>
        <_>
          <internalNodes>
            0 -1 17 4.7769136726856232e-03</internalNodes>
          <leafValues>
            2.9252564907073975e-01 -6.3844931125640869e-01</leafValues></_>
        <_>
          <internalNodes>
            0 -1 15 -2.5876900181174278e-03</internalNodes>
          <leafValues>
            -3.0391705036163330e-01 7.1084988117218018e-01</leafValues></_>
        <_>
          <internalNodes>
            0 -1 117 9.4215129502117634e-04</internalNodes>
          <leafValues>
            2.2304713726043701e-01 -7.5209647417068481e-01</leafValues></_>
        <_>
          <internalNodes>
            0 -1 89 1.0496196337044239e-03</internalNodes>
          <leafValues>
            2.3311482369899750e-01 -7.0237606763839722e-01</leafValues></_></weakClassifiers></_>
    <!-- stage 12 -->
    <_>
      <maxWeakCount>10</maxWeakCount>
      <stageThreshold>-7.5885856151580811e-01</stageThreshold>
      <weakClassifiers>
        <_>
          <internalNodes>
            0 -1 41 -9.6452116966247559e-02</internalNodes>
          <leafValues>
            -7.6811593770980835e-01 1.9457013905048370e-01</leafValues></_>
        <_>
          <internalNodes>
            0 -1 148 -7.1238474920392036e-03</internalNodes>
          <leafValues>
            5.6013691425323486e-01 -2.7109888195991516e-01</leafValues></_>
        <_>
          <internalNodes>
            0 -1 85 1.5810123295523226e-04</internalNodes>
          <leafValues>
            -3.1767481565475464e-01 5.3690499067306519e-01</leafValues></_>
        <_>
          <internalNodes>
            0 -1 74 -1.2295688688755035e-01</internalNodes>
          <leafValues>
            -8.6957949399948120e-01 2.4517503380775452e-01</leafValues></_>
        <_>
          <internalNodes>
            0 -1 64 1.3056849129498005e-03</internalNodes>
          <leafValues>
            -4.1296643018722534e-01 3.9576077461242676e-01</leafValues></_>
        <_>
          <internalNodes>
            0 -1 84 -9.6361041069030762e-02</internalNodes>
          <leafValues>
            -5.8115798234939575e-01 2.6901918649673462e-01</leafValues></_>
        <_>
          <internalNodes>
            0 -1 78 -7.5899949297308922e-04</internalNodes>
          <leafValues>
            5.9903478622436523e-01 -2.5151413679122925e-01</leafValues></_>
        <_>
          <internalNodes>
            0 -1 2 1.8886988982558250e-02</internalNodes>
          <leafValues>
            -4.0705475211143494e-01 4.4426950812339783e-01</leafValues></_>
        <_>
          <internalNodes>
            0 -1 137 -2.5510361883789301e-03</internalNodes>
          <leafValues>
            6.4338797330856323e-01 -2.1932670474052429e-01</leafValues></_>
        <_>
          <internalNodes>
            0 -1 128 9.3626435846090317e-03</internalNodes>
          <leafValues>
            -3.0114567279815674e-01 5.7580459117889404e-01</leafValues></_></weakClassifiers></_>
    <!-- stage 13 -->
    <_>
      <maxWeakCount>7</maxWeakCount>
      <stageThreshold>-4.4570606946945190e-01</stageThreshold>
      <weakClassifiers>
        <_>
          <internalNodes>
            0 -1 3 7.6879831030964851e-03</internalNodes>
          <leafValues>
            -2.2553192079067230e-01 7.8181821107864380e-01</leafValues></_>
        <_>
          <internalNodes>
            0 -1 122 5.6614945642650127e-03</internalNodes>
          <leafValues>
            -2.0412790775299072e-01 6.6607034206390381e-01</leafValues></_>
        <_>
          <internalNodes>
            0 -1 71 5.6518656492698938e-05</internalNodes>
          <leafValues>
            -3.8370648026466370e-01 4.0637996792793274e-01</leafValues></_>
        <_>
          <internalNodes>
            0 -1 31 -4.0631582960486412e-03</internalNodes>
          <leafValues>
            4.8999580740928650e-01 -2.8617060184478760e-01</leafValues></_>
        <_>
          <internalNodes>
            0 -1 153 -4.3538606405491009e-05</internalNodes>
          <leafValues>
            4.3273022770881653e-01 -3.2249343395233154e-01</leafValues></_>
        <_>
          <internalNodes>
            0 -1 97 4.4827563688158989e-03</internalNodes>
          <leafValues>
            -1.3567656278610229e-01 8.2178539037704468e-01</leafValues></_>
        <_>
          <internalNodes>
            0 -1 87 -1.2854195665568113e-04</internalNodes>
          <leafValues>
            3.5677716135978699e-01 -4.0569275617599487e-01</leafValues></_></weakClassifiers></_>
    <!-- stage 14 -->
    <_>
      <maxWeakCount>9</maxWeakCount>
      <stageThreshold>-6.7591214179992676e-01</stageThreshold>
      <weakClassifiers>
        <_>
          <internalNodes>
            0 -1 121 -4.0627792477607727e-03</internalNodes>
          <leafValues>
            8.8888889551162720e-01 -1.6535432636737823e-01</leafValues></_>
        <_>
          <internalNodes>
            0 -1 116 1.6124021261930466e-02</internalNodes>
          <leafValues>
            -1.7103496193885803e-01 5.5239886045455933e-01</leafValues></_>
        <_>
          <internalNodes>
            0 -1 95 3.5900477087125182e-04</internalNodes>
          <leafValues>
            2.1479235589504242e-01 -5.5378645658493042e-01</leafValues></_>
        <_>
          <internalNodes>
            0 -1 105 -6.3187894411385059e-03</internalNodes>
          <leafValues>
            1.4996036887168884e-01 -7.4813085794448853e-01</leafValues></_>
        <_>
          <internalNodes>
            0 -1 140 1.8506343476474285e-03</internalNodes>
          <leafValues>
            -2.0170234143733978e-01 6.1209285259246826e-01</leafValues></_>
        <_>
          <internalNodes>
            0 -1 27 7.9145003110170364e-03</internalNodes>
          <leafValues>
            -1.5026073157787323e-01 6.8263435363769531e-01</leafValues></_>
        <_>
          <internalNodes>
            0 -1 59 -2.6878219796344638e-04</internalNodes>
          <leafValues>
            2.5662025809288025e-01 -4.8575329780578613e-01</leafValues></_>
        <_>
          <internalNodes>
            0 -1 73 -1.1353012919425964e-01</internalNodes>
          <leafValues>
            -4.3615332245826721e-01 3.2662758231163025e-01</leafValues></_>
        <_>
          <internalNodes>
            0 -1 111 -8.2731083035469055e-02</internalNodes>
          <leafValues>
            7.9244887828826904e-01 -1.7277941107749939e-01</leafValues></_></weakClassifiers></_>
    <!-- stage 15 -->
    <_>
      <maxWeakCount>9</maxWeakCount>
      <stageThreshold>-4.9265214800834656e-01</stageThreshold>
      <weakClassifiers>
        <_>
          <internalNodes>
            0 -1 14 9.0232919901609421e-03</internalNodes>
          <leafValues>
            -3.6585366725921631e-01 3.9682540297508240e-01</leafValues></_>
        <_>
          <internalNodes>
            0 -1 77 -1.5160220675170422e-02</internalNodes>
          <leafValues>
            -9.1251343488693237e-01 1.2757557630538940e-01</leafValues></_>
        <_>
          <internalNodes>
            0 -1 63 -8.8169053196907043e-02</internalNodes>
          <leafValues>
            -3.7266963720321655e-01 3.2564064860343933e-01</leafValues></_>
        <_>
          <internalNodes>
            0 -1 55 -2.6497747749090195e-02</internalNodes>
          <leafValues>
            2.7697771787643433e-01 -5.4479825496673584e-01</leafValues></_>
        <_>
          <internalNodes>
            0 -1 125 -1.5973588824272156e-01</internalNodes>
          <leafValues>
            -6.9374984502792358e-01 1.6921138763427734e-01</leafValues></_>
        <_>
          <internalNodes>
            0 -1 124 4.1682366281747818e-04</internalNodes>
          <leafValues>
            1.9948731362819672e-01 -5.2644646167755127e-01</leafValues></_>
        <_>
          <internalNodes>
            0 -1 70 7.2738104790914804e-05</internalNodes>
          <leafValues>
            -2.9526612162590027e-01 4.4027206301689148e-01</leafValues></_>
        <_>
          <internalNodes>
            0 -1 19 5.3044334053993225e-03</internalNodes>
          <leafValues>
            -2.0797130465507507e-01 6.9521147012710571e-01</leafValues></_>
        <_>
          <internalNodes>
            0 -1 112 -7.0553515106439590e-03</internalNodes>
          <leafValues>
            -9.3509334325790405e-01 1.4050753414630890e-01</leafValues></_></weakClassifiers></_>
    <!-- stage 16 -->
    <_>
      <maxWeakCount>7</maxWeakCount>
      <stageThreshold>-6.9366598129272461e-01</stageThreshold>
      <weakClassifiers>
        <_>
          <internalNodes>
            0 -1 7 -3.8459442555904388e-02</internalNodes>
          <leafValues>
            3.4693878889083862e-01 -4.2657342553138733e-01</leafValues></_>
        <_>
          <internalNodes>
            0 -1 126 1.7071984708309174e-02</internalNodes>
          <leafValues>
            -1.9797781109809875e-01 6.7942124605178833e-01</leafValues></_>
        <_>
          <internalNodes>
            0 -1 147 -1.2691749725490808e-03</internalNodes>
          <leafValues>
            6.0295319557189941e-01 -2.4210764467716217e-01</leafValues></_>
        <_>
          <internalNodes>
            0 -1 115 8.1727886572480202e-04</internalNodes>
          <leafValues>
            -2.0595514774322510e-01 4.7568258643150330e-01</leafValues></_>
        <_>
          <internalNodes>
            0 -1 16 1.0729490313678980e-03</internalNodes>
          <leafValues>
            -2.2925904393196106e-01 5.9355789422988892e-01</leafValues></_>
        <_>
          <internalNodes>
            0 -1 53 -2.9677850008010864e-01</internalNodes>
          <leafValues>
            -8.3363509178161621e-01 1.9070519506931305e-01</leafValues></_>
        <_>
          <internalNodes>
            0 -1 40 -1.9541062647476792e-04</internalNodes>
          <leafValues>
            3.9670607447624207e-01 -3.5601028800010681e-01</leafValues></_></weakClassifiers></_>
    <!-- stage 17 -->
    <_>
      <maxWeakCount>11</maxWeakCount>
      <stageThreshold>-9.4766420125961304e-01</stageThreshold>
      <weakClassifiers>
        <_>
          <internalNodes>
            0 -1 138 -1.0502584278583527e-02</internalNodes>
          <leafValues>
            3.6507937312126160e-01 -3.4146341681480408e-01</leafValues></_>
        <_>
          <internalNodes>
            0 -1 69 5.6168737501138821e-05</internalNodes>
          <leafValues>
            -2.5617945194244385e-01 5.2090662717819214e-01</leafValues></_>
        <_>
          <internalNodes>
            0 -1 56 -1.6528734704479575e-03</internalNodes>
          <leafValues>
            6.5286695957183838e-01 -1.6547575592994690e-01</leafValues></_>
        <_>
          <internalNodes>
            0 -1 57 -8.3673186600208282e-03</internalNodes>
          <leafValues>
            -1. 1.2387970834970474e-01</leafValues></_>
        <_>
          <internalNodes>
            0 -1 48 -5.3266644477844238e-02</internalNodes>
          <leafValues>
            -5.0181883573532104e-01 2.5923496484756470e-01</leafValues></_>
        <_>
          <internalNodes>
            0 -1 151 6.6449763253331184e-03</internalNodes>
          <leafValues>
            -2.9021912813186646e-01 5.3351253271102905e-01</leafValues></_>
        <_>
          <internalNodes>
            0 -1 141 -3.8172483444213867e-02</internalNodes>
          <leafValues>
            6.5768706798553467e-01 -1.8722626566886902e-01</leafValues></_>
        <_>
          <internalNodes>
            0 -1 8 -1.9762823358178139e-03</internalNodes>
          <leafValues>
            -2.1578031778335571e-01 6.2308859825134277e-01</leafValues></_>
        <_>
          <internalNodes>
            0 -1 106 -4.8546533798798919e-04</internalNodes>
          <leafValues>
            -8.3654308319091797e-01 1.9088593125343323e-01</leafValues></_>
        <_>
          <internalNodes>
            0 -1 101 5.9223186690360308e-04</internalNodes>
          <leafValues>
            1.5742766857147217e-01 -6.7386835813522339e-01</leafValues></_>
        <_>
          <internalNodes>
            0 -1 49 -6.6215693950653076e-03</internalNodes>
          <leafValues>
            5.5052918195724487e-01 -2.3878039419651031e-01</leafValues></_></weakClassifiers></_>
    <!-- stage 18 -->
    <_>
      <maxWeakCount>13</maxWeakCount>
      <stageThreshold>-1.0527637004852295e+00</stageThreshold>
      <weakClassifiers>
        <_>
          <internalNodes>
            0 -1 86 -3.2420177012681961e-02</internalNodes>
          <leafValues>
            2.7710843086242676e-01 -4.5161288976669312e-01</leafValues></_>
        <_>
          <internalNodes>
            0 -1 150 -1.9927427172660828e-02</internalNodes>
          <leafValues>
            8.8009411096572876e-01 -1.2894524633884430e-01</leafValues></_>
        <_>
          <internalNodes>
            0 -1 18 -2.1592142729787156e-05</internalNodes>
          <leafValues>
            3.3784464001655579e-01 -3.1176516413688660e-01</leafValues></_>
        <_>
          <internalNodes>
            0 -1 82 -1.1784010566771030e-03</internalNodes>
          <leafValues>
            -6.5978926420211792e-01 2.1752490103244781e-01</leafValues></_>
        <_>
          <internalNodes>
            0 -1 110 -1.7369251698255539e-02</internalNodes>
          <leafValues>
            5.1262694597244263e-01 -2.5453889369964600e-01</leafValues></_>
        <_>
          <internalNodes>
            0 -1 83 -7.5170202762819827e-05</internalNodes>
          <leafValues>
            -4.0507033467292786e-01 3.2375502586364746e-01</leafValues></_>
        <_>
          <internalNodes>
            0 -1 54 -1.1741672642529011e-03</internalNodes>
          <leafValues>
            3.9027932286262512e-01 -3.2466855645179749e-01</leafValues></_>
        <_>
          <internalNodes>
            0 -1 68 -4.6196621842682362e-03</internalNodes>
          <leafValues>
            -8.4240025281906128e-01 1.5430514514446259e-01</leafValues></_>
        <_>
          <internalNodes>
            0 -1 1 4.6685393899679184e-03</internalNodes>
          <leafValues>
            -3.0022761225700378e-01 4.7960034012794495e-01</leafValues></_>
        <_>
          <internalNodes>
            0 -1 129 -1.3872163370251656e-02</internalNodes>
          <leafValues>
            8.6305660009384155e-01 -1.5326751768589020e-01</leafValues></_>
        <_>
          <internalNodes>
            0 -1 92 -2.8241366147994995e-02</internalNodes>
          <leafValues>
            -9.3277716636657715e-01 1.6085588932037354e-01</leafValues></_>
        <_>
          <internalNodes>
            0 -1 149 6.5991450101137161e-03</internalNodes>
          <leafValues>
            -1.6424214839935303e-01 8.1061327457427979e-01</leafValues></_>
        <_>
          <internalNodes>
            0 -1 60 3.5192433279007673e-04</internalNodes>
          <leafValues>
            3.0133235454559326e-01 -4.6954640746116638e-01</leafValues></_></weakClassifiers></_>
    <!-- stage 19 -->
    <_>
      <maxWeakCount>11</maxWeakCount>
      <stageThreshold>-8.8154149055480957e-01</stageThreshold>
      <weakClassifiers>
        <_>
          <internalNodes>
            0 -1 96 1.3157975627109408e-03</internalNodes>
          <leafValues>
            1.6666667163372040e-01 -7.7419352531433105e-01</leafValues></_>
        <_>
          <internalNodes>
            0 -1 33 -1.2373720528557897e-03</internalNodes>
          <leafValues>
            2.7776288986206055e-01 -3.8962453603744507e-01</leafValues></_>
        <_>
          <internalNodes>
            0 -1 146 -1.7137041315436363e-02</internalNodes>
          <leafValues>
            5.5125707387924194e-01 -1.9004021584987640e-01</leafValues></_>
        <_>
          <internalNodes>
            0 -1 94 7.7069405233487487e-04</internalNodes>
          <leafValues>
            -2.5575521588325500e-01 4.7565689682960510e-01</leafValues></_>
        <_>
          <internalNodes>
            0 -1 29 1.1760870926082134e-02</internalNodes>
          <leafValues>
            -2.1019521355628967e-01 8.7835133075714111e-01</leafValues></_>
        <_>
          <internalNodes>
            0 -1 76 -5.2970359101891518e-03</internalNodes>
          <leafValues>
            2.8822648525238037e-01 -4.1480877995491028e-01</leafValues></_>
        <_>
          <internalNodes>
            0 -1 100 -6.5149657893925905e-04</internalNodes>
          <leafValues>
            -6.7964637279510498e-01 2.1535183489322662e-01</leafValues></_>
        <_>
          <internalNodes>
            0 -1 51 2.7926272014155984e-04</internalNodes>
          <leafValues>
            -2.7408328652381897e-01 4.6939492225646973e-01</leafValues></_>
        <_>
          <internalNodes>
            0 -1 30 7.9815266653895378e-03</internalNodes>
          <leafValues>
            -1.9502562284469604e-01 6.0020166635513306e-01</leafValues></_>
        <_>
          <internalNodes>
            0 -1 93 1.9161478849127889e-04</internalNodes>
          <leafValues>
            1.8467706441879272e-01 -5.7266598939895630e-01</leafValues></_>
        <_>
          <internalNodes>
            0 -1 135 -1.6745638567954302e-03</internalNodes>
          <leafValues>
            8.4968644380569458e-01 -1.8609157204627991e-01</leafValues></_></weakClassifiers></_></stages>
  <features>
    <_>
      <rects>
        <_>
          0 0 3 5 -1.</_>
        <_>
          1 0 1 5 2.</_></rects>
      <tilted>0</tilted></_>
    <_>
      <rects>
        <_>
          0 0 2 9 -1.</_>
        <_>
          1 0 1 9 2.</_></rects>
      <tilted>0</tilted></_>
    <_>
      <rects>
        <_>
          0 0 4 20 -1.</_>
        <_>
          2 0 2 20 2.</_></rects>
      <tilted>0</tilted></_>
    <_>
      <rects>
        <_>
          0 0 8 2 -1.</_>
        <_>
          0 0 4 1 2.</_>
        <_>
          4 1 4 1 2.</_></rects>
      <tilted>0</tilted></_>
    <_>
      <rects>
        <_>
          0 0 8 11 -1.</_>
        <_>
          4 0 4 11 2.</_></rects>
      <tilted>0</tilted></_>
    <_>
      <rects>
        <_>
          0 0 18 1 -1.</_>
        <_>
          6 0 6 1 2.</_></rects>
      <tilted>0</tilted></_>
    <_>
      <rects>
        <_>
          0 0 12 6 -1.</_>
        <_>
          6 0 6 6 2.</_></rects>
      <tilted>0</tilted></_>
    <_>
      <rects>
        <_>
          0 0 14 16 -1.</_>
        <_>
          0 0 7 8 2.</_>
        <_>
          7 8 7 8 2.</_></rects>
      <tilted>0</tilted></_>
    <_>
      <rects>
        <_>
          0 1 3 1 -1.</_>
        <_>
          1 1 1 1 2.</_></rects>
      <tilted>0</tilted></_>
    <_>
      <rects>
        <_>
          0 1 8 7 -1.</_>
        <_>
          4 1 4 7 2.</_></rects>
      <tilted>0</tilted></_>
    <_>
      <rects>
        <_>
          0 1 8 8 -1.</_>
        <_>
          4 1 4 8 2.</_></rects>
      <tilted>0</tilted></_>
    <_>
      <rects>
        <_>
          0 1 12 8 -1.</_>
        <_>
          0 1 6 4 2.</_>
        <_>
          6 5 6 4 2.</_></rects>
      <tilted>0</tilted></_>
    <_>
      <rects>
        <_>
          0 2 8 4 -1.</_>
        <_>
          0 2 4 2 2.</_>
        <_>
          4 4 4 2 2.</_></rects>
      <tilted>0</tilted></_>
    <_>
      <rects>
        <_>
          0 2 9 6 -1.</_>
        <_>
          0 4 9 2 2.</_></rects>
      <tilted>0</tilted></_>
    <_>
      <rects>
        <_>
          0 3 8 1 -1.</_>
        <_>
          4 3 4 1 2.</_></rects>
      <tilted>0</tilted></_>
    <_>
      <rects>
        <_>
          0 4 3 1 -1.</_>
        <_>
          1 4 1 1 2.</_></rects>
      <tilted>0</tilted></_>
    <_>
      <rects>
        <_>
          0 7 2 4 -1.</_>
        <_>
          0 7 1 2 2.</_>
        <_>
          1 9 1 2 2.</_></rects>
      <tilted>0</tilted></_>
    <_>
      <rects>
        <_>
          0 7 4 4 -1.</_>
        <_>
          0 9 4 2 2.</_></rects>
      <tilted>0</tilted></_>
    <_>
      <rects>
        <_>
          0 8 1 2 -1.</_>
        <_>
          0 9 1 1 2.</_></rects>
      <tilted>0</tilted></_>
    <_>
      <rects>
        <_>
          0 8 2 9 -1.</_>
        <_>
          1 8 1 9 2.</_></rects>
      <tilted>0</tilted></_>
    <_>
      <rects>
        <_>
          0 8 15 3 -1.</_>
        <_>
          0 9 15 1 2.</_></rects>
      <tilted>0</tilted></_>
    <_>
      <rects>
        <_>
          0 8 19 6 -1.</_>
        <_>
          0 11 19 3 2.</_></rects>
      <tilted>0</tilted></_>
    <_>
      <rects>
        <_>
          0 9 2 1 -1.</_>
        <_>
          1 9 1 1 2.</_></rects>
      <tilted>0</tilted></_>
    <_>
      <rects>
        <_>
          0 11 6 8 -1.</_>
        <_>
          0 11 3 4 2.</_>
        <_>
          3 15 3 4 2.</_></rects>
      <tilted>0</tilted></_>
    <_>
      <rects>
        <_>
          0 12 10 8 -1.</_>
        <_>
          0 12 5 4 2.</_>
        <_>
          5 16 5 4 2.</_></rects>
      <tilted>0</tilted></_>
    <_>
      <rects>
        <_>
          0 13 8 4 -1.</_>
        <_>
          4 13 4 4 2.</_></rects>
      <tilted>0</tilted></_>
    <_>
      <rects>
        <_>
          0 13 5 6 -1.</_>
        <_>
          0 15 5 2 2.</_></rects>
      <tilted>0</tilted></_>
    <_>
      <rects>
        <_>
          0 15 8 1 -1.</_>
        <_>
          4 15 4 1 2.</_></rects>
      <tilted>0</tilted></_>
    <_>
      <rects>
        <_>
          0 16 4 4 -1.</_>
        <_>
          2 16 2 4 2.</_></rects>
      <tilted>0</tilted></_>
    <_>
      <rects>
        <_>
          0 16 10 1 -1.</_>
        <_>
          5 16 5 1 2.</_></rects>
      <tilted>0</tilted></_>
    <_>
      <rects>
        <_>
          1 0 2 17 -1.</_>
        <_>
          2 0 1 17 2.</_></rects>
      <tilted>0</tilted></_>
    <_>
      <rects>
        <_>
          1 0 12 2 -1.</_>
        <_>
          1 0 6 1 2.</_>
        <_>
          7 1 6 1 2.</_></rects>
      <tilted>0</tilted></_>
    <_>
      <rects>
        <_>
          1 2 4 2 -1.</_>
        <_>
          3 2 2 2 2.</_></rects>
      <tilted>0</tilted></_>
    <_>
      <rects>
        <_>
          1 2 12 2 -1.</_>
        <_>
          1 2 6 1 2.</_>
        <_>
          7 3 6 1 2.</_></rects>
      <tilted>0</tilted></_>
    <_>
      <rects>
        <_>
          1 3 2 1 -1.</_>
        <_>
          2 3 1 1 2.</_></rects>
      <tilted>0</tilted></_>
    <_>
      <rects>
        <_>
          1 6 2 2 -1.</_>
        <_>
          2 6 1 2 2.</_></rects>
      <tilted>0</tilted></_>
    <_>
      <rects>
        <_>
          1 6 4 13 -1.</_>
        <_>
          3 6 2 13 2.</_></rects>
      <tilted>0</tilted></_>
    <_>
      <rects>
        <_>
          1 6 15 3 -1.</_>
        <_>
          1 7 15 1 2.</_></rects>
      <tilted>0</tilted></_>
    <_>
      <rects>
        <_>
          1 8 19 12 -1.</_>
        <_>
          1 12 19 4 2.</_></rects>
      <tilted>0</tilted></_>
    <_>
      <rects>
        <_>
          1 9 19 9 -1.</_>
        <_>
          1 12 19 3 2.</_></rects>
      <tilted>0</tilted></_>
    <_>
      <rects>
        <_>
          1 11 3 2 -1.</_>
        <_>
          1 12 3 1 2.</_></rects>
      <tilted>0</tilted></_>
    <_>
      <rects>
        <_>
          1 12 12 3 -1.</_>
        <_>
          5 12 4 3 2.</_></rects>
      <tilted>0</tilted></_>
    <_>
      <rects>
        <_>
          1 18 15 2 -1.</_>
        <_>
          1 19 15 1 2.</_></rects>
      <tilted>0</tilted></_>
    <_>
      <rects>
        <_>
          2 0 1 2 -1.</_>
        <_>
          2 1 1 1 2.</_></rects>
      <tilted>0</tilted></_>
    <_>
      <rects>
        <_>
          2 0 10 3 -1.</_>
        <_>
          7 0 5 3 2.</_></rects>
      <tilted>0</tilted></_>
    <_>
      <rects>
        <_>
          2 0 18 1 -1.</_>
        <_>
          8 0 6 1 2.</_></rects>
      <tilted>0</tilted></_>
    <_>
      <rects>
        <_>
          2 0 18 2 -1.</_>
        <_>
          8 0 6 2 2.</_></rects>
      <tilted>0</tilted></_>
    <_>
      <rects>
        <_>
          2 2 16 13 -1.</_>
        <_>
          10 2 8 13 2.</_></rects>
      <tilted>0</tilted></_>
    <_>
      <rects>
        <_>
          2 12 3 8 -1.</_>
        <_>
          3 12 1 8 2.</_></rects>
      <tilted>0</tilted></_>
    <_>
      <rects>
        <_>
          2 15 6 4 -1.</_>
        <_>
          2 15 3 2 2.</_>
        <_>
          5 17 3 2 2.</_></rects>
      <tilted>0</tilted></_>
    <_>
      <rects>
        <_>
          2 16 1 4 -1.</_>
        <_>
          2 18 1 2 2.</_></rects>
      <tilted>0</tilted></_>
    <_>
      <rects>
        <_>
          3 3 2 4 -1.</_>
        <_>
          3 3 1 2 2.</_>
        <_>
          4 5 1 2 2.</_></rects>
      <tilted>0</tilted></_>
    <_>
      <rects>
        <_>
          3 6 8 12 -1.</_>
        <_>
          3 10 8 4 2.</_></rects>
      <tilted>0</tilted></_>
    <_>
      <rects>
        <_>
          3 7 9 12 -1.</_>
        <_>
          3 11 9 4 2.</_></rects>
      <tilted>0</tilted></_>
    <_>
      <rects>
        <_>
          3 9 6 8 -1.</_>
        <_>
          3 9 3 4 2.</_>
        <_>
          6 13 3 4 2.</_></rects>
      <tilted>0</tilted></_>
    <_>
      <rects>
        <_>
          3 10 2 9 -1.</_>
        <_>
          3 13 2 3 2.</_></rects>
      <tilted>0</tilted></_>
    <_>
      <rects>
        <_>
          3 17 4 2 -1.</_>
        <_>
          3 17 2 1 2.</_>
        <_>
          5 18 2 1 2.</_></rects>
      <tilted>0</tilted></_>
    <_>
      <rects>
        <_>
          4 0 2 11 -1.</_>
        <_>
          5 0 1 11 2.</_></rects>
      <tilted>0</tilted></_>
    <_>
      <rects>
        <_>
          4 1 2 4 -1.</_>
        <_>
          5 1 1 4 2.</_></rects>
      <tilted>0</tilted></_>
    <_>
      <rects>
        <_>
          4 7 12 2 -1.</_>
        <_>
          4 8 12 1 2.</_></rects>
      <tilted>0</tilted></_>
    <_>
      <rects>
        <_>
          4 8 12 4 -1.</_>
        <_>
          4 10 12 2 2.</_></rects>
      <tilted>0</tilted></_>
    <_>
      <rects>
        <_>
          4 15 3 4 -1.</_>
        <_>
          5 15 1 4 2.</_></rects>
      <tilted>0</tilted></_>
    <_>
      <rects>
        <_>
          5 0 2 2 -1.</_>
        <_>
          5 0 1 1 2.</_>
        <_>
          6 1 1 1 2.</_></rects>
      <tilted>0</tilted></_>
    <_>
      <rects>
        <_>
          5 0 15 3 -1.</_>
        <_>
          10 0 5 3 2.</_></rects>
      <tilted>0</tilted></_>
    <_>
      <rects>
        <_>
          5 1 2 3 -1.</_>
        <_>
          6 1 1 3 2.</_></rects>
      <tilted>0</tilted></_>
    <_>
      <rects>
        <_>
          5 1 4 18 -1.</_>
        <_>
          5 1 2 9 2.</_>
        <_>
          7 10 2 9 2.</_></rects>
      <tilted>0</tilted></_>
    <_>
      <rects>
        <_>
          5 1 6 6 -1.</_>
        <_>
          5 4 6 3 2.</_></rects>
      <tilted>0</tilted></_>
    <_>
      <rects>
        <_>
          5 7 5 12 -1.</_>
        <_>
          5 11 5 4 2.</_></rects>
      <tilted>0</tilted></_>
    <_>
      <rects>
        <_>
          5 8 5 2 -1.</_>
        <_>
          5 9 5 1 2.</_></rects>
      <tilted>0</tilted></_>
    <_>
      <rects>
        <_>
          5 12 9 6 -1.</_>
        <_>
          5 15 9 3 2.</_></rects>
      <tilted>0</tilted></_>
    <_>
      <rects>
        <_>
          5 17 1 2 -1.</_>
        <_>
          5 18 1 1 2.</_></rects>
      <tilted>0</tilted></_>
    <_>
      <rects>
        <_>
          5 18 1 2 -1.</_>
        <_>
          5 19 1 1 2.</_></rects>
      <tilted>0</tilted></_>
    <_>
      <rects>
        <_>
          6 1 14 3 -1.</_>
        <_>
          13 1 7 3 2.</_></rects>
      <tilted>0</tilted></_>
    <_>
      <rects>
        <_>
          6 4 4 12 -1.</_>
        <_>
          6 8 4 4 2.</_></rects>
      <tilted>0</tilted></_>
    <_>
      <rects>
        <_>
          6 4 14 8 -1.</_>
        <_>
          6 8 14 4 2.</_></rects>
      <tilted>0</tilted></_>
    <_>
      <rects>
        <_>
          6 5 1 2 -1.</_>
        <_>
          6 6 1 1 2.</_></rects>
      <tilted>0</tilted></_>
    <_>
      <rects>
        <_>
          6 6 5 8 -1.</_>
        <_>
          6 10 5 4 2.</_></rects>
      <tilted>0</tilted></_>
    <_>
      <rects>
        <_>
          6 18 8 2 -1.</_>
        <_>
          10 18 4 2 2.</_></rects>
      <tilted>0</tilted></_>
    <_>
      <rects>
        <_>
          7 0 1 2 -1.</_>
        <_>
          7 1 1 1 2.</_></rects>
      <tilted>0</tilted></_>
    <_>
      <rects>
        <_>
          7 1 2 18 -1.</_>
        <_>
          7 7 2 6 2.</_></rects>
      <tilted>0</tilted></_>
    <_>
      <rects>
        <_>
          7 6 3 4 -1.</_>
        <_>
          7 8 3 2 2.</_></rects>
      <tilted>0</tilted></_>
    <_>
      <rects>
        <_>
          7 9 8 4 -1.</_>
        <_>
          7 11 8 2 2.</_></rects>
      <tilted>0</tilted></_>
    <_>
      <rects>
        <_>
          7 11 2 6 -1.</_>
        <_>
          7 11 1 3 2.</_>
        <_>
          8 14 1 3 2.</_></rects>
      <tilted>0</tilted></_>
    <_>
      <rects>
        <_>
          7 15 4 1 -1.</_>
        <_>
          9 15 2 1 2.</_></rects>
      <tilted>0</tilted></_>
    <_>
      <rects>
        <_>
          7 16 9 4 -1.</_>
        <_>
          10 16 3 4 2.</_></rects>
      <tilted>0</tilted></_>
    <_>
      <rects>
        <_>
          7 18 1 2 -1.</_>
        <_>
          7 19 1 1 2.</_></rects>
      <tilted>0</tilted></_>
    <_>
      <rects>
        <_>
          8 0 12 4 -1.</_>
        <_>
          14 0 6 4 2.</_></rects>
      <tilted>0</tilted></_>
    <_>
      <rects>
        <_>
          8 1 1 2 -1.</_>
        <_>
          8 2 1 1 2.</_></rects>
      <tilted>0</tilted></_>
    <_>
      <rects>
        <_>
          8 1 2 4 -1.</_>
        <_>
          8 3 2 2 2.</_></rects>
      <tilted>0</tilted></_>
    <_>
      <rects>
        <_>
          8 5 5 2 -1.</_>
        <_>
          8 6 5 1 2.</_></rects>
      <tilted>0</tilted></_>
    <_>
      <rects>
        <_>
          8 6 1 9 -1.</_>
        <_>
          8 9 1 3 2.</_></rects>
      <tilted>0</tilted></_>
    <_>
      <rects>
        <_>
          8 6 2 4 -1.</_>
        <_>
          8 8 2 2 2.</_></rects>
      <tilted>0</tilted></_>
    <_>
      <rects>
        <_>
          8 8 9 4 -1.</_>
        <_>
          8 10 9 2 2.</_></rects>
      <tilted>0</tilted></_>
    <_>
      <rects>
        <_>
          8 12 5 2 -1.</_>
        <_>
          8 13 5 1 2.</_></rects>
      <tilted>0</tilted></_>
    <_>
      <rects>
        <_>
          8 16 1 4 -1.</_>
        <_>
          8 18 1 2 2.</_></rects>
      <tilted>0</tilted></_>
    <_>
      <rects>
        <_>
          8 17 2 2 -1.</_>
        <_>
          9 17 1 2 2.</_></rects>
      <tilted>0</tilted></_>
    <_>
      <rects>
        <_>
          8 17 4 1 -1.</_>
        <_>
          10 17 2 1 2.</_></rects>
      <tilted>0</tilted></_>
    <_>
      <rects>
        <_>
          9 0 1 4 -1.</_>
        <_>
          9 2 1 2 2.</_></rects>
      <tilted>0</tilted></_>
    <_>
      <rects>
        <_>
          9 0 6 20 -1.</_>
        <_>
          11 0 2 20 2.</_></rects>
      <tilted>0</tilted></_>
    <_>
      <rects>
        <_>
          9 7 11 6 -1.</_>
        <_>
          9 9 11 2 2.</_></rects>
      <tilted>0</tilted></_>
    <_>
      <rects>
        <_>
          9 9 1 2 -1.</_>
        <_>
          9 10 1 1 2.</_></rects>
      <tilted>0</tilted></_>
    <_>
      <rects>
        <_>
          9 13 2 2 -1.</_>
        <_>
          10 13 1 2 2.</_></rects>
      <tilted>0</tilted></_>
    <_>
      <rects>
        <_>
          9 14 1 3 -1.</_>
        <_>
          9 15 1 1 2.</_></rects>
      <tilted>0</tilted></_>
    <_>
      <rects>
        <_>
          9 14 8 6 -1.</_>
        <_>
          13 14 4 6 2.</_></rects>
      <tilted>0</tilted></_>
    <_>
      <rects>
        <_>
          9 17 2 3 -1.</_>
        <_>
          10 17 1 3 2.</_></rects>
      <tilted>0</tilted></_>
    <_>
      <rects>
        <_>
          9 18 3 2 -1.</_>
        <_>
          10 18 1 2 2.</_></rects>
      <tilted>0</tilted></_>
    <_>
      <rects>
        <_>
          9 19 2 1 -1.</_>
        <_>
          10 19 1 1 2.</_></rects>
      <tilted>0</tilted></_>
    <_>
      <rects>
        <_>
          10 0 10 4 -1.</_>
        <_>
          15 0 5 4 2.</_></rects>
      <tilted>0</tilted></_>
    <_>
      <rects>
        <_>
          10 0 10 5 -1.</_>
        <_>
          15 0 5 5 2.</_></rects>
      <tilted>0</tilted></_>
    <_>
      <rects>
        <_>
          10 0 10 8 -1.</_>
        <_>
          15 0 5 8 2.</_></rects>
      <tilted>0</tilted></_>
    <_>
      <rects>
        <_>
          10 2 6 12 -1.</_>
        <_>
          13 2 3 12 2.</_></rects>
      <tilted>0</tilted></_>
    <_>
      <rects>
        <_>
          10 4 10 16 -1.</_>
        <_>
          10 4 5 8 2.</_>
        <_>
          15 12 5 8 2.</_></rects>
      <tilted>0</tilted></_>
    <_>
      <rects>
        <_>
          10 7 9 2 -1.</_>
        <_>
          10 8 9 1 2.</_></rects>
      <tilted>0</tilted></_>
    <_>
      <rects>
        <_>
          10 14 10 6 -1.</_>
        <_>
          10 14 5 3 2.</_>
        <_>
          15 17 5 3 2.</_></rects>
      <tilted>0</tilted></_>
    <_>
      <rects>
        <_>
          10 15 10 4 -1.</_>
        <_>
          15 15 5 4 2.</_></rects>
      <tilted>0</tilted></_>
    <_>
      <rects>
        <_>
          10 17 8 2 -1.</_>
        <_>
          10 17 4 1 2.</_>
        <_>
          14 18 4 1 2.</_></rects>
      <tilted>0</tilted></_>
    <_>
      <rects>
        <_>
          11 2 8 4 -1.</_>
        <_>
          11 2 4 2 2.</_>
        <_>
          15 4 4 2 2.</_></rects>
      <tilted>0</tilted></_>
    <_>
      <rects>
        <_>
          11 7 2 6 -1.</_>
        <_>
          11 7 1 3 2.</_>
        <_>
          12 10 1 3 2.</_></rects>
      <tilted>0</tilted></_>
    <_>
      <rects>
        <_>
          12 0 8 18 -1.</_>
        <_>
          12 0 4 9 2.</_>
        <_>
          16 9 4 9 2.</_></rects>
      <tilted>0</tilted></_>
    <_>
      <rects>
        <_>
          12 1 8 9 -1.</_>
        <_>
          16 1 4 9 2.</_></rects>
      <tilted>0</tilted></_>
    <_>
      <rects>
        <_>
          12 3 1 2 -1.</_>
        <_>
          12 4 1 1 2.</_></rects>
      <tilted>0</tilted></_>
    <_>
      <rects>
        <_>
          13 0 2 4 -1.</_>
        <_>
          13 0 1 2 2.</_>
        <_>
          14 2 1 2 2.</_></rects>
      <tilted>0</tilted></_>
    <_>
      <rects>
        <_>
          13 2 7 2 -1.</_>
        <_>
          13 3 7 1 2.</_></rects>
      <tilted>0</tilted></_>
    <_>
      <rects>
        <_>
          13 5 2 2 -1.</_>
        <_>
          13 6 2 1 2.</_></rects>
      <tilted>0</tilted></_>
    <_>
      <rects>
        <_>
          13 8 4 2 -1.</_>
        <_>
          13 8 2 1 2.</_>
        <_>
          15 9 2 1 2.</_></rects>
      <tilted>0</tilted></_>
    <_>
      <rects>
        <_>
          13 8 6 9 -1.</_>
        <_>
          13 11 6 3 2.</_></rects>
      <tilted>0</tilted></_>
    <_>
      <rects>
        <_>
          13 12 6 6 -1.</_>
        <_>
          13 12 3 3 2.</_>
        <_>
          16 15 3 3 2.</_></rects>
      <tilted>0</tilted></_>
    <_>
      <rects>
        <_>
          14 0 5 8 -1.</_>
        <_>
          14 4 5 4 2.</_></rects>
      <tilted>0</tilted></_>
    <_>
      <rects>
        <_>
          14 0 6 4 -1.</_>
        <_>
          14 2 6 2 2.</_></rects>
      <tilted>0</tilted></_>
    <_>
      <rects>
        <_>
          14 1 4 4 -1.</_>
        <_>
          14 1 2 2 2.</_>
        <_>
          16 3 2 2 2.</_></rects>
      <tilted>0</tilted></_>
    <_>
      <rects>
        <_>
          14 2 6 6 -1.</_>
        <_>
          17 2 3 6 2.</_></rects>
      <tilted>0</tilted></_>
    <_>
      <rects>
        <_>
          14 2 6 9 -1.</_>
        <_>
          17 2 3 9 2.</_></rects>
      <tilted>0</tilted></_>
    <_>
      <rects>
        <_>
          14 5 1 2 -1.</_>
        <_>
          14 6 1 1 2.</_></rects>
      <tilted>0</tilted></_>
    <_>
      <rects>
        <_>
          14 7 6 9 -1.</_>
        <_>
          17 7 3 9 2.</_></rects>
      <tilted>0</tilted></_>
    <_>
      <rects>
        <_>
          14 8 6 10 -1.</_>
        <_>
          16 8 2 10 2.</_></rects>
      <tilted>0</tilted></_>
    <_>
      <rects>
        <_>
          14 11 2 4 -1.</_>
        <_>
          14 11 1 2 2.</_>
        <_>
          15 13 1 2 2.</_></rects>
      <tilted>0</tilted></_>
    <_>
      <rects>
        <_>
          14 14 6 5 -1.</_>
        <_>
          16 14 2 5 2.</_></rects>
      <tilted>0</tilted></_>
    <_>
      <rects>
        <_>
          15 4 4 4 -1.</_>
        <_>
          15 4 2 2 2.</_>
        <_>
          17 6 2 2 2.</_></rects>
      <tilted>0</tilted></_>
    <_>
      <rects>
        <_>
          15 5 1 12 -1.</_>
        <_>
          15 11 1 6 2.</_></rects>
      <tilted>0</tilted></_>
    <_>
      <rects>
        <_>
          15 13 5 2 -1.</_>
        <_>
          15 14 5 1 2.</_></rects>
      <tilted>0</tilted></_>
    <_>
      <rects>
        <_>
          15 14 2 4 -1.</_>
        <_>
          15 14 1 2 2.</_>
        <_>
          16 16 1 2 2.</_></rects>
      <tilted>0</tilted></_>
    <_>
      <rects>
        <_>
          16 0 4 11 -1.</_>
        <_>
          18 0 2 11 2.</_></rects>
      <tilted>0</tilted></_>
    <_>
      <rects>
        <_>
          16 0 4 16 -1.</_>
        <_>
          18 0 2 16 2.</_></rects>
      <tilted>0</tilted></_>
    <_>
      <rects>
        <_>
          16 4 2 2 -1.</_>
        <_>
          16 4 1 1 2.</_>
        <_>
          17 5 1 1 2.</_></rects>
      <tilted>0</tilted></_>
    <_>
      <rects>
        <_>
          16 5 4 2 -1.</_>
        <_>
          18 5 2 2 2.</_></rects>
      <tilted>0</tilted></_>
    <_>
      <rects>
        <_>
          16 5 4 13 -1.</_>
        <_>
          18 5 2 13 2.</_></rects>
      <tilted>0</tilted></_>
    <_>
      <rects>
        <_>
          16 9 4 6 -1.</_>
        <_>
          16 12 4 3 2.</_></rects>
      <tilted>0</tilted></_>
    <_>
      <rects>
        <_>
          16 15 2 2 -1.</_>
        <_>
          16 16 2 1 2.</_></rects>
      <tilted>0</tilted></_>
    <_>
      <rects>
        <_>
          17 1 2 8 -1.</_>
        <_>
          18 1 1 8 2.</_></rects>
      <tilted>0</tilted></_>
    <_>
      <rects>
        <_>
          17 8 2 5 -1.</_>
        <_>
          18 8 1 5 2.</_></rects>
      <tilted>0</tilted></_>
    <_>
      <rects>
        <_>
          17 9 1 10 -1.</_>
        <_>
          17 14 1 5 2.</_></rects>
      <tilted>0</tilted></_>
    <_>
      <rects>
        <_>
          17 12 1 8 -1.</_>
        <_>
          17 16 1 4 2.</_></rects>
      <tilted>0</tilted></_>
    <_>
      <rects>
        <_>
          17 13 2 1 -1.</_>
        <_>
          18 13 1 1 2.</_></rects>
      <tilted>0</tilted></_>
    <_>
      <rects>
        <_>
          18 11 2 1 -1.</_>
        <_>
          19 11 1 1 2.</_></rects>
      <tilted>0</tilted></_></features></cascade>
</opencv_storage>
