<?xml version="1.0"?>
<opencv_storage>
<stage11>
  <maxWeakCount>9</maxWeakCount>
  <stageThreshold>-1.4938393831253052e+00</stageThreshold>
  <weakClassifiers>
    <_>
      <internalNodes>
        0 -1 69367 4.0544760413467884e-03</internalNodes>
      <leafValues>
        -7.0967739820480347e-01 -5.5555555969476700e-02</leafValues></_>
    <_>
      <internalNodes>
        0 -1 54623 -8.9734373614192009e-04</internalNodes>
      <leafValues>
        3.9209613204002380e-01 -3.0619299411773682e-01</leafValues></_>
    <_>
      <internalNodes>
        0 -1 28323 -4.9976568669080734e-02</internalNodes>
      <leafValues>
        -3.3543393015861511e-01 3.0333477258682251e-01</leafValues></_>
    <_>
      <internalNodes>
        0 -1 68611 1.5364820137619972e-03</internalNodes>
      <leafValues>
        -2.4390873312950134e-01 4.6844246983528137e-01</leafValues></_>
    <_>
      <internalNodes>
        0 -1 63331 -7.4445255449973047e-05</internalNodes>
      <leafValues>
        2.9522639513015747e-01 -3.9564305543899536e-01</leafValues></_>
    <_>
      <internalNodes>
        0 -1 65350 -1.4749942347407341e-03</internalNodes>
      <leafValues>
        5.4960453510284424e-01 -1.7855283617973328e-01</leafValues></_>
    <_>
      <internalNodes>
        0 -1 75247 1.2723144143819809e-02</internalNodes>
      <leafValues>
        -9.8769143223762512e-02 6.5982168912887573e-01</leafValues></_>
    <_>
      <internalNodes>
        0 -1 78382 -8.3597861230373383e-03</internalNodes>
      <leafValues>
        -5.0807088613510132e-01 1.8908406794071198e-01</leafValues></_>
    <_>
      <internalNodes>
        0 -1 74321 2.4017699062824249e-02</internalNodes>
      <leafValues>
        -1.3661722838878632e-01 8.0130547285079956e-01</leafValues></_></weakClassifiers></stage11>
</opencv_storage>
