<?xml version="1.0"?>
<opencv_storage>
<stage20>
  <maxWeakCount>28</maxWeakCount>
  <stageThreshold>-1.4140806198120117e+00</stageThreshold>
  <weakClassifiers>
    <_>
      <internalNodes>
        0 -1 29394 1.1906867846846581e-02</internalNodes>
      <leafValues>
        -6.9932222366333008e-01 1.0638298094272614e-01</leafValues></_>
    <_>
      <internalNodes>
        0 -1 49196 3.4777628025040030e-04</internalNodes>
      <leafValues>
        -2.8162446618080139e-01 1.0866042971611023e-01</leafValues></_>
    <_>
      <internalNodes>
        0 -1 67038 3.7411286029964685e-04</internalNodes>
      <leafValues>
        9.3215487897396088e-02 -4.0018874406814575e-01</leafValues></_>
    <_>
      <internalNodes>
        0 -1 54574 -8.3998136688023806e-05</internalNodes>
      <leafValues>
        -2.8211054205894470e-01 1.2847521901130676e-01</leafValues></_>
    <_>
      <internalNodes>
        0 -1 7041 -1.7196159809827805e-02</internalNodes>
      <leafValues>
        3.3398538827896118e-01 -8.1798680126667023e-02</leafValues></_>
    <_>
      <internalNodes>
        0 -1 73673 7.2119504213333130e-02</internalNodes>
      <leafValues>
        4.4650688767433167e-02 -6.5620559453964233e-01</leafValues></_>
    <_>
      <internalNodes>
        0 -1 2763 1.9247137010097504e-02</internalNodes>
      <leafValues>
        -5.0407394766807556e-02 5.2763211727142334e-01</leafValues></_>
    <_>
      <internalNodes>
        0 -1 73251 -6.5789464861154556e-03</internalNodes>
      <leafValues>
        -7.4175947904586792e-01 4.2215052992105484e-02</leafValues></_>
    <_>
      <internalNodes>
        0 -1 73402 -4.2426865547895432e-03</internalNodes>
      <leafValues>
        3.1248143315315247e-01 -1.1340856552124023e-01</leafValues></_>
    <_>
      <internalNodes>
        0 -1 75035 1.4487196458503604e-03</internalNodes>
      <leafValues>
        -1.5423360466957092e-01 2.6435923576354980e-01</leafValues></_>
    <_>
      <internalNodes>
        0 -1 16269 -3.4273359924554825e-02</internalNodes>
      <leafValues>
        -1.1258667707443237e-01 2.7906164526939392e-01</leafValues></_>
    <_>
      <internalNodes>
        0 -1 40942 -1.0902792215347290e-02</internalNodes>
      <leafValues>
        1.3267223536968231e-01 -2.5568827986717224e-01</leafValues></_>
    <_>
      <internalNodes>
        0 -1 38940 -1.6390924429288134e-05</internalNodes>
      <leafValues>
        -2.6264181733131409e-01 1.2371637672185898e-01</leafValues></_>
    <_>
      <internalNodes>
        0 -1 42901 -1.6586238052695990e-03</internalNodes>
      <leafValues>
        -6.9795763492584229e-01 4.4670943170785904e-02</leafValues></_>
    <_>
      <internalNodes>
        0 -1 21903 7.6093822717666626e-02</internalNodes>
      <leafValues>
        3.2208207994699478e-02 -7.5808799266815186e-01</leafValues></_>
    <_>
      <internalNodes>
        0 -1 3350 -1.1369732208549976e-02</internalNodes>
      <leafValues>
        -3.6648875474929810e-01 8.3756163716316223e-02</leafValues></_>
    <_>
      <internalNodes>
        0 -1 39864 -2.4870678316801786e-04</internalNodes>
      <leafValues>
        1.9536907970905304e-01 -1.7333564162254333e-01</leafValues></_>
    <_>
      <internalNodes>
        0 -1 39855 -2.6102887932211161e-04</internalNodes>
      <leafValues>
        3.5351067781448364e-01 -1.1715671420097351e-01</leafValues></_>
    <_>
      <internalNodes>
        0 -1 4435 1.6548244748264551e-03</internalNodes>
      <leafValues>
        -1.2196551263332367e-01 2.5525373220443726e-01</leafValues></_>
    <_>
      <internalNodes>
        0 -1 68135 -5.4808398708701134e-03</internalNodes>
      <leafValues>
        3.4863632917404175e-01 -8.7801359593868256e-02</leafValues></_>
    <_>
      <internalNodes>
        0 -1 44187 2.9174927622079849e-02</internalNodes>
      <leafValues>
        -4.2125601321458817e-02 7.5381892919540405e-01</leafValues></_>
    <_>
      <internalNodes>
        0 -1 21726 1.8416065722703934e-02</internalNodes>
      <leafValues>
        1.3108591735363007e-01 -2.8162458539009094e-01</leafValues></_>
    <_>
      <internalNodes>
        0 -1 50428 -3.4318501129746437e-03</internalNodes>
      <leafValues>
        -6.0140532255172729e-01 4.7058898955583572e-02</leafValues></_>
    <_>
      <internalNodes>
        0 -1 41805 -2.4571116082370281e-03</internalNodes>
      <leafValues>
        3.0712521076202393e-01 -1.1095660179853439e-01</leafValues></_>
    <_>
      <internalNodes>
        0 -1 44682 -2.5288126198574901e-04</internalNodes>
      <leafValues>
        -2.1576772630214691e-01 1.4795601367950439e-01</leafValues></_>
    <_>
      <internalNodes>
        0 -1 34833 5.4912440478801727e-02</internalNodes>
      <leafValues>
        -4.3503809720277786e-02 7.8282415866851807e-01</leafValues></_>
    <_>
      <internalNodes>
        0 -1 52059 -3.1525851227343082e-03</internalNodes>
      <leafValues>
        1.2783706188201904e-01 -2.4918475747108459e-01</leafValues></_>
    <_>
      <internalNodes>
        0 -1 24914 -1.3663260638713837e-01</internalNodes>
      <leafValues>
        -2.1850876510143280e-01 1.6077807545661926e-01</leafValues></_></weakClassifiers></stage20>
</opencv_storage>
