<?xml version="1.0"?>
<opencv_storage>
<stage22>
  <maxWeakCount>24</maxWeakCount>
  <stageThreshold>-1.5401126146316528e+00</stageThreshold>
  <weakClassifiers>
    <_>
      <internalNodes>
        0 -1 63228 9.1814726591110229e-02</internalNodes>
      <leafValues>
        -7.4405026435852051e-01 -1.2621359527111053e-01</leafValues></_>
    <_>
      <internalNodes>
        0 -1 45425 -9.9630370736122131e-02</internalNodes>
      <leafValues>
        -3.4436380863189697e-01 1.5484178066253662e-01</leafValues></_>
    <_>
      <internalNodes>
        0 -1 27718 -5.8744261041283607e-03</internalNodes>
      <leafValues>
        6.1352968215942383e-02 -8.2416576147079468e-01</leafValues></_>
    <_>
      <internalNodes>
        0 -1 73191 -3.1163901090621948e-02</internalNodes>
      <leafValues>
        -7.4792891740798950e-01 9.2990852892398834e-02</leafValues></_>
    <_>
      <internalNodes>
        0 -1 44503 -9.4695237930864096e-04</internalNodes>
      <leafValues>
        -3.6172083020210266e-01 1.0891512036323547e-01</leafValues></_>
    <_>
      <internalNodes>
        0 -1 34770 1.6215199604630470e-02</internalNodes>
      <leafValues>
        5.4963532835245132e-02 -9.3243741989135742e-01</leafValues></_>
    <_>
      <internalNodes>
        0 -1 46484 -1.5572123811580241e-04</internalNodes>
      <leafValues>
        1.8386156857013702e-01 -2.2839432954788208e-01</leafValues></_>
    <_>
      <internalNodes>
        0 -1 26832 -3.9579063653945923e-02</internalNodes>
      <leafValues>
        -8.8362604379653931e-01 3.9418831467628479e-02</leafValues></_>
    <_>
      <internalNodes>
        0 -1 70293 -2.4390376347582787e-04</internalNodes>
      <leafValues>
        2.5039201974868774e-01 -1.2996140122413635e-01</leafValues></_>
    <_>
      <internalNodes>
        0 -1 21500 -3.1342776492238045e-03</internalNodes>
      <leafValues>
        2.9515704512596130e-01 -1.0876569151878357e-01</leafValues></_>
    <_>
      <internalNodes>
        0 -1 78195 -3.2905634725466371e-05</internalNodes>
      <leafValues>
        2.1197281777858734e-01 -1.7196215689182281e-01</leafValues></_>
    <_>
      <internalNodes>
        0 -1 38962 -6.2750112265348434e-03</internalNodes>
      <leafValues>
        6.4426851272583008e-01 -4.8642579466104507e-02</leafValues></_>
    <_>
      <internalNodes>
        0 -1 48685 1.6374129056930542e-01</internalNodes>
      <leafValues>
        5.1267281174659729e-02 -9.1812890768051147e-01</leafValues></_>
    <_>
      <internalNodes>
        0 -1 44617 -1.6187921166419983e-02</internalNodes>
      <leafValues>
        2.8259637951850891e-01 -1.2175047397613525e-01</leafValues></_>
    <_>
      <internalNodes>
        0 -1 53773 1.3586125336587429e-02</internalNodes>
      <leafValues>
        -1.2860624492168427e-01 2.5485494732856750e-01</leafValues></_>
    <_>
      <internalNodes>
        0 -1 66076 -1.5200434252619743e-02</internalNodes>
      <leafValues>
        -7.0386356115341187e-01 5.1239039748907089e-02</leafValues></_>
    <_>
      <internalNodes>
        0 -1 58555 3.5617413232102990e-04</internalNodes>
      <leafValues>
        6.5919399261474609e-02 -4.4541013240814209e-01</leafValues></_>
    <_>
      <internalNodes>
        0 -1 71153 7.6442549470812082e-04</internalNodes>
      <leafValues>
        -1.2520308792591095e-01 2.5377473235130310e-01</leafValues></_>
    <_>
      <internalNodes>
        0 -1 58559 -2.0141177810728550e-04</internalNodes>
      <leafValues>
        -2.8130570054054260e-01 1.2169605493545532e-01</leafValues></_>
    <_>
      <internalNodes>
        0 -1 4191 -1.0478769242763519e-01</internalNodes>
      <leafValues>
        -8.4517502784729004e-01 2.7614008635282516e-02</leafValues></_>
    <_>
      <internalNodes>
        0 -1 39973 4.1774898767471313e-02</internalNodes>
      <leafValues>
        3.5800535231828690e-02 -7.0743030309677124e-01</leafValues></_>
    <_>
      <internalNodes>
        0 -1 22643 -6.5393537282943726e-02</internalNodes>
      <leafValues>
        -8.9316338300704956e-02 4.2338854074478149e-01</leafValues></_>
    <_>
      <internalNodes>
        0 -1 35160 -3.7727820873260498e-01</internalNodes>
      <leafValues>
        2.9906314611434937e-01 -1.1703437566757202e-01</leafValues></_>
    <_>
      <internalNodes>
        0 -1 68639 5.7718680182006210e-05</internalNodes>
      <leafValues>
        -1.5557375550270081e-01 1.8806718289852142e-01</leafValues></_></weakClassifiers></stage22>
</opencv_storage>
