<?xml version="1.0"?>
<opencv_storage>
<stage14>
  <maxWeakCount>9</maxWeakCount>
  <stageThreshold>-6.7591214179992676e-01</stageThreshold>
  <weakClassifiers>
    <_>
      <internalNodes>
        0 -1 68715 -4.0627792477607727e-03</internalNodes>
      <leafValues>
        8.8888889551162720e-01 -1.6535432636737823e-01</leafValues></_>
    <_>
      <internalNodes>
        0 -1 63220 1.6124021261930466e-02</internalNodes>
      <leafValues>
        -1.7103496193885803e-01 5.5239886045455933e-01</leafValues></_>
    <_>
      <internalNodes>
        0 -1 54519 3.5900477087125182e-04</internalNodes>
      <leafValues>
        2.1479235589504242e-01 -5.5378645658493042e-01</leafValues></_>
    <_>
      <internalNodes>
        0 -1 58560 -6.3187894411385059e-03</internalNodes>
      <leafValues>
        1.4996036887168884e-01 -7.4813085794448853e-01</leafValues></_>
    <_>
      <internalNodes>
        0 -1 75028 1.8506343476474285e-03</internalNodes>
      <leafValues>
        -2.0170234143733978e-01 6.1209285259246826e-01</leafValues></_>
    <_>
      <internalNodes>
        0 -1 7185 7.9145003110170364e-03</internalNodes>
      <leafValues>
        -1.5026073157787323e-01 6.8263435363769531e-01</leafValues></_>
    <_>
      <internalNodes>
        0 -1 31910 -2.6878219796344638e-04</internalNodes>
      <leafValues>
        2.5662025809288025e-01 -4.8575329780578613e-01</leafValues></_>
    <_>
      <internalNodes>
        0 -1 41924 -1.1353012919425964e-01</internalNodes>
      <leafValues>
        -4.3615332245826721e-01 3.2662758231163025e-01</leafValues></_>
    <_>
      <internalNodes>
        0 -1 60181 -8.2731083035469055e-02</internalNodes>
      <leafValues>
        7.9244887828826904e-01 -1.7277941107749939e-01</leafValues></_></weakClassifiers></stage14>
</opencv_storage>
