<?xml version="1.0"?>
<opencv_storage>
<stage16>
  <maxWeakCount>10</maxWeakCount>
  <stageThreshold>-1.0568280220031738e+00</stageThreshold>
  <weakClassifiers>
    <_>
      <internalNodes>
        0 -1 23257 9.1932401061058044e-02</internalNodes>
      <leafValues>
        -6.8093383312225342e-01 -7.9365082085132599e-02</leafValues></_>
    <_>
      <internalNodes>
        0 -1 25681 -3.0044439435005188e-01</internalNodes>
      <leafValues>
        -8.2133090496063232e-01 -4.9382746219635010e-03</leafValues></_>
    <_>
      <internalNodes>
        0 -1 75308 3.9186775684356689e-02</internalNodes>
      <leafValues>
        -1.9328597187995911e-01 4.2511218786239624e-01</leafValues></_>
    <_>
      <internalNodes>
        0 -1 7469 -1.2914161197841167e-03</internalNodes>
      <leafValues>
        2.4867163598537445e-01 -3.2582217454910278e-01</leafValues></_>
    <_>
      <internalNodes>
        0 -1 7194 2.2422492504119873e-02</internalNodes>
      <leafValues>
        -1.4703391492366791e-01 6.3944798707962036e-01</leafValues></_>
    <_>
      <internalNodes>
        0 -1 40642 -1.8043767660856247e-02</internalNodes>
      <leafValues>
        2.1864157915115356e-01 -4.4469338655471802e-01</leafValues></_>
    <_>
      <internalNodes>
        0 -1 69522 -9.8134353756904602e-03</internalNodes>
      <leafValues>
        5.3711849451065063e-01 -1.9167007505893707e-01</leafValues></_>
    <_>
      <internalNodes>
        0 -1 78117 -1.2620377819985151e-03</internalNodes>
      <leafValues>
        3.7315672636032104e-01 -2.2939059138298035e-01</leafValues></_>
    <_>
      <internalNodes>
        0 -1 72494 6.5840393304824829e-02</internalNodes>
      <leafValues>
        -1.1898823827505112e-01 6.3287496566772461e-01</leafValues></_>
    <_>
      <internalNodes>
        0 -1 54612 1.1623480822890997e-03</internalNodes>
      <leafValues>
        1.0386588424444199e-01 -8.7504881620407104e-01</leafValues></_></weakClassifiers></stage16>
</opencv_storage>
