<?xml version="1.0"?>
<opencv_storage>
<stage6>
  <maxWeakCount>7</maxWeakCount>
  <stageThreshold>-1.5489175319671631e+00</stageThreshold>
  <weakClassifiers>
    <_>
      <internalNodes>
        0 -1 71359 -7.9586297273635864e-02</internalNodes>
      <leafValues>
        2.0792078971862793e-01 -7.0686453580856323e-01</leafValues></_>
    <_>
      <internalNodes>
        0 -1 45094 9.5220588264055550e-05</internalNodes>
      <leafValues>
        -4.8659783601760864e-01 3.2599827647209167e-01</leafValues></_>
    <_>
      <internalNodes>
        0 -1 51631 -8.2236416346859187e-05</internalNodes>
      <leafValues>
        3.7223368883132935e-01 -4.2508146166801453e-01</leafValues></_>
    <_>
      <internalNodes>
        0 -1 5690 1.7047836445271969e-04</internalNodes>
      <leafValues>
        -3.3715015649795532e-01 4.7566771507263184e-01</leafValues></_>
    <_>
      <internalNodes>
        0 -1 77536 -1.9943562801927328e-04</internalNodes>
      <leafValues>
        5.3573685884475708e-01 -2.4236705899238586e-01</leafValues></_>
    <_>
      <internalNodes>
        0 -1 59975 -1.0068798437714577e-02</internalNodes>
      <leafValues>
        1.9886530935764313e-01 -1.</leafValues></_>
    <_>
      <internalNodes>
        0 -1 339 -1.0736283846199512e-02</internalNodes>
      <leafValues>
        4.3904602527618408e-01 -3.6231786012649536e-01</leafValues></_></weakClassifiers></stage6>
</opencv_storage>
