<?xml version="1.0"?>
<opencv_storage>
<stage21>
  <maxWeakCount>17</maxWeakCount>
  <stageThreshold>-1.1712673902511597e+00</stageThreshold>
  <weakClassifiers>
    <_>
      <internalNodes>
        0 -1 28053 -3.5724926274269819e-03</internalNodes>
      <leafValues>
        4.2857143282890320e-01 -6.0784316062927246e-01</leafValues></_>
    <_>
      <internalNodes>
        0 -1 56470 -9.2633724212646484e-02</internalNodes>
      <leafValues>
        -5.6139194965362549e-01 7.6717205345630646e-02</leafValues></_>
    <_>
      <internalNodes>
        0 -1 17686 -7.5407713651657104e-02</internalNodes>
      <leafValues>
        3.6912113428115845e-01 -2.0471318066120148e-01</leafValues></_>
    <_>
      <internalNodes>
        0 -1 8702 1.1853022873401642e-01</internalNodes>
      <leafValues>
        -2.1444047987461090e-01 3.8167840242385864e-01</leafValues></_>
    <_>
      <internalNodes>
        0 -1 16085 -1.1955080553889275e-03</internalNodes>
      <leafValues>
        6.8137460947036743e-01 -7.7300608158111572e-02</leafValues></_>
    <_>
      <internalNodes>
        0 -1 71161 3.5832682624459267e-03</internalNodes>
      <leafValues>
        -1.1576773226261139e-01 5.7504481077194214e-01</leafValues></_>
    <_>
      <internalNodes>
        0 -1 28185 6.8466346710920334e-03</internalNodes>
      <leafValues>
        -1.0873799026012421e-01 5.7556593418121338e-01</leafValues></_>
    <_>
      <internalNodes>
        0 -1 20345 2.2005886421538889e-05</internalNodes>
      <leafValues>
        -3.0095392465591431e-01 2.6227793097496033e-01</leafValues></_>
    <_>
      <internalNodes>
        0 -1 2758 -1.4701988548040390e-02</internalNodes>
      <leafValues>
        -6.3715821504592896e-01 1.1707016825675964e-01</leafValues></_>
    <_>
      <internalNodes>
        0 -1 62356 6.5977359190583229e-04</internalNodes>
      <leafValues>
        -2.6798194646835327e-01 3.7642291188240051e-01</leafValues></_>
    <_>
      <internalNodes>
        0 -1 44505 -1.7269400414079428e-03</internalNodes>
      <leafValues>
        -6.7423176765441895e-01 9.1362625360488892e-02</leafValues></_>
    <_>
      <internalNodes>
        0 -1 52345 -3.8033882447052747e-05</internalNodes>
      <leafValues>
        3.5254836082458496e-01 -2.4542430043220520e-01</leafValues></_>
    <_>
      <internalNodes>
        0 -1 78433 -2.5696463882923126e-02</internalNodes>
      <leafValues>
        -4.6171870827674866e-01 1.7798244953155518e-01</leafValues></_>
    <_>
      <internalNodes>
        0 -1 69180 3.1657438375987113e-04</internalNodes>
      <leafValues>
        -2.0951409637928009e-01 4.0664038062095642e-01</leafValues></_>
    <_>
      <internalNodes>
        0 -1 77096 -6.8885456130374223e-05</internalNodes>
      <leafValues>
        3.3437252044677734e-01 -2.3074056208133698e-01</leafValues></_>
    <_>
      <internalNodes>
        0 -1 28047 6.3631972298026085e-03</internalNodes>
      <leafValues>
        1.1720795184373856e-01 -6.6398125886917114e-01</leafValues></_>
    <_>
      <internalNodes>
        0 -1 14684 -2.6038950309157372e-03</internalNodes>
      <leafValues>
        3.9626896381378174e-01 -2.1777777373790741e-01</leafValues></_></weakClassifiers></stage21>
</opencv_storage>
