<?xml version="1.0"?>
<opencv_storage>
<stage17>
  <maxWeakCount>23</maxWeakCount>
  <stageThreshold>-1.4061657190322876e+00</stageThreshold>
  <weakClassifiers>
    <_>
      <internalNodes>
        0 -1 9287 5.7791717350482941e-02</internalNodes>
      <leafValues>
        -6.9852942228317261e-01 2.6315790414810181e-01</leafValues></_>
    <_>
      <internalNodes>
        0 -1 58957 2.0073634386062622e-01</internalNodes>
      <leafValues>
        -8.7215870618820190e-02 -8.6593568325042725e-01</leafValues></_>
    <_>
      <internalNodes>
        0 -1 48668 -1.2933687306940556e-02</internalNodes>
      <leafValues>
        5.8695886284112930e-02 -1.</leafValues></_>
    <_>
      <internalNodes>
        0 -1 43996 -1.3517212122678757e-02</internalNodes>
      <leafValues>
        2.6251801848411560e-01 -1.8747995793819427e-01</leafValues></_>
    <_>
      <internalNodes>
        0 -1 9011 5.4879300296306610e-03</internalNodes>
      <leafValues>
        -1.7495380342006683e-01 2.4588924646377563e-01</leafValues></_>
    <_>
      <internalNodes>
        0 -1 78091 7.7131693251430988e-03</internalNodes>
      <leafValues>
        -8.8336683809757233e-02 4.2692452669143677e-01</leafValues></_>
    <_>
      <internalNodes>
        0 -1 71487 -6.0042375698685646e-03</internalNodes>
      <leafValues>
        -1.5068861842155457e-01 3.0720284581184387e-01</leafValues></_>
    <_>
      <internalNodes>
        0 -1 6231 -1.2204571813344955e-01</internalNodes>
      <leafValues>
        4.6598006039857864e-02 -7.7921193838119507e-01</leafValues></_>
    <_>
      <internalNodes>
        0 -1 12957 -3.9565633051097393e-04</internalNodes>
      <leafValues>
        3.3975207805633545e-01 -1.1157772690057755e-01</leafValues></_>
    <_>
      <internalNodes>
        0 -1 33583 4.0343455970287323e-02</internalNodes>
      <leafValues>
        3.4107174724340439e-02 -9.6506232023239136e-01</leafValues></_>
    <_>
      <internalNodes>
        0 -1 77033 -6.2638302333652973e-03</internalNodes>
      <leafValues>
        3.2462650537490845e-01 -1.2902998924255371e-01</leafValues></_>
    <_>
      <internalNodes>
        0 -1 21378 -1.2917538173496723e-02</internalNodes>
      <leafValues>
        3.1451147794723511e-01 -1.2355563789606094e-01</leafValues></_>
    <_>
      <internalNodes>
        0 -1 64140 -1.2367262970656157e-03</internalNodes>
      <leafValues>
        2.2769795358181000e-01 -1.6490992903709412e-01</leafValues></_>
    <_>
      <internalNodes>
        0 -1 61963 -6.5711615607142448e-03</internalNodes>
      <leafValues>
        -6.7163193225860596e-01 8.5822582244873047e-02</leafValues></_>
    <_>
      <internalNodes>
        0 -1 14619 -6.0456313192844391e-02</internalNodes>
      <leafValues>
        -7.0133721828460693e-01 2.2439703345298767e-02</leafValues></_>
    <_>
      <internalNodes>
        0 -1 32340 -1.8121285364031792e-02</internalNodes>
      <leafValues>
        -9.1342097520828247e-01 3.7645597010850906e-02</leafValues></_>
    <_>
      <internalNodes>
        0 -1 68690 5.7750102132558823e-04</internalNodes>
      <leafValues>
        -1.4676126837730408e-01 2.3132798075675964e-01</leafValues></_>
    <_>
      <internalNodes>
        0 -1 54574 8.3566305693238974e-04</internalNodes>
      <leafValues>
        5.1909841597080231e-02 -6.4149075746536255e-01</leafValues></_>
    <_>
      <internalNodes>
        0 -1 71112 1.4583321753889322e-03</internalNodes>
      <leafValues>
        -1.6816170513629913e-01 2.2624436020851135e-01</leafValues></_>
    <_>
      <internalNodes>
        0 -1 39503 -8.4349454846233130e-04</internalNodes>
      <leafValues>
        -4.0304994583129883e-01 8.2043014466762543e-02</leafValues></_>
    <_>
      <internalNodes>
        0 -1 45218 1.2393282726407051e-02</internalNodes>
      <leafValues>
        4.3506003916263580e-02 -7.0555043220520020e-01</leafValues></_>
    <_>
      <internalNodes>
        0 -1 68773 9.8958276212215424e-03</internalNodes>
      <leafValues>
        -7.0393785834312439e-02 5.5275118350982666e-01</leafValues></_>
    <_>
      <internalNodes>
        0 -1 65889 -7.3231151327490807e-03</internalNodes>
      <leafValues>
        2.8880462050437927e-01 -1.2969192862510681e-01</leafValues></_></weakClassifiers></stage17>
</opencv_storage>
