<?xml version="1.0"?>
<opencv_storage>
<stage12>
  <maxWeakCount>10</maxWeakCount>
  <stageThreshold>-7.5885856151580811e-01</stageThreshold>
  <weakClassifiers>
    <_>
      <internalNodes>
        0 -1 13698 -9.6452116966247559e-02</internalNodes>
      <leafValues>
        -7.6811593770980835e-01 1.9457013905048370e-01</leafValues></_>
    <_>
      <internalNodes>
        0 -1 76784 -7.1238474920392036e-03</internalNodes>
      <leafValues>
        5.6013691425323486e-01 -2.7109888195991516e-01</leafValues></_>
    <_>
      <internalNodes>
        0 -1 49918 1.5810123295523226e-04</internalNodes>
      <leafValues>
        -3.1767481565475464e-01 5.3690499067306519e-01</leafValues></_>
    <_>
      <internalNodes>
        0 -1 42154 -1.2295688688755035e-01</internalNodes>
      <leafValues>
        -8.6957949399948120e-01 2.4517503380775452e-01</leafValues></_>
    <_>
      <internalNodes>
        0 -1 34750 1.3056849129498005e-03</internalNodes>
      <leafValues>
        -4.1296643018722534e-01 3.9576077461242676e-01</leafValues></_>
    <_>
      <internalNodes>
        0 -1 49802 -9.6361041069030762e-02</internalNodes>
      <leafValues>
        -5.8115798234939575e-01 2.6901918649673462e-01</leafValues></_>
    <_>
      <internalNodes>
        0 -1 45148 -7.5899949297308922e-04</internalNodes>
      <leafValues>
        5.9903478622436523e-01 -2.5151413679122925e-01</leafValues></_>
    <_>
      <internalNodes>
        0 -1 130 1.8886988982558250e-02</internalNodes>
      <leafValues>
        -4.0705475211143494e-01 4.4426950812339783e-01</leafValues></_>
    <_>
      <internalNodes>
        0 -1 74174 -2.5510361883789301e-03</internalNodes>
      <leafValues>
        6.4338797330856323e-01 -2.1932670474052429e-01</leafValues></_>
    <_>
      <internalNodes>
        0 -1 71409 9.3626435846090317e-03</internalNodes>
      <leafValues>
        -3.0114567279815674e-01 5.7580459117889404e-01</leafValues></_></weakClassifiers></stage12>
</opencv_storage>
