<?xml version="1.0"?>
<opencv_storage>
<stage24>
  <maxWeakCount>30</maxWeakCount>
  <stageThreshold>-1.3865621089935303e+00</stageThreshold>
  <weakClassifiers>
    <_>
      <internalNodes>
        0 -1 1052 3.3306993544101715e-02</internalNodes>
      <leafValues>
        -7.2876948118209839e-01 5.4545456171035767e-01</leafValues></_>
    <_>
      <internalNodes>
        0 -1 1746 4.6583056449890137e-02</internalNodes>
      <leafValues>
        -2.3525011539459229e-01 4.4401898980140686e-01</leafValues></_>
    <_>
      <internalNodes>
        0 -1 38619 -2.5576815009117126e-02</internalNodes>
      <leafValues>
        3.0155259370803833e-01 -9.4095453619956970e-02</leafValues></_>
    <_>
      <internalNodes>
        0 -1 21721 2.1675040945410728e-02</internalNodes>
      <leafValues>
        3.1130008399486542e-02 -8.3301752805709839e-01</leafValues></_>
    <_>
      <internalNodes>
        0 -1 65728 1.8354542553424835e-03</internalNodes>
      <leafValues>
        -9.6881113946437836e-02 2.4277542531490326e-01</leafValues></_>
    <_>
      <internalNodes>
        0 -1 66727 -7.8534297645092010e-03</internalNodes>
      <leafValues>
        2.5240525603294373e-01 -1.0318727046251297e-01</leafValues></_>
    <_>
      <internalNodes>
        0 -1 77720 -2.0150754600763321e-02</internalNodes>
      <leafValues>
        -3.2099640369415283e-01 7.8666023910045624e-02</leafValues></_>
    <_>
      <internalNodes>
        0 -1 73670 -3.0669597908854485e-03</internalNodes>
      <leafValues>
        8.2874193787574768e-02 -5.0089412927627563e-01</leafValues></_>
    <_>
      <internalNodes>
        0 -1 62317 1.8062369781546295e-04</internalNodes>
      <leafValues>
        5.4009597748517990e-02 -4.1397154331207275e-01</leafValues></_>
    <_>
      <internalNodes>
        0 -1 49721 2.4116253480315208e-03</internalNodes>
      <leafValues>
        -1.3283039629459381e-01 2.1912547945976257e-01</leafValues></_>
    <_>
      <internalNodes>
        0 -1 64140 -1.3319243444129825e-03</internalNodes>
      <leafValues>
        1.9284814596176147e-01 -1.4443860948085785e-01</leafValues></_>
    <_>
      <internalNodes>
        0 -1 65337 -2.4026972241699696e-03</internalNodes>
      <leafValues>
        -5.8778089284896851e-01 5.9841286391019821e-02</leafValues></_>
    <_>
      <internalNodes>
        0 -1 38 8.2361940294504166e-03</internalNodes>
      <leafValues>
        -1.0045551508665085e-01 2.9391178488731384e-01</leafValues></_>
    <_>
      <internalNodes>
        0 -1 20982 -1.3028709217905998e-02</internalNodes>
      <leafValues>
        2.3536686599254608e-01 -1.2025051563978195e-01</leafValues></_>
    <_>
      <internalNodes>
        0 -1 52484 -4.2325286194682121e-03</internalNodes>
      <leafValues>
        1.0356629639863968e-01 -2.5427439808845520e-01</leafValues></_>
    <_>
      <internalNodes>
        0 -1 35669 -2.4896410107612610e-01</internalNodes>
      <leafValues>
        -2.7310788631439209e-01 1.2379685044288635e-01</leafValues></_>
    <_>
      <internalNodes>
        0 -1 41865 -7.2668850421905518e-02</internalNodes>
      <leafValues>
        2.1640150249004364e-01 -1.8915127217769623e-01</leafValues></_>
    <_>
      <internalNodes>
        0 -1 52094 -7.6572811231017113e-03</internalNodes>
      <leafValues>
        -7.5693361461162567e-02 4.6990698575973511e-01</leafValues></_>
    <_>
      <internalNodes>
        0 -1 72388 2.5687876041047275e-04</internalNodes>
      <leafValues>
        1.3108973205089569e-01 -2.1843774616718292e-01</leafValues></_>
    <_>
      <internalNodes>
        0 -1 77174 -1.8978943116962910e-03</internalNodes>
      <leafValues>
        3.2468235492706299e-01 -8.0752164125442505e-02</leafValues></_>
    <_>
      <internalNodes>
        0 -1 69950 2.8249666094779968e-02</internalNodes>
      <leafValues>
        3.5634793341159821e-02 -7.0004284381866455e-01</leafValues></_>
    <_>
      <internalNodes>
        0 -1 68800 -5.7917414233088493e-03</internalNodes>
      <leafValues>
        -5.1490295678377151e-02 5.5610126256942749e-01</leafValues></_>
    <_>
      <internalNodes>
        0 -1 49975 -4.1296693962067366e-04</internalNodes>
      <leafValues>
        2.0147001743316650e-01 -1.2159112840890884e-01</leafValues></_>
    <_>
      <internalNodes>
        0 -1 60256 4.2338309867773205e-05</internalNodes>
      <leafValues>
        8.0767177045345306e-02 -3.4056085348129272e-01</leafValues></_>
    <_>
      <internalNodes>
        0 -1 28656 1.9698711112141609e-03</internalNodes>
      <leafValues>
        -2.8170827776193619e-02 9.6696847677230835e-01</leafValues></_>
    <_>
      <internalNodes>
        0 -1 49296 3.5295136272907257e-02</internalNodes>
      <leafValues>
        4.0250852704048157e-02 -7.7991271018981934e-01</leafValues></_>
    <_>
      <internalNodes>
        0 -1 8442 -3.7533058784902096e-03</internalNodes>
      <leafValues>
        2.8455710411071777e-01 -9.1033697128295898e-02</leafValues></_>
    <_>
      <internalNodes>
        0 -1 65328 -7.3316006455570459e-04</internalNodes>
      <leafValues>
        2.7618822455406189e-01 -9.0057715773582458e-02</leafValues></_>
    <_>
      <internalNodes>
        0 -1 19265 -2.8242669999599457e-02</internalNodes>
      <leafValues>
        -1.2018810212612152e-01 2.5024393200874329e-01</leafValues></_>
    <_>
      <internalNodes>
        0 -1 48351 7.7694701030850410e-03</internalNodes>
      <leafValues>
        1.0577154904603958e-01 -2.6790136098861694e-01</leafValues></_></weakClassifiers></stage24>
</opencv_storage>
