<?xml version="1.0"?>
<opencv_storage>
<stage18>
  <maxWeakCount>28</maxWeakCount>
  <stageThreshold>-1.5273150205612183e+00</stageThreshold>
  <weakClassifiers>
    <_>
      <internalNodes>
        0 -1 10291 5.7665459811687469e-02</internalNodes>
      <leafValues>
        -7.0110702514648438e-01 2.2727273404598236e-01</leafValues></_>
    <_>
      <internalNodes>
        0 -1 71008 -4.9770846962928772e-03</internalNodes>
      <leafValues>
        -8.3644062280654907e-01 -1.0131095349788666e-01</leafValues></_>
    <_>
      <internalNodes>
        0 -1 62317 1.5887452173046768e-04</internalNodes>
      <leafValues>
        1.2451073527336121e-01 -3.8866671919822693e-01</leafValues></_>
    <_>
      <internalNodes>
        0 -1 62029 -2.0984295755624771e-02</internalNodes>
      <leafValues>
        5.7161015272140503e-01 -7.4162960052490234e-02</leafValues></_>
    <_>
      <internalNodes>
        0 -1 77888 -3.9587259292602539e-02</internalNodes>
      <leafValues>
        -5.0670033693313599e-01 6.3638091087341309e-02</leafValues></_>
    <_>
      <internalNodes>
        0 -1 49971 4.0328220347873867e-04</internalNodes>
      <leafValues>
        -1.3827876746654510e-01 2.4311152100563049e-01</leafValues></_>
    <_>
      <internalNodes>
        0 -1 21362 -1.0188117623329163e-02</internalNodes>
      <leafValues>
        3.2012853771448135e-02 -9.7202575206756592e-01</leafValues></_>
    <_>
      <internalNodes>
        0 -1 44 -2.3123651742935181e-02</internalNodes>
      <leafValues>
        -9.7063712775707245e-02 4.0275177359580994e-01</leafValues></_>
    <_>
      <internalNodes>
        0 -1 24057 -8.8875676738098264e-05</internalNodes>
      <leafValues>
        2.4733559787273407e-01 -1.4335782825946808e-01</leafValues></_>
    <_>
      <internalNodes>
        0 -1 60250 -2.5111427530646324e-03</internalNodes>
      <leafValues>
        1.2180767953395844e-01 -3.2411551475524902e-01</leafValues></_>
    <_>
      <internalNodes>
        0 -1 28428 6.8315910175442696e-03</internalNodes>
      <leafValues>
        9.4279915094375610e-02 -3.8944765925407410e-01</leafValues></_>
    <_>
      <internalNodes>
        0 -1 74179 1.1092440225183964e-02</internalNodes>
      <leafValues>
        -7.5351692736148834e-02 4.7727268934249878e-01</leafValues></_>
    <_>
      <internalNodes>
        0 -1 14847 9.2256236821413040e-03</internalNodes>
      <leafValues>
        -1.2086403369903564e-01 3.0641257762908936e-01</leafValues></_>
    <_>
      <internalNodes>
        0 -1 17828 1.1080130934715271e-03</internalNodes>
      <leafValues>
        -1.5496528148651123e-01 2.7497518062591553e-01</leafValues></_>
    <_>
      <internalNodes>
        0 -1 70794 -7.2819401975721121e-04</internalNodes>
      <leafValues>
        -5.6517893075942993e-01 6.8463288247585297e-02</leafValues></_>
    <_>
      <internalNodes>
        0 -1 6393 -1.9716806709766388e-03</internalNodes>
      <leafValues>
        3.3657974004745483e-01 -1.0463343560695648e-01</leafValues></_>
    <_>
      <internalNodes>
        0 -1 54352 -2.7170986868441105e-04</internalNodes>
      <leafValues>
        -2.2297798097133636e-01 1.6377255320549011e-01</leafValues></_>
    <_>
      <internalNodes>
        0 -1 82 -1.6089884564280510e-02</internalNodes>
      <leafValues>
        -5.2253144979476929e-01 6.5918177366256714e-02</leafValues></_>
    <_>
      <internalNodes>
        0 -1 45308 4.6315904706716537e-02</internalNodes>
      <leafValues>
        3.6129355430603027e-02 -9.1775113344192505e-01</leafValues></_>
    <_>
      <internalNodes>
        0 -1 74777 -1.4891021419316530e-03</internalNodes>
      <leafValues>
        2.6779517531394958e-01 -1.3477507233619690e-01</leafValues></_>
    <_>
      <internalNodes>
        0 -1 58055 4.8847375437617302e-03</internalNodes>
      <leafValues>
        -1.3241679966449738e-01 2.9769417643547058e-01</leafValues></_>
    <_>
      <internalNodes>
        0 -1 39988 1.1799791827797890e-02</internalNodes>
      <leafValues>
        -8.8030189275741577e-02 4.3502843379974365e-01</leafValues></_>
    <_>
      <internalNodes>
        0 -1 28056 -5.1980360876768827e-04</internalNodes>
      <leafValues>
        3.3884143829345703e-01 -1.2072847038507462e-01</leafValues></_>
    <_>
      <internalNodes>
        0 -1 4802 -9.3922019004821777e-03</internalNodes>
      <leafValues>
        -4.5893228054046631e-01 8.3861909806728363e-02</leafValues></_>
    <_>
      <internalNodes>
        0 -1 37492 1.4491359252133407e-05</internalNodes>
      <leafValues>
        1.0356342047452927e-01 -3.5700723528862000e-01</leafValues></_>
    <_>
      <internalNodes>
        0 -1 6927 -2.5636688806116581e-03</internalNodes>
      <leafValues>
        3.4089565277099609e-01 -1.0269437730312347e-01</leafValues></_>
    <_>
      <internalNodes>
        0 -1 8321 -2.1557716536335647e-04</internalNodes>
      <leafValues>
        -4.3806057423353195e-02 7.1244466304779053e-01</leafValues></_>
    <_>
      <internalNodes>
        0 -1 815 -5.5189915001392365e-03</internalNodes>
      <leafValues>
        6.8895541131496429e-02 -5.6769454479217529e-01</leafValues></_></weakClassifiers></stage18>
</opencv_storage>
