<?xml version="1.0"?>
<opencv_storage>
<stage18>
  <maxWeakCount>14</maxWeakCount>
  <stageThreshold>-1.2200362682342529e+00</stageThreshold>
  <weakClassifiers>
    <_>
      <internalNodes>
        0 -1 8631 1.6254391521215439e-02</internalNodes>
      <leafValues>
        -6.3444638252258301e-01 1.4084506779909134e-02</leafValues></_>
    <_>
      <internalNodes>
        0 -1 76481 2.2748247720301151e-03</internalNodes>
      <leafValues>
        -2.7396166324615479e-01 2.8012520074844360e-01</leafValues></_>
    <_>
      <internalNodes>
        0 -1 78366 -6.9864559918642044e-03</internalNodes>
      <leafValues>
        -4.0651223063468933e-01 1.7484511435031891e-01</leafValues></_>
    <_>
      <internalNodes>
        0 -1 76355 -2.7652075514197350e-03</internalNodes>
      <leafValues>
        3.3942553400993347e-01 -2.0788669586181641e-01</leafValues></_>
    <_>
      <internalNodes>
        0 -1 73983 -3.7340010749176145e-05</internalNodes>
      <leafValues>
        3.5646164417266846e-01 -2.1696469187736511e-01</leafValues></_>
    <_>
      <internalNodes>
        0 -1 77411 2.0020222291350365e-03</internalNodes>
      <leafValues>
        -1.3805016875267029e-01 5.1700967550277710e-01</leafValues></_>
    <_>
      <internalNodes>
        0 -1 78293 -1.0536583140492439e-03</internalNodes>
      <leafValues>
        -8.3671051263809204e-01 8.6420625448226929e-02</leafValues></_>
    <_>
      <internalNodes>
        0 -1 9029 2.5823770556598902e-03</internalNodes>
      <leafValues>
        -1.4234176278114319e-01 5.0019127130508423e-01</leafValues></_>
    <_>
      <internalNodes>
        0 -1 48217 -5.7842757087200880e-04</internalNodes>
      <leafValues>
        -5.2274948358535767e-01 1.4708155393600464e-01</leafValues></_>
    <_>
      <internalNodes>
        0 -1 39888 -8.6762774735689163e-03</internalNodes>
      <leafValues>
        -6.8271708488464355e-01 8.8316559791564941e-02</leafValues></_>
    <_>
      <internalNodes>
        0 -1 49241 7.9021287092473358e-05</internalNodes>
      <leafValues>
        1.8782591819763184e-01 -3.7838676571846008e-01</leafValues></_>
    <_>
      <internalNodes>
        0 -1 28279 -1.4795505441725254e-02</internalNodes>
      <leafValues>
        2.5791266560554504e-01 -2.8211510181427002e-01</leafValues></_>
    <_>
      <internalNodes>
        0 -1 1 8.1262522144243121e-05</internalNodes>
      <leafValues>
        -1.9149100780487061e-01 3.9213895797729492e-01</leafValues></_>
    <_>
      <internalNodes>
        0 -1 39638 -4.4999865349382162e-04</internalNodes>
      <leafValues>
        2.6961675286293030e-01 -2.6817610859870911e-01</leafValues></_></weakClassifiers></stage18>
</opencv_storage>
