<?xml version="1.0"?>
<opencv_storage>
<stage8>
  <maxWeakCount>25</maxWeakCount>
  <stageThreshold>-1.6354653835296631e+00</stageThreshold>
  <weakClassifiers>
    <_>
      <internalNodes>
        0 -1 9267 5.7310322299599648e-03</internalNodes>
      <leafValues>
        -7.4267399311065674e-01 -4.3010752648115158e-02</leafValues></_>
    <_>
      <internalNodes>
        0 -1 26934 -1.0872405767440796e-01</internalNodes>
      <leafValues>
        -5.8822959661483765e-01 -5.8804020285606384e-02</leafValues></_>
    <_>
      <internalNodes>
        0 -1 59231 -1.3880032300949097e-01</internalNodes>
      <leafValues>
        2.7669614553451538e-01 -1.5986718237400055e-01</leafValues></_>
    <_>
      <internalNodes>
        0 -1 62496 -3.3791784197092056e-02</internalNodes>
      <leafValues>
        -7.5776278972625732e-01 6.7991912364959717e-02</leafValues></_>
    <_>
      <internalNodes>
        0 -1 28097 1.2491136789321899e-02</internalNodes>
      <leafValues>
        5.5001728236675262e-02 -7.5729900598526001e-01</leafValues></_>
    <_>
      <internalNodes>
        0 -1 21836 -1.2078000232577324e-02</internalNodes>
      <leafValues>
        3.4781491756439209e-01 -1.0948628932237625e-01</leafValues></_>
    <_>
      <internalNodes>
        0 -1 8509 2.8859235346317291e-02</internalNodes>
      <leafValues>
        -8.0160006880760193e-02 5.4602152109146118e-01</leafValues></_>
    <_>
      <internalNodes>
        0 -1 76481 2.2806255146861076e-03</internalNodes>
      <leafValues>
        -1.2882180511951447e-01 3.2137554883956909e-01</leafValues></_>
    <_>
      <internalNodes>
        0 -1 70809 2.6393337175250053e-03</internalNodes>
      <leafValues>
        -1.1291711777448654e-01 3.1834045052528381e-01</leafValues></_>
    <_>
      <internalNodes>
        0 -1 29671 1.6048964858055115e-01</internalNodes>
      <leafValues>
        -7.1619361639022827e-02 6.5939044952392578e-01</leafValues></_>
    <_>
      <internalNodes>
        0 -1 66169 4.3450877070426941e-02</internalNodes>
      <leafValues>
        -8.6100280284881592e-02 5.1078408956527710e-01</leafValues></_>
    <_>
      <internalNodes>
        0 -1 45162 6.4866757020354271e-03</internalNodes>
      <leafValues>
        7.1986824274063110e-02 -6.5356689691543579e-01</leafValues></_>
    <_>
      <internalNodes>
        0 -1 39903 -1.2363376095890999e-02</internalNodes>
      <leafValues>
        -7.9163944721221924e-01 4.5495644211769104e-02</leafValues></_>
    <_>
      <internalNodes>
        0 -1 75544 1.2283192947506905e-02</internalNodes>
      <leafValues>
        -1.4819963276386261e-01 3.0018562078475952e-01</leafValues></_>
    <_>
      <internalNodes>
        0 -1 39922 8.7666139006614685e-03</internalNodes>
      <leafValues>
        -7.2350293397903442e-02 5.6183516979217529e-01</leafValues></_>
    <_>
      <internalNodes>
        0 -1 78330 -1.1608430650085211e-03</internalNodes>
      <leafValues>
        -4.0614905953407288e-01 1.0145513713359833e-01</leafValues></_>
    <_>
      <internalNodes>
        0 -1 17658 1.1207371950149536e-02</internalNodes>
      <leafValues>
        6.4179107546806335e-02 -6.0616141557693481e-01</leafValues></_>
    <_>
      <internalNodes>
        0 -1 71461 -1.9004657864570618e-02</internalNodes>
      <leafValues>
        -8.8187211751937866e-01 3.1627718359231949e-02</leafValues></_>
    <_>
      <internalNodes>
        0 -1 71644 -1.8430759664624929e-03</internalNodes>
      <leafValues>
        3.4641668200492859e-01 -1.1613439023494720e-01</leafValues></_>
    <_>
      <internalNodes>
        0 -1 36199 -7.0382528007030487e-02</internalNodes>
      <leafValues>
        1.7376549541950226e-01 -2.3953552544116974e-01</leafValues></_>
    <_>
      <internalNodes>
        0 -1 70285 -2.1854910999536514e-02</internalNodes>
      <leafValues>
        -6.1412173509597778e-01 6.9101490080356598e-02</leafValues></_>
    <_>
      <internalNodes>
        0 -1 73937 6.6683234763331711e-05</internalNodes>
      <leafValues>
        -1.9760717451572418e-01 1.8875651061534882e-01</leafValues></_>
    <_>
      <internalNodes>
        0 -1 44002 6.1078868806362152e-02</internalNodes>
      <leafValues>
        -1.3164870440959930e-01 3.0361509323120117e-01</leafValues></_>
    <_>
      <internalNodes>
        0 -1 48822 -1.8800469115376472e-02</internalNodes>
      <leafValues>
        -6.7409318685531616e-01 6.3860654830932617e-02</leafValues></_>
    <_>
      <internalNodes>
        0 -1 1445 -9.3965593259781599e-04</internalNodes>
      <leafValues>
        -3.1663107872009277e-01 1.1711171269416809e-01</leafValues></_></weakClassifiers></stage8>
</opencv_storage>
