<?xml version="1.0"?>
<opencv_storage>
<stage17>
  <maxWeakCount>15</maxWeakCount>
  <stageThreshold>-1.2666990756988525e+00</stageThreshold>
  <weakClassifiers>
    <_>
      <internalNodes>
        0 -1 74217 2.1120405290275812e-03</internalNodes>
      <leafValues>
        -7.0305675268173218e-01 -2.0879121124744415e-01</leafValues></_>
    <_>
      <internalNodes>
        0 -1 11353 1.4484660699963570e-02</internalNodes>
      <leafValues>
        -1.3088356936350465e-03 -7.8261792659759521e-01</leafValues></_>
    <_>
      <internalNodes>
        0 -1 52877 -1.6624450683593750e-01</internalNodes>
      <leafValues>
        2.3834170401096344e-01 -2.7945142984390259e-01</leafValues></_>
    <_>
      <internalNodes>
        0 -1 43140 -2.3777663707733154e-01</internalNodes>
      <leafValues>
        -8.6175233125686646e-01 6.6798731684684753e-02</leafValues></_>
    <_>
      <internalNodes>
        0 -1 76493 2.0015886984765530e-03</internalNodes>
      <leafValues>
        -1.3576532900333405e-01 4.8820134997367859e-01</leafValues></_>
    <_>
      <internalNodes>
        0 -1 76069 8.2074599340558052e-03</internalNodes>
      <leafValues>
        -1.0320768505334854e-01 7.2254890203475952e-01</leafValues></_>
    <_>
      <internalNodes>
        0 -1 16325 -1.7677909927442670e-03</internalNodes>
      <leafValues>
        2.6316517591476440e-01 -2.6447051763534546e-01</leafValues></_>
    <_>
      <internalNodes>
        0 -1 49529 1.4104363508522511e-03</internalNodes>
      <leafValues>
        1.0484254360198975e-01 -7.6556694507598877e-01</leafValues></_>
    <_>
      <internalNodes>
        0 -1 3339 3.8251806981861591e-03</internalNodes>
      <leafValues>
        -1.5576693415641785e-01 5.3457087278366089e-01</leafValues></_>
    <_>
      <internalNodes>
        0 -1 60788 -3.8781890907557681e-05</internalNodes>
      <leafValues>
        1.9758722186088562e-01 -3.5471254587173462e-01</leafValues></_>
    <_>
      <internalNodes>
        0 -1 31563 -3.0300613492727280e-02</internalNodes>
      <leafValues>
        -6.2970298528671265e-01 1.3857947289943695e-01</leafValues></_>
    <_>
      <internalNodes>
        0 -1 69661 -3.0428194440901279e-03</internalNodes>
      <leafValues>
        2.3445643484592438e-01 -3.4074133634567261e-01</leafValues></_>
    <_>
      <internalNodes>
        0 -1 6133 1.1650189757347107e-02</internalNodes>
      <leafValues>
        -2.0308750867843628e-01 4.0454080700874329e-01</leafValues></_>
    <_>
      <internalNodes>
        0 -1 5779 -7.1308230981230736e-03</internalNodes>
      <leafValues>
        4.2927035689353943e-01 -2.3855249583721161e-01</leafValues></_>
    <_>
      <internalNodes>
        0 -1 32388 3.6718777846544981e-03</internalNodes>
      <leafValues>
        -2.3018340766429901e-01 3.2973974943161011e-01</leafValues></_></weakClassifiers></stage17>
</opencv_storage>
