<?xml version="1.0"?>
<opencv_storage>
<stage4>
  <maxWeakCount>5</maxWeakCount>
  <stageThreshold>-1.3283836841583252e+00</stageThreshold>
  <weakClassifiers>
    <_>
      <internalNodes>
        0 -1 75274 -4.9054302275180817e-02</internalNodes>
      <leafValues>
        5.0000000000000000e-01 -7.0567375421524048e-01</leafValues></_>
    <_>
      <internalNodes>
        0 -1 28895 -3.1004256010055542e-01</internalNodes>
      <leafValues>
        2.5257623195648193e-01 -8.9237076044082642e-01</leafValues></_>
    <_>
      <internalNodes>
        0 -1 50713 -2.5641851127147675e-02</internalNodes>
      <leafValues>
        4.7730332612991333e-01 -4.8039820790290833e-01</leafValues></_>
    <_>
      <internalNodes>
        0 -1 45800 -2.0175838470458984e-01</internalNodes>
      <leafValues>
        1.8863327801227570e-01 -9.6624040603637695e-01</leafValues></_>
    <_>
      <internalNodes>
        0 -1 5741 -5.8111227117478848e-03</internalNodes>
      <leafValues>
        5.6142568588256836e-01 -3.8503921031951904e-01</leafValues></_></weakClassifiers></stage4>
</opencv_storage>
