<?xml version="1.0"?>
<opencv_storage>
<stage2>
  <maxWeakCount>8</maxWeakCount>
  <stageThreshold>-1.7727891206741333e+00</stageThreshold>
  <weakClassifiers>
    <_>
      <internalNodes>
        0 -1 66482 -6.1575412750244141e-02</internalNodes>
      <leafValues>
        3.6787563562393188e-01 -8.1313472986221313e-01</leafValues></_>
    <_>
      <internalNodes>
        0 -1 279 1.9126208499073982e-02</internalNodes>
      <leafValues>
        -6.0811489820480347e-01 3.5421046614646912e-01</leafValues></_>
    <_>
      <internalNodes>
        0 -1 5301 -3.9957267045974731e-01</internalNodes>
      <leafValues>
        2.9648351669311523e-01 -6.6554218530654907e-01</leafValues></_>
    <_>
      <internalNodes>
        0 -1 5277 -2.5108772516250610e-01</internalNodes>
      <leafValues>
        -5.5436128377914429e-01 2.2236727178096771e-01</leafValues></_>
    <_>
      <internalNodes>
        0 -1 56872 -8.2110255956649780e-02</internalNodes>
      <leafValues>
        1.5570823848247528e-01 -9.0647286176681519e-01</leafValues></_>
    <_>
      <internalNodes>
        0 -1 9110 -1.8940957263112068e-02</internalNodes>
      <leafValues>
        6.1881035566329956e-01 -2.1377997100353241e-01</leafValues></_>
    <_>
      <internalNodes>
        0 -1 4483 7.8903948888182640e-03</internalNodes>
      <leafValues>
        -2.4711048603057861e-01 5.5845820903778076e-01</leafValues></_>
    <_>
      <internalNodes>
        0 -1 165 -2.4658124893903732e-02</internalNodes>
      <leafValues>
        4.9667337536811829e-01 -2.7120232582092285e-01</leafValues></_></weakClassifiers></stage2>
</opencv_storage>
