<?xml version="1.0"?>
<opencv_storage>
<stage14>
  <maxWeakCount>16</maxWeakCount>
  <stageThreshold>-1.3738808631896973e+00</stageThreshold>
  <weakClassifiers>
    <_>
      <internalNodes>
        0 -1 59210 -7.5939610600471497e-02</internalNodes>
      <leafValues>
        -4.1453832387924194e-01 -7.9155898094177246e-01</leafValues></_>
    <_>
      <internalNodes>
        0 -1 58504 2.5551329599693418e-04</internalNodes>
      <leafValues>
        -5.8725245296955109e-02 -6.4336913824081421e-01</leafValues></_>
    <_>
      <internalNodes>
        0 -1 19791 -2.1007150411605835e-01</internalNodes>
      <leafValues>
        -3.4867268800735474e-01 1.4059996604919434e-01</leafValues></_>
    <_>
      <internalNodes>
        0 -1 62179 -1.3135462999343872e-02</internalNodes>
      <leafValues>
        1.0964661836624146e-01 -6.3387137651443481e-01</leafValues></_>
    <_>
      <internalNodes>
        0 -1 46867 -2.2164818644523621e-01</internalNodes>
      <leafValues>
        -5.7609218358993530e-01 7.0154950022697449e-02</leafValues></_>
    <_>
      <internalNodes>
        0 -1 51995 -1.5049107605591416e-04</internalNodes>
      <leafValues>
        1.9852766394615173e-01 -2.6275151968002319e-01</leafValues></_>
    <_>
      <internalNodes>
        0 -1 62254 -1.9782464951276779e-03</internalNodes>
      <leafValues>
        -6.2903153896331787e-01 1.0414145886898041e-01</leafValues></_>
    <_>
      <internalNodes>
        0 -1 58570 1.7047213623300195e-03</internalNodes>
      <leafValues>
        -1.3446681201457977e-01 3.2947883009910583e-01</leafValues></_>
    <_>
      <internalNodes>
        0 -1 23156 1.2056420743465424e-01</internalNodes>
      <leafValues>
        5.1486965268850327e-02 -9.1915601491928101e-01</leafValues></_>
    <_>
      <internalNodes>
        0 -1 6954 7.1107698604464531e-03</internalNodes>
      <leafValues>
        -1.2357015162706375e-01 4.3527278304100037e-01</leafValues></_>
    <_>
      <internalNodes>
        0 -1 724 6.0193855315446854e-03</internalNodes>
      <leafValues>
        -2.0819622278213501e-01 2.0010709762573242e-01</leafValues></_>
    <_>
      <internalNodes>
        0 -1 50165 -5.0379270687699318e-03</internalNodes>
      <leafValues>
        4.5652532577514648e-01 -1.0868598520755768e-01</leafValues></_>
    <_>
      <internalNodes>
        0 -1 72665 2.1168868988752365e-02</internalNodes>
      <leafValues>
        9.0974904596805573e-02 -5.4722785949707031e-01</leafValues></_>
    <_>
      <internalNodes>
        0 -1 14835 -1.8076259642839432e-02</internalNodes>
      <leafValues>
        -3.9685097336769104e-01 1.2188480049371719e-01</leafValues></_>
    <_>
      <internalNodes>
        0 -1 62438 1.0724561288952827e-02</internalNodes>
      <leafValues>
        4.8217806965112686e-02 -7.2635728120803833e-01</leafValues></_>
    <_>
      <internalNodes>
        0 -1 74922 1.5793971251696348e-03</internalNodes>
      <leafValues>
        -1.8508957326412201e-01 2.3572950065135956e-01</leafValues></_></weakClassifiers></stage14>
</opencv_storage>
