<?xml version="1.0"?>
<opencv_storage>
<stage16>
  <maxWeakCount>7</maxWeakCount>
  <stageThreshold>-6.9366598129272461e-01</stageThreshold>
  <weakClassifiers>
    <_>
      <internalNodes>
        0 -1 425 -3.8459442555904388e-02</internalNodes>
      <leafValues>
        3.4693878889083862e-01 -4.2657342553138733e-01</leafValues></_>
    <_>
      <internalNodes>
        0 -1 70856 1.7071984708309174e-02</internalNodes>
      <leafValues>
        -1.9797781109809875e-01 6.7942124605178833e-01</leafValues></_>
    <_>
      <internalNodes>
        0 -1 76575 -1.2691749725490808e-03</internalNodes>
      <leafValues>
        6.0295319557189941e-01 -2.4210764467716217e-01</leafValues></_>
    <_>
      <internalNodes>
        0 -1 62347 8.1727886572480202e-04</internalNodes>
      <leafValues>
        -2.0595514774322510e-01 4.7568258643150330e-01</leafValues></_>
    <_>
      <internalNodes>
        0 -1 4393 1.0729490313678980e-03</internalNodes>
      <leafValues>
        -2.2925904393196106e-01 5.9355789422988892e-01</leafValues></_>
    <_>
      <internalNodes>
        0 -1 25681 -2.9677850008010864e-01</internalNodes>
      <leafValues>
        -8.3363509178161621e-01 1.9070519506931305e-01</leafValues></_>
    <_>
      <internalNodes>
        0 -1 13363 -1.9541062647476792e-04</internalNodes>
      <leafValues>
        3.9670607447624207e-01 -3.5601028800010681e-01</leafValues></_></weakClassifiers></stage16>
</opencv_storage>
