<?xml version="1.0"?>
<opencv_storage>
<stage12>
  <maxWeakCount>20</maxWeakCount>
  <stageThreshold>-1.7419456243515015e+00</stageThreshold>
  <weakClassifiers>
    <_>
      <internalNodes>
        0 -1 10726 -3.3744636178016663e-01</internalNodes>
      <leafValues>
        -8.0143409967422485e-01 -3.1777378916740417e-01</leafValues></_>
    <_>
      <internalNodes>
        0 -1 17765 -7.9070091247558594e-02</internalNodes>
      <leafValues>
        7.3983773589134216e-02 -4.4273525476455688e-01</leafValues></_>
    <_>
      <internalNodes>
        0 -1 929 -1.1938253417611122e-02</internalNodes>
      <leafValues>
        -1.7959553003311157e-01 3.7229108810424805e-01</leafValues></_>
    <_>
      <internalNodes>
        0 -1 45147 6.0990266501903534e-04</internalNodes>
      <leafValues>
        -1.3319960236549377e-01 4.1072914004325867e-01</leafValues></_>
    <_>
      <internalNodes>
        0 -1 5425 -2.5642774999141693e-02</internalNodes>
      <leafValues>
        4.6057814359664917e-01 -1.1726611852645874e-01</leafValues></_>
    <_>
      <internalNodes>
        0 -1 45246 2.0214743912220001e-02</internalNodes>
      <leafValues>
        7.7092327177524567e-02 -6.7932325601577759e-01</leafValues></_>
    <_>
      <internalNodes>
        0 -1 10228 -9.9666358437389135e-04</internalNodes>
      <leafValues>
        4.1941902041435242e-01 -1.1310016363859177e-01</leafValues></_>
    <_>
      <internalNodes>
        0 -1 68741 2.9641710221767426e-02</internalNodes>
      <leafValues>
        -6.1407685279846191e-02 7.4104511737823486e-01</leafValues></_>
    <_>
      <internalNodes>
        0 -1 41388 -3.1165676191449165e-03</internalNodes>
      <leafValues>
        2.2426822781562805e-01 -2.1232126653194427e-01</leafValues></_>
    <_>
      <internalNodes>
        0 -1 66793 1.1328810825943947e-02</internalNodes>
      <leafValues>
        -1.5060427784919739e-01 3.2277068495750427e-01</leafValues></_>
    <_>
      <internalNodes>
        0 -1 61866 1.5565361536573619e-05</internalNodes>
      <leafValues>
        1.2010090053081512e-01 -3.3314228057861328e-01</leafValues></_>
    <_>
      <internalNodes>
        0 -1 2567 6.4615145325660706e-02</internalNodes>
      <leafValues>
        6.2282491475343704e-02 -6.6324394941329956e-01</leafValues></_>
    <_>
      <internalNodes>
        0 -1 63216 2.7422872371971607e-03</internalNodes>
      <leafValues>
        -1.4214639365673065e-01 2.6708677411079407e-01</leafValues></_>
    <_>
      <internalNodes>
        0 -1 30246 -3.1775649404153228e-04</internalNodes>
      <leafValues>
        3.5264858603477478e-01 -1.0504009574651718e-01</leafValues></_>
    <_>
      <internalNodes>
        0 -1 50046 -1.2585851363837719e-02</internalNodes>
      <leafValues>
        -6.1497646570205688e-01 7.8231647610664368e-02</leafValues></_>
    <_>
      <internalNodes>
        0 -1 21776 1.1859859805554152e-03</internalNodes>
      <leafValues>
        -2.5750643014907837e-01 1.5683709084987640e-01</leafValues></_>
    <_>
      <internalNodes>
        0 -1 13119 -4.6699309349060059e-01</internalNodes>
      <leafValues>
        -9.7029232978820801e-01 4.6540070325136185e-02</leafValues></_>
    <_>
      <internalNodes>
        0 -1 55744 -1.8038058187812567e-03</internalNodes>
      <leafValues>
        3.6599138379096985e-01 -1.1930321156978607e-01</leafValues></_>
    <_>
      <internalNodes>
        0 -1 62142 -1.7549062147736549e-02</internalNodes>
      <leafValues>
        4.5279553532600403e-01 -9.8568037152290344e-02</leafValues></_>
    <_>
      <internalNodes>
        0 -1 33765 1.4827279374003410e-03</internalNodes>
      <leafValues>
        -1.6637264192104340e-01 2.4642960727214813e-01</leafValues></_></weakClassifiers></stage12>
</opencv_storage>
