<?xml version="1.0"?>
<opencv_storage>
<stage1>
  <maxWeakCount>5</maxWeakCount>
  <stageThreshold>-1.3540804386138916e+00</stageThreshold>
  <weakClassifiers>
    <_>
      <internalNodes>
        0 -1 228 5.2690647542476654e-02</internalNodes>
      <leafValues>
        -8.4657162427902222e-01 5.9390860795974731e-01</leafValues></_>
    <_>
      <internalNodes>
        0 -1 58851 -3.5982854664325714e-02</internalNodes>
      <leafValues>
        5.7952243089675903e-01 -5.6738662719726563e-01</leafValues></_>
    <_>
      <internalNodes>
        0 -1 62229 2.0953584462404251e-02</internalNodes>
      <leafValues>
        -3.6317414045333862e-01 6.1606919765472412e-01</leafValues></_>
    <_>
      <internalNodes>
        0 -1 25721 -4.3045982718467712e-01</internalNodes>
      <leafValues>
        -8.3074933290481567e-01 2.0985107123851776e-01</leafValues></_>
    <_>
      <internalNodes>
        0 -1 6897 -1.2249143421649933e-01</internalNodes>
      <leafValues>
        2.8595578670501709e-01 -7.6604241132736206e-01</leafValues></_></weakClassifiers></stage1>
</opencv_storage>
