<?xml version="1.0"?>
<opencv_storage>
<stage7>
  <maxWeakCount>16</maxWeakCount>
  <stageThreshold>-1.7537320852279663e+00</stageThreshold>
  <weakClassifiers>
    <_>
      <internalNodes>
        0 -1 8631 8.7048802524805069e-03</internalNodes>
      <leafValues>
        -7.4382317066192627e-01 1.0606060922145844e-01</leafValues></_>
    <_>
      <internalNodes>
        0 -1 69147 1.5338896773755550e-02</internalNodes>
      <leafValues>
        -3.6106181144714355e-01 3.0184075236320496e-01</leafValues></_>
    <_>
      <internalNodes>
        0 -1 8985 5.0492184236645699e-03</internalNodes>
      <leafValues>
        -1.8181948363780975e-01 4.5969021320343018e-01</leafValues></_>
    <_>
      <internalNodes>
        0 -1 45094 7.6852753409184515e-05</internalNodes>
      <leafValues>
        -2.2335200011730194e-01 3.2488372921943665e-01</leafValues></_>
    <_>
      <internalNodes>
        0 -1 56650 7.8104855492711067e-04</internalNodes>
      <leafValues>
        1.2379459291696548e-01 -5.7732623815536499e-01</leafValues></_>
    <_>
      <internalNodes>
        0 -1 75137 5.1470695325406268e-05</internalNodes>
      <leafValues>
        -1.8270120024681091e-01 3.2277107238769531e-01</leafValues></_>
    <_>
      <internalNodes>
        0 -1 56506 3.0271522700786591e-04</internalNodes>
      <leafValues>
        1.1873076856136322e-01 -5.2553755044937134e-01</leafValues></_>
    <_>
      <internalNodes>
        0 -1 58630 -4.4121939688920975e-02</internalNodes>
      <leafValues>
        -8.4832751750946045e-01 7.3928132653236389e-02</leafValues></_>
    <_>
      <internalNodes>
        0 -1 23507 -3.0821985565125942e-03</internalNodes>
      <leafValues>
        5.2486193180084229e-01 -1.3428737223148346e-01</leafValues></_>
    <_>
      <internalNodes>
        0 -1 68101 -7.4950279667973518e-05</internalNodes>
      <leafValues>
        2.6467689871788025e-01 -2.5604704022407532e-01</leafValues></_>
    <_>
      <internalNodes>
        0 -1 8442 -4.3477565050125122e-03</internalNodes>
      <leafValues>
        4.9202105402946472e-01 -1.4030648767948151e-01</leafValues></_>
    <_>
      <internalNodes>
        0 -1 10879 5.1483847200870514e-02</internalNodes>
      <leafValues>
        -1.4237210154533386e-01 4.3082326650619507e-01</leafValues></_>
    <_>
      <internalNodes>
        0 -1 76162 1.0049963369965553e-02</internalNodes>
      <leafValues>
        -1.2025888264179230e-01 5.0402724742889404e-01</leafValues></_>
    <_>
      <internalNodes>
        0 -1 76091 -3.2022610306739807e-02</internalNodes>
      <leafValues>
        5.2572488784790039e-01 -1.1923040449619293e-01</leafValues></_>
    <_>
      <internalNodes>
        0 -1 65768 -4.4027939438819885e-03</internalNodes>
      <leafValues>
        2.1641962230205536e-01 -3.1750705838203430e-01</leafValues></_>
    <_>
      <internalNodes>
        0 -1 73270 3.5074569750577211e-03</internalNodes>
      <leafValues>
        -2.4133786559104919e-01 2.9789876937866211e-01</leafValues></_></weakClassifiers></stage7>
</opencv_storage>
