<?xml version="1.0"?>
<opencv_storage>
<stage22>
  <maxWeakCount>27</maxWeakCount>
  <stageThreshold>-1.3235490322113037e+00</stageThreshold>
  <weakClassifiers>
    <_>
      <internalNodes>
        0 -1 54078 2.2568250074982643e-02</internalNodes>
      <leafValues>
        -6.9848024845123291e-01 6.0000002384185791e-01</leafValues></_>
    <_>
      <internalNodes>
        0 -1 2292 9.7733758389949799e-02</internalNodes>
      <leafValues>
        -2.2664427757263184e-01 4.4020712375640869e-01</leafValues></_>
    <_>
      <internalNodes>
        0 -1 65809 -2.6814760640263557e-03</internalNodes>
      <leafValues>
        4.5178031921386719e-01 -8.6038552224636078e-02</leafValues></_>
    <_>
      <internalNodes>
        0 -1 78307 -8.6414907127618790e-03</internalNodes>
      <leafValues>
        -3.9733690023422241e-01 9.5055960118770599e-02</leafValues></_>
    <_>
      <internalNodes>
        0 -1 68441 -5.7385528634767979e-05</internalNodes>
      <leafValues>
        1.9723272323608398e-01 -1.7070308327674866e-01</leafValues></_>
    <_>
      <internalNodes>
        0 -1 69714 -3.0098438728600740e-03</internalNodes>
      <leafValues>
        3.6237937211990356e-01 -7.9118050634860992e-02</leafValues></_>
    <_>
      <internalNodes>
        0 -1 63914 9.8491727840155363e-05</internalNodes>
      <leafValues>
        8.2332804799079895e-02 -4.2821747064590454e-01</leafValues></_>
    <_>
      <internalNodes>
        0 -1 63498 4.2027654126286507e-03</internalNodes>
      <leafValues>
        -1.3774575293064117e-01 2.6879462599754333e-01</leafValues></_>
    <_>
      <internalNodes>
        0 -1 69785 -9.1947153210639954e-02</internalNodes>
      <leafValues>
        -9.1523563861846924e-01 3.6761365830898285e-02</leafValues></_>
    <_>
      <internalNodes>
        0 -1 49416 3.4616739139892161e-04</internalNodes>
      <leafValues>
        1.4645199477672577e-01 -2.6269465684890747e-01</leafValues></_>
    <_>
      <internalNodes>
        0 -1 76295 2.0431079901754856e-03</internalNodes>
      <leafValues>
        -1.6752438247203827e-01 2.2927853465080261e-01</leafValues></_>
    <_>
      <internalNodes>
        0 -1 71758 8.0861616879701614e-03</internalNodes>
      <leafValues>
        -4.7411564737558365e-02 6.6992092132568359e-01</leafValues></_>
    <_>
      <internalNodes>
        0 -1 78168 -8.7346976215485483e-05</internalNodes>
      <leafValues>
        2.0077496767044067e-01 -1.9865810871124268e-01</leafValues></_>
    <_>
      <internalNodes>
        0 -1 14242 -1.0347077623009682e-02</internalNodes>
      <leafValues>
        -6.9367080926895142e-01 6.0476910322904587e-02</leafValues></_>
    <_>
      <internalNodes>
        0 -1 58534 -5.0389440730214119e-03</internalNodes>
      <leafValues>
        4.1523531079292297e-01 -9.3412458896636963e-02</leafValues></_>
    <_>
      <internalNodes>
        0 -1 7822 1.2457499280571938e-02</internalNodes>
      <leafValues>
        -8.4502197802066803e-02 3.9301440119743347e-01</leafValues></_>
    <_>
      <internalNodes>
        0 -1 29008 7.7618449926376343e-02</internalNodes>
      <leafValues>
        3.7545174360275269e-02 -9.6368229389190674e-01</leafValues></_>
    <_>
      <internalNodes>
        0 -1 54702 6.1916251434013247e-04</internalNodes>
      <leafValues>
        -1.9549308717250824e-01 1.5414789319038391e-01</leafValues></_>
    <_>
      <internalNodes>
        0 -1 76936 3.9975864638108760e-05</internalNodes>
      <leafValues>
        -1.7098818719387054e-01 2.0614373683929443e-01</leafValues></_>
    <_>
      <internalNodes>
        0 -1 16085 -1.0904996888712049e-03</internalNodes>
      <leafValues>
        3.7568262219429016e-01 -8.5267543792724609e-02</leafValues></_>
    <_>
      <internalNodes>
        0 -1 71667 -2.3649215698242188e-02</internalNodes>
      <leafValues>
        -7.5840033590793610e-02 4.5527529716491699e-01</leafValues></_>
    <_>
      <internalNodes>
        0 -1 77278 -3.1159990467131138e-03</internalNodes>
      <leafValues>
        5.5948529392480850e-02 -7.6514250040054321e-01</leafValues></_>
    <_>
      <internalNodes>
        0 -1 14370 -8.6241811513900757e-03</internalNodes>
      <leafValues>
        2.7712538838386536e-01 -1.3470579683780670e-01</leafValues></_>
    <_>
      <internalNodes>
        0 -1 21204 -1.0374173521995544e-02</internalNodes>
      <leafValues>
        -7.7877044677734375e-01 4.5351959764957428e-02</leafValues></_>
    <_>
      <internalNodes>
        0 -1 76477 -5.6795254349708557e-03</internalNodes>
      <leafValues>
        6.9767457246780396e-01 -5.5852644145488739e-02</leafValues></_>
    <_>
      <internalNodes>
        0 -1 34293 -3.3448587637394667e-03</internalNodes>
      <leafValues>
        1.4595703780651093e-01 -2.0811273157596588e-01</leafValues></_>
    <_>
      <internalNodes>
        0 -1 24129 -1.9833575934171677e-03</internalNodes>
      <leafValues>
        -1.9208756089210510e-01 2.2087259590625763e-01</leafValues></_></weakClassifiers></stage22>
</opencv_storage>
