<?xml version="1.0"?>
<opencv_storage>
<stage8>
  <maxWeakCount>10</maxWeakCount>
  <stageThreshold>-1.1806757450103760e+00</stageThreshold>
  <weakClassifiers>
    <_>
      <internalNodes>
        0 -1 7962 -1.7329244874417782e-03</internalNodes>
      <leafValues>
        -6.6431093215942383e-01 2.1621622145175934e-01</leafValues></_>
    <_>
      <internalNodes>
        0 -1 74823 -2.3477140814065933e-02</internalNodes>
      <leafValues>
        5.2082681655883789e-01 -3.3777868747711182e-01</leafValues></_>
    <_>
      <internalNodes>
        0 -1 38 2.0162241999059916e-03</internalNodes>
      <leafValues>
        -2.9324549436569214e-01 3.5493084788322449e-01</leafValues></_>
    <_>
      <internalNodes>
        0 -1 21953 -3.1422914471477270e-03</internalNodes>
      <leafValues>
        4.2738464474678040e-01 -2.1097874641418457e-01</leafValues></_>
    <_>
      <internalNodes>
        0 -1 39798 1.9699975382536650e-05</internalNodes>
      <leafValues>
        -3.5325378179550171e-01 2.7606350183486938e-01</leafValues></_>
    <_>
      <internalNodes>
        0 -1 71340 -3.2705157995223999e-02</internalNodes>
      <leafValues>
        7.9938864707946777e-01 -8.8430963456630707e-02</leafValues></_>
    <_>
      <internalNodes>
        0 -1 70273 -6.3789356499910355e-03</internalNodes>
      <leafValues>
        -1. 1.2564551830291748e-01</leafValues></_>
    <_>
      <internalNodes>
        0 -1 2341 -4.4543212279677391e-03</internalNodes>
      <leafValues>
        2.3675782978534698e-01 -3.8117125630378723e-01</leafValues></_>
    <_>
      <internalNodes>
        0 -1 74566 1.1663218960165977e-02</internalNodes>
      <leafValues>
        1.6018520295619965e-01 -7.5070512294769287e-01</leafValues></_>
    <_>
      <internalNodes>
        0 -1 3388 3.4006283385679126e-04</internalNodes>
      <leafValues>
        -3.3229809999465942e-01 2.7601346373558044e-01</leafValues></_></weakClassifiers></stage8>
</opencv_storage>
