<?xml version="1.0"?>
<opencv_storage>
<stage13>
  <maxWeakCount>7</maxWeakCount>
  <stageThreshold>-4.4570606946945190e-01</stageThreshold>
  <weakClassifiers>
    <_>
      <internalNodes>
        0 -1 202 7.6879831030964851e-03</internalNodes>
      <leafValues>
        -2.2553192079067230e-01 7.8181821107864380e-01</leafValues></_>
    <_>
      <internalNodes>
        0 -1 69382 5.6614945642650127e-03</internalNodes>
      <leafValues>
        -2.0412790775299072e-01 6.6607034206390381e-01</leafValues></_>
    <_>
      <internalNodes>
        0 -1 39798 5.6518656492698938e-05</internalNodes>
      <leafValues>
        -3.8370648026466370e-01 4.0637996792793274e-01</leafValues></_>
    <_>
      <internalNodes>
        0 -1 7954 -4.0631582960486412e-03</internalNodes>
      <leafValues>
        4.8999580740928650e-01 -2.8617060184478760e-01</leafValues></_>
    <_>
      <internalNodes>
        0 -1 78168 -4.3538606405491009e-05</internalNodes>
      <leafValues>
        4.3273022770881653e-01 -3.2249343395233154e-01</leafValues></_>
    <_>
      <internalNodes>
        0 -1 54628 4.4827563688158989e-03</internalNodes>
      <leafValues>
        -1.3567656278610229e-01 8.2178539037704468e-01</leafValues></_>
    <_>
      <internalNodes>
        0 -1 50419 -1.2854195665568113e-04</internalNodes>
      <leafValues>
        3.5677716135978699e-01 -4.0569275617599487e-01</leafValues></_></weakClassifiers></stage13>
</opencv_storage>
