<?xml version="1.0"?>
<opencv_storage>
<stage6>
  <maxWeakCount>15</maxWeakCount>
  <stageThreshold>-1.6998482942581177e+00</stageThreshold>
  <weakClassifiers>
    <_>
      <internalNodes>
        0 -1 7967 -1.3924950733780861e-02</internalNodes>
      <leafValues>
        -7.6010602712631226e-01 1.0559006035327911e-01</leafValues></_>
    <_>
      <internalNodes>
        0 -1 170 3.0315581709146500e-02</internalNodes>
      <leafValues>
        -4.5597362518310547e-01 1.9618009030818939e-01</leafValues></_>
    <_>
      <internalNodes>
        0 -1 48153 -2.4415677785873413e-01</internalNodes>
      <leafValues>
        -7.1168142557144165e-01 9.0792432427406311e-02</leafValues></_>
    <_>
      <internalNodes>
        0 -1 33434 -7.9199224710464478e-03</internalNodes>
      <leafValues>
        1.6558803617954254e-01 -4.9065664410591125e-01</leafValues></_>
    <_>
      <internalNodes>
        0 -1 75545 -4.3497443199157715e-02</internalNodes>
      <leafValues>
        5.1592224836349487e-01 -1.7187976837158203e-01</leafValues></_>
    <_>
      <internalNodes>
        0 -1 48222 1.4003614523971919e-05</internalNodes>
      <leafValues>
        1.5605247020721436e-01 -4.8473384976387024e-01</leafValues></_>
    <_>
      <internalNodes>
        0 -1 74167 2.3644664324820042e-03</internalNodes>
      <leafValues>
        -1.2935826182365417e-01 5.3108811378479004e-01</leafValues></_>
    <_>
      <internalNodes>
        0 -1 397 4.1821221821010113e-03</internalNodes>
      <leafValues>
        -1.9372807443141937e-01 3.8078868389129639e-01</leafValues></_>
    <_>
      <internalNodes>
        0 -1 42162 -5.5096235882956535e-05</internalNodes>
      <leafValues>
        2.5034165382385254e-01 -2.8737759590148926e-01</leafValues></_>
    <_>
      <internalNodes>
        0 -1 22156 5.8738104999065399e-02</internalNodes>
      <leafValues>
        1.7186397314071655e-01 -4.6263790130615234e-01</leafValues></_>
    <_>
      <internalNodes>
        0 -1 70273 -6.6640377044677734e-03</internalNodes>
      <leafValues>
        -8.6045807600021362e-01 7.4314869940280914e-02</leafValues></_>
    <_>
      <internalNodes>
        0 -1 742 -1.9261245615780354e-03</internalNodes>
      <leafValues>
        -1.7118328809738159e-01 4.6731749176979065e-01</leafValues></_>
    <_>
      <internalNodes>
        0 -1 75046 3.9121704176068306e-03</internalNodes>
      <leafValues>
        -1.7204013466835022e-01 4.4159930944442749e-01</leafValues></_>
    <_>
      <internalNodes>
        0 -1 41 -1.1748336255550385e-02</internalNodes>
      <leafValues>
        5.9910869598388672e-01 -1.2053460627794266e-01</leafValues></_>
    <_>
      <internalNodes>
        0 -1 14767 -3.4078653698088601e-05</internalNodes>
      <leafValues>
        3.3532553911209106e-01 -2.0783624053001404e-01</leafValues></_></weakClassifiers></stage6>
</opencv_storage>
