<?xml version="1.0"?>
<opencv_storage>
<stage2>
  <maxWeakCount>7</maxWeakCount>
  <stageThreshold>-1.4791902303695679e+00</stageThreshold>
  <weakClassifiers>
    <_>
      <internalNodes>
        0 -1 1624 2.8348512947559357e-02</internalNodes>
      <leafValues>
        -7.8285712003707886e-01 4.4347825646400452e-01</leafValues></_>
    <_>
      <internalNodes>
        0 -1 7467 -7.2933512274175882e-04</internalNodes>
      <leafValues>
        3.3343783020973206e-01 -6.2557214498519897e-01</leafValues></_>
    <_>
      <internalNodes>
        0 -1 35739 -6.4555573463439941e-01</internalNodes>
      <leafValues>
        -8.9965730905532837e-01 2.4754883348941803e-01</leafValues></_>
    <_>
      <internalNodes>
        0 -1 58851 -3.5770084708929062e-02</internalNodes>
      <leafValues>
        6.0393232107162476e-01 -4.3917784094810486e-01</leafValues></_>
    <_>
      <internalNodes>
        0 -1 42375 -2.3529630899429321e-01</internalNodes>
      <leafValues>
        -8.9753556251525879e-01 2.0420114696025848e-01</leafValues></_>
    <_>
      <internalNodes>
        0 -1 2328 7.2171926498413086e-02</internalNodes>
      <leafValues>
        -3.4108787775039673e-01 7.8845429420471191e-01</leafValues></_>
    <_>
      <internalNodes>
        0 -1 6375 -2.3708079755306244e-01</internalNodes>
      <leafValues>
        2.5775483250617981e-01 -7.7978271245956421e-01</leafValues></_></weakClassifiers></stage2>
</opencv_storage>
