<?xml version="1.0"?>
<opencv_storage>
<stage19>
  <maxWeakCount>10</maxWeakCount>
  <stageThreshold>-1.1635345220565796e+00</stageThreshold>
  <weakClassifiers>
    <_>
      <internalNodes>
        0 -1 397 -1.8507264554500580e-02</internalNodes>
      <leafValues>
        6.1538463830947876e-01 -6.1237782239913940e-01</leafValues></_>
    <_>
      <internalNodes>
        0 -1 31215 -4.8474054783582687e-03</internalNodes>
      <leafValues>
        -9.5220148563385010e-01 3.6823265254497528e-02</leafValues></_>
    <_>
      <internalNodes>
        0 -1 25326 -6.8369903601706028e-03</internalNodes>
      <leafValues>
        1.9764174520969391e-01 -4.3430897593498230e-01</leafValues></_>
    <_>
      <internalNodes>
        0 -1 78303 -1.9193878397345543e-03</internalNodes>
      <leafValues>
        -4.7811403870582581e-01 2.4068172276020050e-01</leafValues></_>
    <_>
      <internalNodes>
        0 -1 44002 7.6774157583713531e-02</internalNodes>
      <leafValues>
        -1.9515363872051239e-01 4.8207858204841614e-01</leafValues></_>
    <_>
      <internalNodes>
        0 -1 44539 -2.1271163132041693e-04</internalNodes>
      <leafValues>
        -2.9867675900459290e-01 3.0767798423767090e-01</leafValues></_>
    <_>
      <internalNodes>
        0 -1 65602 1.7511101032141596e-04</internalNodes>
      <leafValues>
        1.4793358743190765e-01 -5.9811037778854370e-01</leafValues></_>
    <_>
      <internalNodes>
        0 -1 49873 -3.2475573243573308e-04</internalNodes>
      <leafValues>
        -4.6560657024383545e-01 2.0899625122547150e-01</leafValues></_>
    <_>
      <internalNodes>
        0 -1 3401 -1.5979044139385223e-02</internalNodes>
      <leafValues>
        3.6464506387710571e-01 -2.0449310541152954e-01</leafValues></_>
    <_>
      <internalNodes>
        0 -1 6922 -8.8386321440339088e-03</internalNodes>
      <leafValues>
        2.2294759750366211e-01 -4.3975582718849182e-01</leafValues></_></weakClassifiers></stage19>
</opencv_storage>
