<?xml version="1.0"?>
<opencv_storage>
<stage1>
  <maxWeakCount>5</maxWeakCount>
  <stageThreshold>-1.5569655895233154e+00</stageThreshold>
  <weakClassifiers>
    <_>
      <internalNodes>
        0 -1 244 6.9053277373313904e-02</internalNodes>
      <leafValues>
        -8.4902054071426392e-01 5.3068590164184570e-01</leafValues></_>
    <_>
      <internalNodes>
        0 -1 58866 -4.7531701624393463e-02</internalNodes>
      <leafValues>
        5.1995438337326050e-01 -5.7245647907257080e-01</leafValues></_>
    <_>
      <internalNodes>
        0 -1 62229 2.0905699580907822e-02</internalNodes>
      <leafValues>
        -4.0752556920051575e-01 6.2414968013763428e-01</leafValues></_>
    <_>
      <internalNodes>
        0 -1 67764 -3.6081887781620026e-02</internalNodes>
      <leafValues>
        6.1596375703811646e-01 -2.3372867703437805e-01</leafValues></_>
    <_>
      <internalNodes>
        0 -1 66945 1.4572922373190522e-03</internalNodes>
      <leafValues>
        -2.8815031051635742e-01 5.0576573610305786e-01</leafValues></_></weakClassifiers></stage1>
</opencv_storage>
