<?xml version="1.0"?>
<opencv_storage>
<stage15>
  <maxWeakCount>25</maxWeakCount>
  <stageThreshold>-1.5105026960372925e+00</stageThreshold>
  <weakClassifiers>
    <_>
      <internalNodes>
        0 -1 3472 4.0594387799501419e-02</internalNodes>
      <leafValues>
        -7.3141264915466309e-01 -2.5688073039054871e-01</leafValues></_>
    <_>
      <internalNodes>
        0 -1 58504 2.5532441213726997e-04</internalNodes>
      <leafValues>
        -3.8977980613708496e-02 -6.2847942113876343e-01</leafValues></_>
    <_>
      <internalNodes>
        0 -1 7606 8.5069164633750916e-03</internalNodes>
      <leafValues>
        3.8552898913621902e-02 -8.4184688329696655e-01</leafValues></_>
    <_>
      <internalNodes>
        0 -1 78326 -1.4957046136260033e-02</internalNodes>
      <leafValues>
        -4.5757669210433960e-01 1.2082593888044357e-01</leafValues></_>
    <_>
      <internalNodes>
        0 -1 68731 -1.2294507585465908e-02</internalNodes>
      <leafValues>
        -7.9633826017379761e-01 6.4280837774276733e-02</leafValues></_>
    <_>
      <internalNodes>
        0 -1 73417 7.1662619709968567e-02</internalNodes>
      <leafValues>
        3.9444494992494583e-02 -7.9593503475189209e-01</leafValues></_>
    <_>
      <internalNodes>
        0 -1 77511 9.9193537607789040e-04</internalNodes>
      <leafValues>
        -1.6134001314640045e-01 2.5150796771049500e-01</leafValues></_>
    <_>
      <internalNodes>
        0 -1 8390 -1.4862550422549248e-02</internalNodes>
      <leafValues>
        4.5875245332717896e-01 -7.9565003514289856e-02</leafValues></_>
    <_>
      <internalNodes>
        0 -1 8320 8.7687966879457235e-04</internalNodes>
      <leafValues>
        1.0791938006877899e-01 -3.4978625178337097e-01</leafValues></_>
    <_>
      <internalNodes>
        0 -1 7599 -8.4883533418178558e-03</internalNodes>
      <leafValues>
        4.2538031935691833e-01 -7.7761389315128326e-02</leafValues></_>
    <_>
      <internalNodes>
        0 -1 25711 -4.0803620219230652e-01</internalNodes>
      <leafValues>
        -4.9022355675697327e-01 7.4967041611671448e-02</leafValues></_>
    <_>
      <internalNodes>
        0 -1 74546 1.2978876009583473e-02</internalNodes>
      <leafValues>
        3.3593390136957169e-02 -7.0543384552001953e-01</leafValues></_>
    <_>
      <internalNodes>
        0 -1 8563 4.0654423646628857e-03</internalNodes>
      <leafValues>
        -1.1043298244476318e-01 3.0581459403038025e-01</leafValues></_>
    <_>
      <internalNodes>
        0 -1 71635 4.8922593123279512e-05</internalNodes>
      <leafValues>
        -1.3658593595027924e-01 2.4513415992259979e-01</leafValues></_>
    <_>
      <internalNodes>
        0 -1 11286 -1.4595020562410355e-02</internalNodes>
      <leafValues>
        5.7655858993530273e-01 -5.4133348166942596e-02</leafValues></_>
    <_>
      <internalNodes>
        0 -1 366 -2.5395182892680168e-02</internalNodes>
      <leafValues>
        -7.5663551688194275e-02 4.7769320011138916e-01</leafValues></_>
    <_>
      <internalNodes>
        0 -1 54774 -6.0920767486095428e-02</internalNodes>
      <leafValues>
        -8.6063092947006226e-01 4.2776860296726227e-02</leafValues></_>
    <_>
      <internalNodes>
        0 -1 67089 4.7770161472726613e-05</internalNodes>
      <leafValues>
        8.8174231350421906e-02 -3.1096985936164856e-01</leafValues></_>
    <_>
      <internalNodes>
        0 -1 33408 -1.0152412578463554e-02</internalNodes>
      <leafValues>
        3.7748399376869202e-01 -8.6018539965152740e-02</leafValues></_>
    <_>
      <internalNodes>
        0 -1 71667 -2.6838563382625580e-02</internalNodes>
      <leafValues>
        -8.8670216500759125e-02 3.4324645996093750e-01</leafValues></_>
    <_>
      <internalNodes>
        0 -1 34750 1.5004054876044393e-03</internalNodes>
      <leafValues>
        -1.4854881167411804e-01 2.0133820176124573e-01</leafValues></_>
    <_>
      <internalNodes>
        0 -1 45148 -7.4445654172450304e-04</internalNodes>
      <leafValues>
        3.3938369154930115e-01 -1.0448242723941803e-01</leafValues></_>
    <_>
      <internalNodes>
        0 -1 48644 -1.0755950585007668e-02</internalNodes>
      <leafValues>
        3.3749531954526901e-02 -8.8283711671829224e-01</leafValues></_>
    <_>
      <internalNodes>
        0 -1 1085 1.6420236229896545e-01</internalNodes>
      <leafValues>
        2.5275461375713348e-02 -7.2105318307876587e-01</leafValues></_>
    <_>
      <internalNodes>
        0 -1 22444 2.4577399715781212e-02</internalNodes>
      <leafValues>
        -4.6855468302965164e-02 5.3808313608169556e-01</leafValues></_></weakClassifiers></stage15>
</opencv_storage>
