<?xml version="1.0"?>
<opencv_storage>
<stage15>
  <maxWeakCount>9</maxWeakCount>
  <stageThreshold>-4.9265214800834656e-01</stageThreshold>
  <weakClassifiers>
    <_>
      <internalNodes>
        0 -1 2277 9.0232919901609421e-03</internalNodes>
      <leafValues>
        -3.6585366725921631e-01 3.9682540297508240e-01</leafValues></_>
    <_>
      <internalNodes>
        0 -1 45115 -1.5160220675170422e-02</internalNodes>
      <leafValues>
        -9.1251343488693237e-01 1.2757557630538940e-01</leafValues></_>
    <_>
      <internalNodes>
        0 -1 34466 -8.8169053196907043e-02</internalNodes>
      <leafValues>
        -3.7266963720321655e-01 3.2564064860343933e-01</leafValues></_>
    <_>
      <internalNodes>
        0 -1 26503 -2.6497747749090195e-02</internalNodes>
      <leafValues>
        2.7697771787643433e-01 -5.4479825496673584e-01</leafValues></_>
    <_>
      <internalNodes>
        0 -1 70426 -1.5973588824272156e-01</internalNodes>
      <leafValues>
        -6.9374984502792358e-01 1.6921138763427734e-01</leafValues></_>
    <_>
      <internalNodes>
        0 -1 70337 4.1682366281747818e-04</internalNodes>
      <leafValues>
        1.9948731362819672e-01 -5.2644646167755127e-01</leafValues></_>
    <_>
      <internalNodes>
        0 -1 39725 7.2738104790914804e-05</internalNodes>
      <leafValues>
        -2.9526612162590027e-01 4.4027206301689148e-01</leafValues></_>
    <_>
      <internalNodes>
        0 -1 4884 5.3044334053993225e-03</internalNodes>
      <leafValues>
        -2.0797130465507507e-01 6.9521147012710571e-01</leafValues></_>
    <_>
      <internalNodes>
        0 -1 61001 -7.0553515106439590e-03</internalNodes>
      <leafValues>
        -9.3509334325790405e-01 1.4050753414630890e-01</leafValues></_></weakClassifiers></stage15>
</opencv_storage>
