<?xml version="1.0"?>
<opencv_storage>
<stage2>
  <maxWeakCount>9</maxWeakCount>
  <stageThreshold>-1.6069531440734863e+00</stageThreshold>
  <weakClassifiers>
    <_>
      <internalNodes>
        0 -1 50303 -1.2528142333030701e-01</internalNodes>
      <leafValues>
        1.4285714924335480e-01 -8.1508517265319824e-01</leafValues></_>
    <_>
      <internalNodes>
        0 -1 39986 -1.5369781851768494e-01</internalNodes>
      <leafValues>
        9.4417415559291840e-02 -9.0718615055084229e-01</leafValues></_>
    <_>
      <internalNodes>
        0 -1 12954 -1.8390543758869171e-01</internalNodes>
      <leafValues>
        5.6529488414525986e-02 -8.9918971061706543e-01</leafValues></_>
    <_>
      <internalNodes>
        0 -1 26430 -3.4469640254974365e-01</internalNodes>
      <leafValues>
        -7.7953255176544189e-01 2.5130227208137512e-01</leafValues></_>
    <_>
      <internalNodes>
        0 -1 71788 -6.5868228673934937e-02</internalNodes>
      <leafValues>
        7.3917812108993530e-01 -2.5043442845344543e-01</leafValues></_>
    <_>
      <internalNodes>
        0 -1 7252 -2.3504711687564850e-02</internalNodes>
      <leafValues>
        1.8295125663280487e-01 -7.8889912366867065e-01</leafValues></_>
    <_>
      <internalNodes>
        0 -1 310 4.8280335962772369e-02</internalNodes>
      <leafValues>
        -2.9256477952003479e-01 4.2793136835098267e-01</leafValues></_>
    <_>
      <internalNodes>
        0 -1 73124 3.1958427280187607e-02</internalNodes>
      <leafValues>
        -2.1479432284832001e-01 6.6605716943740845e-01</leafValues></_>
    <_>
      <internalNodes>
        0 -1 489 7.1152258897200227e-04</internalNodes>
      <leafValues>
        -2.8095537424087524e-01 4.1155996918678284e-01</leafValues></_></weakClassifiers></stage2>
</opencv_storage>
