<?xml version="1.0"?>
<opencv_storage>
<stage7>
  <maxWeakCount>19</maxWeakCount>
  <stageThreshold>-1.6415181159973145e+00</stageThreshold>
  <weakClassifiers>
    <_>
      <internalNodes>
        0 -1 1736 1.3344550505280495e-02</internalNodes>
      <leafValues>
        -7.3056536912918091e-01 2.2641509771347046e-01</leafValues></_>
    <_>
      <internalNodes>
        0 -1 922 6.2452845275402069e-02</internalNodes>
      <leafValues>
        -3.5713788866996765e-01 1.3929691910743713e-01</leafValues></_>
    <_>
      <internalNodes>
        0 -1 893 -4.5188210904598236e-02</internalNodes>
      <leafValues>
        4.4539856910705566e-01 -1.2468352168798447e-01</leafValues></_>
    <_>
      <internalNodes>
        0 -1 74057 -1.7654247581958771e-02</internalNodes>
      <leafValues>
        3.8774627447128296e-01 -1.3719817996025085e-01</leafValues></_>
    <_>
      <internalNodes>
        0 -1 50419 -1.3084788806736469e-03</internalNodes>
      <leafValues>
        4.8586186766624451e-01 -1.0129710286855698e-01</leafValues></_>
    <_>
      <internalNodes>
        0 -1 28163 -1.8498249119147658e-03</internalNodes>
      <leafValues>
        1.7226296663284302e-01 -3.0139642953872681e-01</leafValues></_>
    <_>
      <internalNodes>
        0 -1 76162 1.0845290496945381e-02</internalNodes>
      <leafValues>
        -1.0644301772117615e-01 4.2488002777099609e-01</leafValues></_>
    <_>
      <internalNodes>
        0 -1 21818 1.5919580619083717e-05</internalNodes>
      <leafValues>
        -1.6827970743179321e-01 2.6848477125167847e-01</leafValues></_>
    <_>
      <internalNodes>
        0 -1 61788 -1.6208845772780478e-04</internalNodes>
      <leafValues>
        2.5615522265434265e-01 -1.9404910504817963e-01</leafValues></_>
    <_>
      <internalNodes>
        0 -1 9099 2.4287011474370956e-02</internalNodes>
      <leafValues>
        -1.0121736675500870e-01 5.0793260335922241e-01</leafValues></_>
    <_>
      <internalNodes>
        0 -1 49677 -1.3240942731499672e-02</internalNodes>
      <leafValues>
        9.6208259463310242e-02 -6.2530636787414551e-01</leafValues></_>
    <_>
      <internalNodes>
        0 -1 42896 -4.4963672757148743e-01</internalNodes>
      <leafValues>
        -5.2005398273468018e-01 1.0829921066761017e-01</leafValues></_>
    <_>
      <internalNodes>
        0 -1 71122 1.6935418534558266e-04</internalNodes>
      <leafValues>
        -2.2256311774253845e-01 2.1040673553943634e-01</leafValues></_>
    <_>
      <internalNodes>
        0 -1 34646 2.8069620952010155e-02</internalNodes>
      <leafValues>
        -1.4737762510776520e-01 3.1182372570037842e-01</leafValues></_>
    <_>
      <internalNodes>
        0 -1 54755 -2.5189309380948544e-03</internalNodes>
      <leafValues>
        4.3338760733604431e-01 -1.3240993022918701e-01</leafValues></_>
    <_>
      <internalNodes>
        0 -1 56655 2.2939587943255901e-03</internalNodes>
      <leafValues>
        9.0389095246791840e-02 -5.3388160467147827e-01</leafValues></_>
    <_>
      <internalNodes>
        0 -1 6725 -3.6820683162659407e-03</internalNodes>
      <leafValues>
        2.5251933932304382e-01 -1.6349323093891144e-01</leafValues></_>
    <_>
      <internalNodes>
        0 -1 77967 -1.5868458896875381e-02</internalNodes>
      <leafValues>
        5.5783003568649292e-01 -7.5340799987316132e-02</leafValues></_>
    <_>
      <internalNodes>
        0 -1 53890 1.1728398967534304e-03</internalNodes>
      <leafValues>
        1.2843391299247742e-01 -3.4784001111984253e-01</leafValues></_></weakClassifiers></stage7>
</opencv_storage>
