<?xml version="1.0"?>
<opencv_storage>
<cascade>
  <stageType>BOOST</stageType>
  <featureType>HAAR</featureType>
  <height>20</height>
  <width>20</width>
  <stageParams>
    <boostType>GAB</boostType>
    <minHitRate>9.9500000476837158e-01</minHitRate>
    <maxFalseAlarm>5.0000000000000000e-01</maxFalseAlarm>
    <weightTrimRate>9.4999999999999996e-01</weightTrimRate>
    <maxDepth>1</maxDepth>
    <maxWeakCount>100</maxWeakCount></stageParams>
  <featureParams>
    <maxCatCount>0</maxCatCount>
    <featSize>1</featSize>
    <mode>BASIC</mode></featureParams>
  <stageNum>22</stageNum>
  <stages>
    <!-- stage 0 -->
    <_>
      <maxWeakCount>3</maxWeakCount>
      <stageThreshold>-1.0892693996429443e+00</stageThreshold>
      <weakClassifiers>
        <_>
          <internalNodes>
            0 -1 55 -4.5654371380805969e-02</internalNodes>
          <leafValues>
            -8.2429903745651245e-01 7.7142858505249023e-01</leafValues></_>
        <_>
          <internalNodes>
            0 -1 82 -3.6584588885307312e-01</internalNodes>
          <leafValues>
            -9.5224481821060181e-01 2.3870018124580383e-01</leafValues></_>
        <_>
          <internalNodes>
            0 -1 138 -5.6345939636230469e-02</internalNodes>
          <leafValues>
            8.0560910701751709e-01 -5.0367057323455811e-01</leafValues></_></weakClassifiers></_>
    <!-- stage 1 -->
    <_>
      <maxWeakCount>4</maxWeakCount>
      <stageThreshold>-8.8874101638793945e-01</stageThreshold>
      <weakClassifiers>
        <_>
          <internalNodes>
            0 -1 5 5.9225518256425858e-02</internalNodes>
          <leafValues>
            -8.1992340087890625e-01 5.7627117633819580e-01</leafValues></_>
        <_>
          <internalNodes>
            0 -1 182 1.2057030573487282e-02</internalNodes>
          <leafValues>
            -6.0096400976181030e-01 4.4562402367591858e-01</leafValues></_>
        <_>
          <internalNodes>
            0 -1 153 -7.8603915870189667e-02</internalNodes>
          <leafValues>
            -8.7179499864578247e-01 2.4054360389709473e-01</leafValues></_>
        <_>
          <internalNodes>
            0 -1 52 -8.6762323975563049e-02</internalNodes>
          <leafValues>
            3.5735335946083069e-01 -6.7742556333541870e-01</leafValues></_></weakClassifiers></_>
    <!-- stage 2 -->
    <_>
      <maxWeakCount>7</maxWeakCount>
      <stageThreshold>-1.4791902303695679e+00</stageThreshold>
      <weakClassifiers>
        <_>
          <internalNodes>
            0 -1 12 2.8348512947559357e-02</internalNodes>
          <leafValues>
            -7.8285712003707886e-01 4.4347825646400452e-01</leafValues></_>
        <_>
          <internalNodes>
            0 -1 32 -7.2933512274175882e-04</internalNodes>
          <leafValues>
            3.3343783020973206e-01 -6.2557214498519897e-01</leafValues></_>
        <_>
          <internalNodes>
            0 -1 87 -6.4555573463439941e-01</internalNodes>
          <leafValues>
            -8.9965730905532837e-01 2.4754883348941803e-01</leafValues></_>
        <_>
          <internalNodes>
            0 -1 137 -3.5770084708929062e-02</internalNodes>
          <leafValues>
            6.0393232107162476e-01 -4.3917784094810486e-01</leafValues></_>
        <_>
          <internalNodes>
            0 -1 100 -2.3529630899429321e-01</internalNodes>
          <leafValues>
            -8.9753556251525879e-01 2.0420114696025848e-01</leafValues></_>
        <_>
          <internalNodes>
            0 -1 14 7.2171926498413086e-02</internalNodes>
          <leafValues>
            -3.4108787775039673e-01 7.8845429420471191e-01</leafValues></_>
        <_>
          <internalNodes>
            0 -1 28 -2.3708079755306244e-01</internalNodes>
          <leafValues>
            2.5775483250617981e-01 -7.7978271245956421e-01</leafValues></_></weakClassifiers></_>
    <!-- stage 3 -->
    <_>
      <maxWeakCount>8</maxWeakCount>
      <stageThreshold>-1.7579547166824341e+00</stageThreshold>
      <weakClassifiers>
        <_>
          <internalNodes>
            0 -1 159 -6.6278398036956787e-02</internalNodes>
          <leafValues>
            3.8613861799240112e-01 -7.4025976657867432e-01</leafValues></_>
        <_>
          <internalNodes>
            0 -1 60 -2.3535409569740295e-01</internalNodes>
          <leafValues>
            4.9176920205354691e-02 -9.4362944364547729e-01</leafValues></_>
        <_>
          <internalNodes>
            0 -1 39 -1.2188229709863663e-02</internalNodes>
          <leafValues>
            4.2035919427871704e-01 -4.6586421132087708e-01</leafValues></_>
        <_>
          <internalNodes>
            0 -1 85 6.4595005824230611e-05</internalNodes>
          <leafValues>
            -4.3698534369468689e-01 4.1052085161209106e-01</leafValues></_>
        <_>
          <internalNodes>
            0 -1 20 6.6621229052543640e-02</internalNodes>
          <leafValues>
            -3.2517212629318237e-01 5.5409741401672363e-01</leafValues></_>
        <_>
          <internalNodes>
            0 -1 162 -3.9444606751203537e-02</internalNodes>
          <leafValues>
            -9.4103491306304932e-01 2.0760303735733032e-01</leafValues></_>
        <_>
          <internalNodes>
            0 -1 201 1.7717240843921900e-03</internalNodes>
          <leafValues>
            -3.1077936291694641e-01 6.5509217977523804e-01</leafValues></_>
        <_>
          <internalNodes>
            0 -1 131 5.3232062782626599e-05</internalNodes>
          <leafValues>
            2.9063123464584351e-01 -6.1494338512420654e-01</leafValues></_></weakClassifiers></_>
    <!-- stage 4 -->
    <_>
      <maxWeakCount>5</maxWeakCount>
      <stageThreshold>-1.3283836841583252e+00</stageThreshold>
      <weakClassifiers>
        <_>
          <internalNodes>
            0 -1 192 -4.9054302275180817e-02</internalNodes>
          <leafValues>
            5.0000000000000000e-01 -7.0567375421524048e-01</leafValues></_>
        <_>
          <internalNodes>
            0 -1 78 -3.1004256010055542e-01</internalNodes>
          <leafValues>
            2.5257623195648193e-01 -8.9237076044082642e-01</leafValues></_>
        <_>
          <internalNodes>
            0 -1 122 -2.5641851127147675e-02</internalNodes>
          <leafValues>
            4.7730332612991333e-01 -4.8039820790290833e-01</leafValues></_>
        <_>
          <internalNodes>
            0 -1 112 -2.0175838470458984e-01</internalNodes>
          <leafValues>
            1.8863327801227570e-01 -9.6624040603637695e-01</leafValues></_>
        <_>
          <internalNodes>
            0 -1 24 -5.8111227117478848e-03</internalNodes>
          <leafValues>
            5.6142568588256836e-01 -3.8503921031951904e-01</leafValues></_></weakClassifiers></_>
    <!-- stage 5 -->
    <_>
      <maxWeakCount>8</maxWeakCount>
      <stageThreshold>-2.0254890918731689e+00</stageThreshold>
      <weakClassifiers>
        <_>
          <internalNodes>
            0 -1 138 -7.2180852293968201e-02</internalNodes>
          <leafValues>
            2.4137930572032928e-01 -7.9797977209091187e-01</leafValues></_>
        <_>
          <internalNodes>
            0 -1 140 -1.9841940957121551e-04</internalNodes>
          <leafValues>
            2.3233836889266968e-01 -5.9921789169311523e-01</leafValues></_>
        <_>
          <internalNodes>
            0 -1 22 7.2409276617690921e-04</internalNodes>
          <leafValues>
            -2.9763585329055786e-01 5.5874115228652954e-01</leafValues></_>
        <_>
          <internalNodes>
            0 -1 34 -2.4814862990751863e-04</internalNodes>
          <leafValues>
            3.8364717364311218e-01 -4.1048279404640198e-01</leafValues></_>
        <_>
          <internalNodes>
            0 -1 54 -1.4452561736106873e-02</internalNodes>
          <leafValues>
            -2.7164256572723389e-01 6.0547983646392822e-01</leafValues></_>
        <_>
          <internalNodes>
            0 -1 173 1.5196257736533880e-03</internalNodes>
          <leafValues>
            -3.0635130405426025e-01 4.9087691307067871e-01</leafValues></_>
        <_>
          <internalNodes>
            0 -1 145 6.0023576952517033e-04</internalNodes>
          <leafValues>
            2.8667441010475159e-01 -6.0431927442550659e-01</leafValues></_>
        <_>
          <internalNodes>
            0 -1 101 -8.6716469377279282e-03</internalNodes>
          <leafValues>
            3.5117456316947937e-01 -4.2608153820037842e-01</leafValues></_></weakClassifiers></_>
    <!-- stage 6 -->
    <_>
      <maxWeakCount>7</maxWeakCount>
      <stageThreshold>-1.5489175319671631e+00</stageThreshold>
      <weakClassifiers>
        <_>
          <internalNodes>
            0 -1 177 -7.9586297273635864e-02</internalNodes>
          <leafValues>
            2.0792078971862793e-01 -7.0686453580856323e-01</leafValues></_>
        <_>
          <internalNodes>
            0 -1 108 9.5220588264055550e-05</internalNodes>
          <leafValues>
            -4.8659783601760864e-01 3.2599827647209167e-01</leafValues></_>
        <_>
          <internalNodes>
            0 -1 123 -8.2236416346859187e-05</internalNodes>
          <leafValues>
            3.7223368883132935e-01 -4.2508146166801453e-01</leafValues></_>
        <_>
          <internalNodes>
            0 -1 23 1.7047836445271969e-04</internalNodes>
          <leafValues>
            -3.3715015649795532e-01 4.7566771507263184e-01</leafValues></_>
        <_>
          <internalNodes>
            0 -1 208 -1.9943562801927328e-04</internalNodes>
          <leafValues>
            5.3573685884475708e-01 -2.4236705899238586e-01</leafValues></_>
        <_>
          <internalNodes>
            0 -1 141 -1.0068798437714577e-02</internalNodes>
          <leafValues>
            1.9886530935764313e-01 -1.</leafValues></_>
        <_>
          <internalNodes>
            0 -1 4 -1.0736283846199512e-02</internalNodes>
          <leafValues>
            4.3904602527618408e-01 -3.6231786012649536e-01</leafValues></_></weakClassifiers></_>
    <!-- stage 7 -->
    <_>
      <maxWeakCount>10</maxWeakCount>
      <stageThreshold>-1.4418603181838989e+00</stageThreshold>
      <weakClassifiers>
        <_>
          <internalNodes>
            0 -1 41 1.1293634772300720e-01</internalNodes>
          <leafValues>
            -7.1428573131561279e-01 -3.4965034574270248e-02</leafValues></_>
        <_>
          <internalNodes>
            0 -1 50 -3.2184429466724396e-02</internalNodes>
          <leafValues>
            -7.3332959413528442e-01 5.5032849311828613e-02</leafValues></_>
        <_>
          <internalNodes>
            0 -1 11 3.4157387912273407e-02</internalNodes>
          <leafValues>
            -2.4381424486637115e-01 5.3925579786300659e-01</leafValues></_>
        <_>
          <internalNodes>
            0 -1 194 -4.3366301804780960e-02</internalNodes>
          <leafValues>
            6.2407898902893066e-01 -1.4543697237968445e-01</leafValues></_>
        <_>
          <internalNodes>
            0 -1 207 5.8096377179026604e-03</internalNodes>
          <leafValues>
            -2.6510384678840637e-01 4.0465173125267029e-01</leafValues></_>
        <_>
          <internalNodes>
            0 -1 209 -2.4436146020889282e-02</internalNodes>
          <leafValues>
            -9.0952098369598389e-01 1.3246960937976837e-01</leafValues></_>
        <_>
          <internalNodes>
            0 -1 171 -4.2773800669237971e-04</internalNodes>
          <leafValues>
            2.9229173064231873e-01 -3.8317471742630005e-01</leafValues></_>
        <_>
          <internalNodes>
            0 -1 148 -5.3652038332074881e-04</internalNodes>
          <leafValues>
            -8.1695681810379028e-01 1.1326991766691208e-01</leafValues></_>
        <_>
          <internalNodes>
            0 -1 26 1.0129904374480247e-02</internalNodes>
          <leafValues>
            -2.0175392925739288e-01 5.7270568609237671e-01</leafValues></_>
        <_>
          <internalNodes>
            0 -1 142 -8.4499413787852973e-05</internalNodes>
          <leafValues>
            2.7998781204223633e-01 -4.5881885290145874e-01</leafValues></_></weakClassifiers></_>
    <!-- stage 8 -->
    <_>
      <maxWeakCount>10</maxWeakCount>
      <stageThreshold>-1.1806757450103760e+00</stageThreshold>
      <weakClassifiers>
        <_>
          <internalNodes>
            0 -1 38 -1.7329244874417782e-03</internalNodes>
          <leafValues>
            -6.6431093215942383e-01 2.1621622145175934e-01</leafValues></_>
        <_>
          <internalNodes>
            0 -1 189 -2.3477140814065933e-02</internalNodes>
          <leafValues>
            5.2082681655883789e-01 -3.3777868747711182e-01</leafValues></_>
        <_>
          <internalNodes>
            0 -1 1 2.0162241999059916e-03</internalNodes>
          <leafValues>
            -2.9324549436569214e-01 3.5493084788322449e-01</leafValues></_>
        <_>
          <internalNodes>
            0 -1 65 -3.1422914471477270e-03</internalNodes>
          <leafValues>
            4.2738464474678040e-01 -2.1097874641418457e-01</leafValues></_>
        <_>
          <internalNodes>
            0 -1 91 1.9699975382536650e-05</internalNodes>
          <leafValues>
            -3.5325378179550171e-01 2.7606350183486938e-01</leafValues></_>
        <_>
          <internalNodes>
            0 -1 176 -3.2705157995223999e-02</internalNodes>
          <leafValues>
            7.9938864707946777e-01 -8.8430963456630707e-02</leafValues></_>
        <_>
          <internalNodes>
            0 -1 170 -6.3789356499910355e-03</internalNodes>
          <leafValues>
            -1. 1.2564551830291748e-01</leafValues></_>
        <_>
          <internalNodes>
            0 -1 15 -4.4543212279677391e-03</internalNodes>
          <leafValues>
            2.3675782978534698e-01 -3.8117125630378723e-01</leafValues></_>
        <_>
          <internalNodes>
            0 -1 188 1.1663218960165977e-02</internalNodes>
          <leafValues>
            1.6018520295619965e-01 -7.5070512294769287e-01</leafValues></_>
        <_>
          <internalNodes>
            0 -1 18 3.4006283385679126e-04</internalNodes>
          <leafValues>
            -3.3229809999465942e-01 2.7601346373558044e-01</leafValues></_></weakClassifiers></_>
    <!-- stage 9 -->
    <_>
      <maxWeakCount>12</maxWeakCount>
      <stageThreshold>-1.3077704906463623e+00</stageThreshold>
      <weakClassifiers>
        <_>
          <internalNodes>
            0 -1 139 -9.3623891472816467e-02</internalNodes>
          <leafValues>
            3.7254902720451355e-01 -6.4346349239349365e-01</leafValues></_>
        <_>
          <internalNodes>
            0 -1 94 8.0819865688681602e-03</internalNodes>
          <leafValues>
            -2.1168537437915802e-01 7.3845821619033813e-01</leafValues></_>
        <_>
          <internalNodes>
            0 -1 133 -6.4022336155176163e-03</internalNodes>
          <leafValues>
            -9.0938347578048706e-01 1.4163376390933990e-01</leafValues></_>
        <_>
          <internalNodes>
            0 -1 79 -4.8818040639162064e-02</internalNodes>
          <leafValues>
            2.7681085467338562e-01 -4.0537536144256592e-01</leafValues></_>
        <_>
          <internalNodes>
            0 -1 210 3.9864513382781297e-05</internalNodes>
          <leafValues>
            -3.2042980194091797e-01 3.1828048825263977e-01</leafValues></_>
        <_>
          <internalNodes>
            0 -1 51 -1.0398266837000847e-02</internalNodes>
          <leafValues>
            4.7179272770881653e-01 -1.8503321707248688e-01</leafValues></_>
        <_>
          <internalNodes>
            0 -1 64 -3.6428170278668404e-03</internalNodes>
          <leafValues>
            6.9343441724777222e-01 -1.4014331996440887e-01</leafValues></_>
        <_>
          <internalNodes>
            0 -1 86 -7.9703763127326965e-02</internalNodes>
          <leafValues>
            -9.0223246812820435e-01 1.1870761960744858e-01</leafValues></_>
        <_>
          <internalNodes>
            0 -1 200 -2.4568387307226658e-03</internalNodes>
          <leafValues>
            6.7840254306793213e-01 -1.3598893582820892e-01</leafValues></_>
        <_>
          <internalNodes>
            0 -1 57 1.9452303647994995e-02</internalNodes>
          <leafValues>
            -2.2789014875888824e-01 4.0930786728858948e-01</leafValues></_>
        <_>
          <internalNodes>
            0 -1 161 -4.1228570044040680e-03</internalNodes>
          <leafValues>
            -9.2820167541503906e-01 1.1341737210750580e-01</leafValues></_>
        <_>
          <internalNodes>
            0 -1 164 1.5028314664959908e-03</internalNodes>
          <leafValues>
            7.9249620437622070e-02 -7.5053173303604126e-01</leafValues></_></weakClassifiers></_>
    <!-- stage 10 -->
    <_>
      <maxWeakCount>11</maxWeakCount>
      <stageThreshold>-1.4976272583007813e+00</stageThreshold>
      <weakClassifiers>
        <_>
          <internalNodes>
            0 -1 195 -6.4773842692375183e-02</internalNodes>
          <leafValues>
            3.1250000000000000e-01 -6.5972220897674561e-01</leafValues></_>
        <_>
          <internalNodes>
            0 -1 8 -1.4744511572644114e-03</internalNodes>
          <leafValues>
            -2.8865039348602295e-01 4.6096104383468628e-01</leafValues></_>
        <_>
          <internalNodes>
            0 -1 129 -4.4467462430475280e-05</internalNodes>
          <leafValues>
            2.6678660511970520e-01 -4.0085577964782715e-01</leafValues></_>
        <_>
          <internalNodes>
            0 -1 157 2.7917330153286457e-03</internalNodes>
          <leafValues>
            -2.3043851554393768e-01 4.0814107656478882e-01</leafValues></_>
        <_>
          <internalNodes>
            0 -1 156 -9.5708202570676804e-03</internalNodes>
          <leafValues>
            8.4105139970779419e-01 -9.2694573104381561e-02</leafValues></_>
        <_>
          <internalNodes>
            0 -1 115 1.8428163602948189e-03</internalNodes>
          <leafValues>
            1.7649643123149872e-01 -5.8230757713317871e-01</leafValues></_>
        <_>
          <internalNodes>
            0 -1 29 -2.8852382674813271e-03</internalNodes>
          <leafValues>
            4.6437937021255493e-01 -2.1658457815647125e-01</leafValues></_>
        <_>
          <internalNodes>
            0 -1 134 -1.6151671297848225e-03</internalNodes>
          <leafValues>
            -8.5223406553268433e-01 1.0732265561819077e-01</leafValues></_>
        <_>
          <internalNodes>
            0 -1 9 -6.1259612441062927e-02</internalNodes>
          <leafValues>
            -6.8291312456130981e-01 1.2442462891340256e-01</leafValues></_>
        <_>
          <internalNodes>
            0 -1 48 -8.4537081420421600e-03</internalNodes>
          <leafValues>
            7.3952209949493408e-01 -1.3814972341060638e-01</leafValues></_>
        <_>
          <internalNodes>
            0 -1 146 2.5769048370420933e-03</internalNodes>
          <leafValues>
            1.2122486531734467e-01 -8.1596952676773071e-01</leafValues></_></weakClassifiers></_>
    <!-- stage 11 -->
    <_>
      <maxWeakCount>9</maxWeakCount>
      <stageThreshold>-1.4938393831253052e+00</stageThreshold>
      <weakClassifiers>
        <_>
          <internalNodes>
            0 -1 167 4.0544760413467884e-03</internalNodes>
          <leafValues>
            -7.0967739820480347e-01 -5.5555555969476700e-02</leafValues></_>
        <_>
          <internalNodes>
            0 -1 128 -8.9734373614192009e-04</internalNodes>
          <leafValues>
            3.9209613204002380e-01 -3.0619299411773682e-01</leafValues></_>
        <_>
          <internalNodes>
            0 -1 77 -4.9976568669080734e-02</internalNodes>
          <leafValues>
            -3.3543393015861511e-01 3.0333477258682251e-01</leafValues></_>
        <_>
          <internalNodes>
            0 -1 165 1.5364820137619972e-03</internalNodes>
          <leafValues>
            -2.4390873312950134e-01 4.6844246983528137e-01</leafValues></_>
        <_>
          <internalNodes>
            0 -1 151 -7.4445255449973047e-05</internalNodes>
          <leafValues>
            2.9522639513015747e-01 -3.9564305543899536e-01</leafValues></_>
        <_>
          <internalNodes>
            0 -1 154 -1.4749942347407341e-03</internalNodes>
          <leafValues>
            5.4960453510284424e-01 -1.7855283617973328e-01</leafValues></_>
        <_>
          <internalNodes>
            0 -1 191 1.2723144143819809e-02</internalNodes>
          <leafValues>
            -9.8769143223762512e-02 6.5982168912887573e-01</leafValues></_>
        <_>
          <internalNodes>
            0 -1 217 -8.3597861230373383e-03</internalNodes>
          <leafValues>
            -5.0807088613510132e-01 1.8908406794071198e-01</leafValues></_>
        <_>
          <internalNodes>
            0 -1 187 2.4017699062824249e-02</internalNodes>
          <leafValues>
            -1.3661722838878632e-01 8.0130547285079956e-01</leafValues></_></weakClassifiers></_>
    <!-- stage 12 -->
    <_>
      <maxWeakCount>11</maxWeakCount>
      <stageThreshold>-1.3066658973693848e+00</stageThreshold>
      <weakClassifiers>
        <_>
          <internalNodes>
            0 -1 179 -4.6423271298408508e-02</internalNodes>
          <leafValues>
            -7.4829928576946259e-02 -7.0791077613830566e-01</leafValues></_>
        <_>
          <internalNodes>
            0 -1 144 1.0560222435742617e-03</internalNodes>
          <leafValues>
            3.1571641564369202e-02 -6.8021750450134277e-01</leafValues></_>
        <_>
          <internalNodes>
            0 -1 88 -2.2295516729354858e-01</internalNodes>
          <leafValues>
            -8.6815339326858521e-01 6.5123230218887329e-02</leafValues></_>
        <_>
          <internalNodes>
            0 -1 36 2.1885927766561508e-02</internalNodes>
          <leafValues>
            -2.6676520705223083e-01 3.7870743870735168e-01</leafValues></_>
        <_>
          <internalNodes>
            0 -1 113 4.1179941035807133e-03</internalNodes>
          <leafValues>
            1.0462349653244019e-01 -7.5816607475280762e-01</leafValues></_>
        <_>
          <internalNodes>
            0 -1 111 -2.6975770015269518e-04</internalNodes>
          <leafValues>
            2.0485749840736389e-01 -4.2732843756675720e-01</leafValues></_>
        <_>
          <internalNodes>
            0 -1 63 -8.5893749201204628e-05</internalNodes>
          <leafValues>
            3.7957412004470825e-01 -2.4832382798194885e-01</leafValues></_>
        <_>
          <internalNodes>
            0 -1 215 -1.3275818899273872e-02</internalNodes>
          <leafValues>
            -6.0268962383270264e-01 1.5903122723102570e-01</leafValues></_>
        <_>
          <internalNodes>
            0 -1 196 -2.4832957424223423e-03</internalNodes>
          <leafValues>
            4.2484360933303833e-01 -2.2344698011875153e-01</leafValues></_>
        <_>
          <internalNodes>
            0 -1 190 4.5166593044996262e-03</internalNodes>
          <leafValues>
            -1.8766231834888458e-01 5.0803214311599731e-01</leafValues></_>
        <_>
          <internalNodes>
            0 -1 62 -7.8747197985649109e-02</internalNodes>
          <leafValues>
            9.2983320355415344e-02 -9.8386681079864502e-01</leafValues></_></weakClassifiers></_>
    <!-- stage 13 -->
    <_>
      <maxWeakCount>12</maxWeakCount>
      <stageThreshold>-1.2134054899215698e+00</stageThreshold>
      <weakClassifiers>
        <_>
          <internalNodes>
            0 -1 43 2.2668741643428802e-02</internalNodes>
          <leafValues>
            -6.1576354503631592e-01 4.8387095332145691e-01</leafValues></_>
        <_>
          <internalNodes>
            0 -1 37 1.7258625011891127e-03</internalNodes>
          <leafValues>
            -3.2971760630607605e-01 2.3809631168842316e-01</leafValues></_>
        <_>
          <internalNodes>
            0 -1 203 1.2653899611905217e-03</internalNodes>
          <leafValues>
            -1.9571845233440399e-01 4.3755847215652466e-01</leafValues></_>
        <_>
          <internalNodes>
            0 -1 135 7.3062686715275049e-04</internalNodes>
          <leafValues>
            1.0196452587842941e-01 -8.5322141647338867e-01</leafValues></_>
        <_>
          <internalNodes>
            0 -1 96 -8.2390420138835907e-03</internalNodes>
          <leafValues>
            6.4484447240829468e-01 -1.2383997440338135e-01</leafValues></_>
        <_>
          <internalNodes>
            0 -1 180 -3.3257507311645895e-05</internalNodes>
          <leafValues>
            2.4470248818397522e-01 -3.6815208196640015e-01</leafValues></_>
        <_>
          <internalNodes>
            0 -1 44 -3.3696354366838932e-03</internalNodes>
          <leafValues>
            7.7410054206848145e-01 -1.0629657655954361e-01</leafValues></_>
        <_>
          <internalNodes>
            0 -1 206 -6.8200367968529463e-04</internalNodes>
          <leafValues>
            4.1335108876228333e-01 -1.8275119364261627e-01</leafValues></_>
        <_>
          <internalNodes>
            0 -1 49 8.5605494678020477e-03</internalNodes>
          <leafValues>
            1.2723988294601440e-01 -8.9962458610534668e-01</leafValues></_>
        <_>
          <internalNodes>
            0 -1 149 -1.2620477005839348e-02</internalNodes>
          <leafValues>
            3.5538041591644287e-01 -2.5789910554885864e-01</leafValues></_>
        <_>
          <internalNodes>
            0 -1 7 -2.4301089346408844e-02</internalNodes>
          <leafValues>
            -6.1705291271209717e-01 1.7506328225135803e-01</leafValues></_>
        <_>
          <internalNodes>
            0 -1 110 -6.6017820499837399e-03</internalNodes>
          <leafValues>
            -6.0145080089569092e-01 1.0507926344871521e-01</leafValues></_></weakClassifiers></_>
    <!-- stage 14 -->
    <_>
      <maxWeakCount>11</maxWeakCount>
      <stageThreshold>-1.1810054779052734e+00</stageThreshold>
      <weakClassifiers>
        <_>
          <internalNodes>
            0 -1 136 -1.7523806542158127e-02</internalNodes>
          <leafValues>
            4.2857143282890320e-01 -6.1983472108840942e-01</leafValues></_>
        <_>
          <internalNodes>
            0 -1 202 7.4098363984376192e-04</internalNodes>
          <leafValues>
            -3.0010873079299927e-01 3.1672394275665283e-01</leafValues></_>
        <_>
          <internalNodes>
            0 -1 99 -4.3292995542287827e-05</internalNodes>
          <leafValues>
            3.9823222160339355e-01 -2.3802781105041504e-01</leafValues></_>
        <_>
          <internalNodes>
            0 -1 13 5.0865039229393005e-02</internalNodes>
          <leafValues>
            -2.3154310882091522e-01 3.7075740098953247e-01</leafValues></_>
        <_>
          <internalNodes>
            0 -1 126 4.3807391193695366e-05</internalNodes>
          <leafValues>
            -2.2322583198547363e-01 3.7660288810729980e-01</leafValues></_>
        <_>
          <internalNodes>
            0 -1 118 -5.1207020878791809e-03</internalNodes>
          <leafValues>
            -7.2994387149810791e-01 1.0831642150878906e-01</leafValues></_>
        <_>
          <internalNodes>
            0 -1 109 3.4086953382939100e-04</internalNodes>
          <leafValues>
            2.3119024932384491e-01 -4.0911838412284851e-01</leafValues></_>
        <_>
          <internalNodes>
            0 -1 72 8.0394552787765861e-04</internalNodes>
          <leafValues>
            -3.0245387554168701e-01 3.0464088916778564e-01</leafValues></_>
        <_>
          <internalNodes>
            0 -1 35 -5.4790703579783440e-03</internalNodes>
          <leafValues>
            5.2627605199813843e-01 -1.6399876773357391e-01</leafValues></_>
        <_>
          <internalNodes>
            0 -1 84 3.7986723327776417e-05</internalNodes>
          <leafValues>
            -3.0543532967567444e-01 2.6475819945335388e-01</leafValues></_>
        <_>
          <internalNodes>
            0 -1 2 6.6224224865436554e-03</internalNodes>
          <leafValues>
            -1.9002769887447357e-01 4.1342985630035400e-01</leafValues></_></weakClassifiers></_>
    <!-- stage 15 -->
    <_>
      <maxWeakCount>15</maxWeakCount>
      <stageThreshold>-1.4743458032608032e+00</stageThreshold>
      <weakClassifiers>
        <_>
          <internalNodes>
            0 -1 43 2.2833777591586113e-02</internalNodes>
          <leafValues>
            -6.1576354503631592e-01 4.8387095332145691e-01</leafValues></_>
        <_>
          <internalNodes>
            0 -1 218 -1.9561542198061943e-02</internalNodes>
          <leafValues>
            -7.8603148460388184e-01 4.7236800193786621e-02</leafValues></_>
        <_>
          <internalNodes>
            0 -1 121 -8.7174783402588218e-05</internalNodes>
          <leafValues>
            2.3106487095355988e-01 -3.5552558302879333e-01</leafValues></_>
        <_>
          <internalNodes>
            0 -1 178 1.1546097695827484e-02</internalNodes>
          <leafValues>
            -2.0063935220241547e-01 4.1113084554672241e-01</leafValues></_>
        <_>
          <internalNodes>
            0 -1 163 1.2017434462904930e-02</internalNodes>
          <leafValues>
            -1.7111788690090179e-01 4.2185619473457336e-01</leafValues></_>
        <_>
          <internalNodes>
            0 -1 46 5.1212757825851440e-03</internalNodes>
          <leafValues>
            -2.0816139876842499e-01 3.5821986198425293e-01</leafValues></_>
        <_>
          <internalNodes>
            0 -1 132 -5.6988123105838895e-04</internalNodes>
          <leafValues>
            2.2075493633747101e-01 -3.7986931204795837e-01</leafValues></_>
        <_>
          <internalNodes>
            0 -1 103 1.4784440398216248e-02</internalNodes>
          <leafValues>
            1.1332979798316956e-01 -6.2270414829254150e-01</leafValues></_>
        <_>
          <internalNodes>
            0 -1 10 2.6875481009483337e-02</internalNodes>
          <leafValues>
            -1.3677965104579926e-01 5.4709535837173462e-01</leafValues></_>
        <_>
          <internalNodes>
            0 -1 89 7.2835078753996640e-05</internalNodes>
          <leafValues>
            -2.7259349822998047e-01 2.8321516513824463e-01</leafValues></_>
        <_>
          <internalNodes>
            0 -1 3 -1.4559986069798470e-02</internalNodes>
          <leafValues>
            8.3036355674266815e-02 -8.8829720020294189e-01</leafValues></_>
        <_>
          <internalNodes>
            0 -1 66 -3.8818267639726400e-03</internalNodes>
          <leafValues>
            5.3356122970581055e-01 -1.4813826978206635e-01</leafValues></_>
        <_>
          <internalNodes>
            0 -1 172 -2.0915446802973747e-03</internalNodes>
          <leafValues>
            5.6425714492797852e-01 -1.2094099074602127e-01</leafValues></_>
        <_>
          <internalNodes>
            0 -1 120 2.1986369974911213e-03</internalNodes>
          <leafValues>
            1.0725466907024384e-01 -7.6143270730972290e-01</leafValues></_>
        <_>
          <internalNodes>
            0 -1 150 -1.2811549007892609e-01</internalNodes>
          <leafValues>
            -2.7862489223480225e-01 2.8417992591857910e-01</leafValues></_></weakClassifiers></_>
    <!-- stage 16 -->
    <_>
      <maxWeakCount>10</maxWeakCount>
      <stageThreshold>-1.0568280220031738e+00</stageThreshold>
      <weakClassifiers>
        <_>
          <internalNodes>
            0 -1 67 9.1932401061058044e-02</internalNodes>
          <leafValues>
            -6.8093383312225342e-01 -7.9365082085132599e-02</leafValues></_>
        <_>
          <internalNodes>
            0 -1 71 -3.0044439435005188e-01</internalNodes>
          <leafValues>
            -8.2133090496063232e-01 -4.9382746219635010e-03</leafValues></_>
        <_>
          <internalNodes>
            0 -1 193 3.9186775684356689e-02</internalNodes>
          <leafValues>
            -1.9328597187995911e-01 4.2511218786239624e-01</leafValues></_>
        <_>
          <internalNodes>
            0 -1 33 -1.2914161197841167e-03</internalNodes>
          <leafValues>
            2.4867163598537445e-01 -3.2582217454910278e-01</leafValues></_>
        <_>
          <internalNodes>
            0 -1 31 2.2422492504119873e-02</internalNodes>
          <leafValues>
            -1.4703391492366791e-01 6.3944798707962036e-01</leafValues></_>
        <_>
          <internalNodes>
            0 -1 98 -1.8043767660856247e-02</internalNodes>
          <leafValues>
            2.1864157915115356e-01 -4.4469338655471802e-01</leafValues></_>
        <_>
          <internalNodes>
            0 -1 168 -9.8134353756904602e-03</internalNodes>
          <leafValues>
            5.3711849451065063e-01 -1.9167007505893707e-01</leafValues></_>
        <_>
          <internalNodes>
            0 -1 212 -1.2620377819985151e-03</internalNodes>
          <leafValues>
            3.7315672636032104e-01 -2.2939059138298035e-01</leafValues></_>
        <_>
          <internalNodes>
            0 -1 181 6.5840393304824829e-02</internalNodes>
          <leafValues>
            -1.1898823827505112e-01 6.3287496566772461e-01</leafValues></_>
        <_>
          <internalNodes>
            0 -1 127 1.1623480822890997e-03</internalNodes>
          <leafValues>
            1.0386588424444199e-01 -8.7504881620407104e-01</leafValues></_></weakClassifiers></_>
    <!-- stage 17 -->
    <_>
      <maxWeakCount>15</maxWeakCount>
      <stageThreshold>-1.2666990756988525e+00</stageThreshold>
      <weakClassifiers>
        <_>
          <internalNodes>
            0 -1 186 2.1120405290275812e-03</internalNodes>
          <leafValues>
            -7.0305675268173218e-01 -2.0879121124744415e-01</leafValues></_>
        <_>
          <internalNodes>
            0 -1 47 1.4484660699963570e-02</internalNodes>
          <leafValues>
            -1.3088356936350465e-03 -7.8261792659759521e-01</leafValues></_>
        <_>
          <internalNodes>
            0 -1 125 -1.6624450683593750e-01</internalNodes>
          <leafValues>
            2.3834170401096344e-01 -2.7945142984390259e-01</leafValues></_>
        <_>
          <internalNodes>
            0 -1 102 -2.3777663707733154e-01</internalNodes>
          <leafValues>
            -8.6175233125686646e-01 6.6798731684684753e-02</leafValues></_>
        <_>
          <internalNodes>
            0 -1 200 2.0015886984765530e-03</internalNodes>
          <leafValues>
            -1.3576532900333405e-01 4.8820134997367859e-01</leafValues></_>
        <_>
          <internalNodes>
            0 -1 197 8.2074599340558052e-03</internalNodes>
          <leafValues>
            -1.0320768505334854e-01 7.2254890203475952e-01</leafValues></_>
        <_>
          <internalNodes>
            0 -1 58 -1.7677909927442670e-03</internalNodes>
          <leafValues>
            2.6316517591476440e-01 -2.6447051763534546e-01</leafValues></_>
        <_>
          <internalNodes>
            0 -1 117 1.4104363508522511e-03</internalNodes>
          <leafValues>
            1.0484254360198975e-01 -7.6556694507598877e-01</leafValues></_>
        <_>
          <internalNodes>
            0 -1 17 3.8251806981861591e-03</internalNodes>
          <leafValues>
            -1.5576693415641785e-01 5.3457087278366089e-01</leafValues></_>
        <_>
          <internalNodes>
            0 -1 143 -3.8781890907557681e-05</internalNodes>
          <leafValues>
            1.9758722186088562e-01 -3.5471254587173462e-01</leafValues></_>
        <_>
          <internalNodes>
            0 -1 81 -3.0300613492727280e-02</internalNodes>
          <leafValues>
            -6.2970298528671265e-01 1.3857947289943695e-01</leafValues></_>
        <_>
          <internalNodes>
            0 -1 169 -3.0428194440901279e-03</internalNodes>
          <leafValues>
            2.3445643484592438e-01 -3.4074133634567261e-01</leafValues></_>
        <_>
          <internalNodes>
            0 -1 27 1.1650189757347107e-02</internalNodes>
          <leafValues>
            -2.0308750867843628e-01 4.0454080700874329e-01</leafValues></_>
        <_>
          <internalNodes>
            0 -1 25 -7.1308230981230736e-03</internalNodes>
          <leafValues>
            4.2927035689353943e-01 -2.3855249583721161e-01</leafValues></_>
        <_>
          <internalNodes>
            0 -1 83 3.6718777846544981e-03</internalNodes>
          <leafValues>
            -2.3018340766429901e-01 3.2973974943161011e-01</leafValues></_></weakClassifiers></_>
    <!-- stage 18 -->
    <_>
      <maxWeakCount>14</maxWeakCount>
      <stageThreshold>-1.2200362682342529e+00</stageThreshold>
      <weakClassifiers>
        <_>
          <internalNodes>
            0 -1 40 1.6254391521215439e-02</internalNodes>
          <leafValues>
            -6.3444638252258301e-01 1.4084506779909134e-02</leafValues></_>
        <_>
          <internalNodes>
            0 -1 199 2.2748247720301151e-03</internalNodes>
          <leafValues>
            -2.7396166324615479e-01 2.8012520074844360e-01</leafValues></_>
        <_>
          <internalNodes>
            0 -1 216 -6.9864559918642044e-03</internalNodes>
          <leafValues>
            -4.0651223063468933e-01 1.7484511435031891e-01</leafValues></_>
        <_>
          <internalNodes>
            0 -1 198 -2.7652075514197350e-03</internalNodes>
          <leafValues>
            3.3942553400993347e-01 -2.0788669586181641e-01</leafValues></_>
        <_>
          <internalNodes>
            0 -1 184 -3.7340010749176145e-05</internalNodes>
          <leafValues>
            3.5646164417266846e-01 -2.1696469187736511e-01</leafValues></_>
        <_>
          <internalNodes>
            0 -1 205 2.0020222291350365e-03</internalNodes>
          <leafValues>
            -1.3805016875267029e-01 5.1700967550277710e-01</leafValues></_>
        <_>
          <internalNodes>
            0 -1 213 -1.0536583140492439e-03</internalNodes>
          <leafValues>
            -8.3671051263809204e-01 8.6420625448226929e-02</leafValues></_>
        <_>
          <internalNodes>
            0 -1 42 2.5823770556598902e-03</internalNodes>
          <leafValues>
            -1.4234176278114319e-01 5.0019127130508423e-01</leafValues></_>
        <_>
          <internalNodes>
            0 -1 114 -5.7842757087200880e-04</internalNodes>
          <leafValues>
            -5.2274948358535767e-01 1.4708155393600464e-01</leafValues></_>
        <_>
          <internalNodes>
            0 -1 93 -8.6762774735689163e-03</internalNodes>
          <leafValues>
            -6.8271708488464355e-01 8.8316559791564941e-02</leafValues></_>
        <_>
          <internalNodes>
            0 -1 116 7.9021287092473358e-05</internalNodes>
          <leafValues>
            1.8782591819763184e-01 -3.7838676571846008e-01</leafValues></_>
        <_>
          <internalNodes>
            0 -1 76 -1.4795505441725254e-02</internalNodes>
          <leafValues>
            2.5791266560554504e-01 -2.8211510181427002e-01</leafValues></_>
        <_>
          <internalNodes>
            0 -1 0 8.1262522144243121e-05</internalNodes>
          <leafValues>
            -1.9149100780487061e-01 3.9213895797729492e-01</leafValues></_>
        <_>
          <internalNodes>
            0 -1 90 -4.4999865349382162e-04</internalNodes>
          <leafValues>
            2.6961675286293030e-01 -2.6817610859870911e-01</leafValues></_></weakClassifiers></_>
    <!-- stage 19 -->
    <_>
      <maxWeakCount>10</maxWeakCount>
      <stageThreshold>-1.1635345220565796e+00</stageThreshold>
      <weakClassifiers>
        <_>
          <internalNodes>
            0 -1 6 -1.8507264554500580e-02</internalNodes>
          <leafValues>
            6.1538463830947876e-01 -6.1237782239913940e-01</leafValues></_>
        <_>
          <internalNodes>
            0 -1 80 -4.8474054783582687e-03</internalNodes>
          <leafValues>
            -9.5220148563385010e-01 3.6823265254497528e-02</leafValues></_>
        <_>
          <internalNodes>
            0 -1 70 -6.8369903601706028e-03</internalNodes>
          <leafValues>
            1.9764174520969391e-01 -4.3430897593498230e-01</leafValues></_>
        <_>
          <internalNodes>
            0 -1 214 -1.9193878397345543e-03</internalNodes>
          <leafValues>
            -4.7811403870582581e-01 2.4068172276020050e-01</leafValues></_>
        <_>
          <internalNodes>
            0 -1 104 7.6774157583713531e-02</internalNodes>
          <leafValues>
            -1.9515363872051239e-01 4.8207858204841614e-01</leafValues></_>
        <_>
          <internalNodes>
            0 -1 106 -2.1271163132041693e-04</internalNodes>
          <leafValues>
            -2.9867675900459290e-01 3.0767798423767090e-01</leafValues></_>
        <_>
          <internalNodes>
            0 -1 155 1.7511101032141596e-04</internalNodes>
          <leafValues>
            1.4793358743190765e-01 -5.9811037778854370e-01</leafValues></_>
        <_>
          <internalNodes>
            0 -1 119 -3.2475573243573308e-04</internalNodes>
          <leafValues>
            -4.6560657024383545e-01 2.0899625122547150e-01</leafValues></_>
        <_>
          <internalNodes>
            0 -1 19 -1.5979044139385223e-02</internalNodes>
          <leafValues>
            3.6464506387710571e-01 -2.0449310541152954e-01</leafValues></_>
        <_>
          <internalNodes>
            0 -1 30 -8.8386321440339088e-03</internalNodes>
          <leafValues>
            2.2294759750366211e-01 -4.3975582718849182e-01</leafValues></_></weakClassifiers></_>
    <!-- stage 20 -->
    <_>
      <maxWeakCount>15</maxWeakCount>
      <stageThreshold>-1.2893073558807373e+00</stageThreshold>
      <weakClassifiers>
        <_>
          <internalNodes>
            0 -1 92 -1.1441105976700783e-02</internalNodes>
          <leafValues>
            6.1538463830947876e-01 -6.1237782239913940e-01</leafValues></_>
        <_>
          <internalNodes>
            0 -1 211 9.3402387574315071e-03</internalNodes>
          <leafValues>
            -2.1157135069370270e-01 7.7343964576721191e-01</leafValues></_>
        <_>
          <internalNodes>
            0 -1 152 -6.8078815937042236e-02</internalNodes>
          <leafValues>
            -6.0827082395553589e-01 1.8590711057186127e-01</leafValues></_>
        <_>
          <internalNodes>
            0 -1 107 8.5669726831838489e-04</internalNodes>
          <leafValues>
            -2.2622749209403992e-01 3.1301522254943848e-01</leafValues></_>
        <_>
          <internalNodes>
            0 -1 160 6.7867532372474670e-02</internalNodes>
          <leafValues>
            1.5627017617225647e-01 -6.3119745254516602e-01</leafValues></_>
        <_>
          <internalNodes>
            0 -1 185 1.0424381121993065e-02</internalNodes>
          <leafValues>
            -1.4669406414031982e-01 8.4630411863327026e-01</leafValues></_>
        <_>
          <internalNodes>
            0 -1 68 8.1377392634749413e-03</internalNodes>
          <leafValues>
            1.6824403405189514e-01 -6.5440875291824341e-01</leafValues></_>
        <_>
          <internalNodes>
            0 -1 45 1.0122174397110939e-02</internalNodes>
          <leafValues>
            -1.6733233630657196e-01 5.7524126768112183e-01</leafValues></_>
        <_>
          <internalNodes>
            0 -1 21 -2.3029238218441606e-04</internalNodes>
          <leafValues>
            3.1720480322837830e-01 -3.1502959132194519e-01</leafValues></_>
        <_>
          <internalNodes>
            0 -1 174 -2.6926235295832157e-03</internalNodes>
          <leafValues>
            5.1588505506515503e-01 -1.3151070475578308e-01</leafValues></_>
        <_>
          <internalNodes>
            0 -1 158 -1.9500274211168289e-03</internalNodes>
          <leafValues>
            4.7952187061309814e-01 -1.4374409615993500e-01</leafValues></_>
        <_>
          <internalNodes>
            0 -1 97 -6.2325466424226761e-03</internalNodes>
          <leafValues>
            -1.1454685777425766e-01 6.8303346633911133e-01</leafValues></_>
        <_>
          <internalNodes>
            0 -1 69 -5.3717195987701416e-02</internalNodes>
          <leafValues>
            2.6002553105354309e-01 -3.0651712417602539e-01</leafValues></_>
        <_>
          <internalNodes>
            0 -1 95 -2.1233905572444201e-03</internalNodes>
          <leafValues>
            3.7433448433876038e-01 -2.1280923485755920e-01</leafValues></_>
        <_>
          <internalNodes>
            0 -1 183 -5.8922126889228821e-02</internalNodes>
          <leafValues>
            3.0213403701782227e-01 -2.8615009784698486e-01</leafValues></_></weakClassifiers></_>
    <!-- stage 21 -->
    <_>
      <maxWeakCount>17</maxWeakCount>
      <stageThreshold>-1.1712673902511597e+00</stageThreshold>
      <weakClassifiers>
        <_>
          <internalNodes>
            0 -1 74 -3.5724926274269819e-03</internalNodes>
          <leafValues>
            4.2857143282890320e-01 -6.0784316062927246e-01</leafValues></_>
        <_>
          <internalNodes>
            0 -1 130 -9.2633724212646484e-02</internalNodes>
          <leafValues>
            -5.6139194965362549e-01 7.6717205345630646e-02</leafValues></_>
        <_>
          <internalNodes>
            0 -1 59 -7.5407713651657104e-02</internalNodes>
          <leafValues>
            3.6912113428115845e-01 -2.0471318066120148e-01</leafValues></_>
        <_>
          <internalNodes>
            0 -1 41 1.1853022873401642e-01</internalNodes>
          <leafValues>
            -2.1444047987461090e-01 3.8167840242385864e-01</leafValues></_>
        <_>
          <internalNodes>
            0 -1 56 -1.1955080553889275e-03</internalNodes>
          <leafValues>
            6.8137460947036743e-01 -7.7300608158111572e-02</leafValues></_>
        <_>
          <internalNodes>
            0 -1 175 3.5832682624459267e-03</internalNodes>
          <leafValues>
            -1.1576773226261139e-01 5.7504481077194214e-01</leafValues></_>
        <_>
          <internalNodes>
            0 -1 75 6.8466346710920334e-03</internalNodes>
          <leafValues>
            -1.0873799026012421e-01 5.7556593418121338e-01</leafValues></_>
        <_>
          <internalNodes>
            0 -1 61 2.2005886421538889e-05</internalNodes>
          <leafValues>
            -3.0095392465591431e-01 2.6227793097496033e-01</leafValues></_>
        <_>
          <internalNodes>
            0 -1 16 -1.4701988548040390e-02</internalNodes>
          <leafValues>
            -6.3715821504592896e-01 1.1707016825675964e-01</leafValues></_>
        <_>
          <internalNodes>
            0 -1 147 6.5977359190583229e-04</internalNodes>
          <leafValues>
            -2.6798194646835327e-01 3.7642291188240051e-01</leafValues></_>
        <_>
          <internalNodes>
            0 -1 105 -1.7269400414079428e-03</internalNodes>
          <leafValues>
            -6.7423176765441895e-01 9.1362625360488892e-02</leafValues></_>
        <_>
          <internalNodes>
            0 -1 124 -3.8033882447052747e-05</internalNodes>
          <leafValues>
            3.5254836082458496e-01 -2.4542430043220520e-01</leafValues></_>
        <_>
          <internalNodes>
            0 -1 219 -2.5696463882923126e-02</internalNodes>
          <leafValues>
            -4.6171870827674866e-01 1.7798244953155518e-01</leafValues></_>
        <_>
          <internalNodes>
            0 -1 166 3.1657438375987113e-04</internalNodes>
          <leafValues>
            -2.0951409637928009e-01 4.0664038062095642e-01</leafValues></_>
        <_>
          <internalNodes>
            0 -1 204 -6.8885456130374223e-05</internalNodes>
          <leafValues>
            3.3437252044677734e-01 -2.3074056208133698e-01</leafValues></_>
        <_>
          <internalNodes>
            0 -1 73 6.3631972298026085e-03</internalNodes>
          <leafValues>
            1.1720795184373856e-01 -6.6398125886917114e-01</leafValues></_>
        <_>
          <internalNodes>
            0 -1 53 -2.6038950309157372e-03</internalNodes>
          <leafValues>
            3.9626896381378174e-01 -2.1777777373790741e-01</leafValues></_></weakClassifiers></_></stages>
  <features>
    <_>
      <rects>
        <_>
          0 0 1 2 -1.</_>
        <_>
          0 1 1 1 2.</_></rects>
      <tilted>0</tilted></_>
    <_>
      <rects>
        <_>
          0 0 2 9 -1.</_>
        <_>
          1 0 1 9 2.</_></rects>
      <tilted>0</tilted></_>
    <_>
      <rects>
        <_>
          0 0 2 10 -1.</_>
        <_>
          1 0 1 10 2.</_></rects>
      <tilted>0</tilted></_>
    <_>
      <rects>
        <_>
          0 0 4 9 -1.</_>
        <_>
          0 3 4 3 2.</_></rects>
      <tilted>0</tilted></_>
    <_>
      <rects>
        <_>
          0 0 12 4 -1.</_>
        <_>
          0 0 6 2 2.</_>
        <_>
          6 2 6 2 2.</_></rects>
      <tilted>0</tilted></_>
    <_>
      <rects>
        <_>
          0 0 12 5 -1.</_>
        <_>
          6 0 6 5 2.</_></rects>
      <tilted>0</tilted></_>
    <_>
      <rects>
        <_>
          0 0 7 2 -1.</_>
        <_>
          0 1 7 1 2.</_></rects>
      <tilted>0</tilted></_>
    <_>
      <rects>
        <_>
          0 0 20 1 -1.</_>
        <_>
          10 0 10 1 2.</_></rects>
      <tilted>0</tilted></_>
    <_>
      <rects>
        <_>
          0 1 1 3 -1.</_>
        <_>
          0 2 1 1 2.</_></rects>
      <tilted>0</tilted></_>
    <_>
      <rects>
        <_>
          0 1 6 3 -1.</_>
        <_>
          2 1 2 3 2.</_></rects>
      <tilted>0</tilted></_>
    <_>
      <rects>
        <_>
          0 1 6 18 -1.</_>
        <_>
          0 1 3 9 2.</_>
        <_>
          3 10 3 9 2.</_></rects>
      <tilted>0</tilted></_>
    <_>
      <rects>
        <_>
          0 2 6 4 -1.</_>
        <_>
          3 2 3 4 2.</_></rects>
      <tilted>0</tilted></_>
    <_>
      <rects>
        <_>
          0 2 8 3 -1.</_>
        <_>
          4 2 4 3 2.</_></rects>
      <tilted>0</tilted></_>
    <_>
      <rects>
        <_>
          0 3 8 7 -1.</_>
        <_>
          4 3 4 7 2.</_></rects>
      <tilted>0</tilted></_>
    <_>
      <rects>
        <_>
          0 3 8 16 -1.</_>
        <_>
          4 3 4 16 2.</_></rects>
      <tilted>0</tilted></_>
    <_>
      <rects>
        <_>
          0 3 10 4 -1.</_>
        <_>
          0 3 5 2 2.</_>
        <_>
          5 5 5 2 2.</_></rects>
      <tilted>0</tilted></_>
    <_>
      <rects>
        <_>
          0 4 1 16 -1.</_>
        <_>
          0 12 1 8 2.</_></rects>
      <tilted>0</tilted></_>
    <_>
      <rects>
        <_>
          0 5 2 8 -1.</_>
        <_>
          0 5 1 4 2.</_>
        <_>
          1 9 1 4 2.</_></rects>
      <tilted>0</tilted></_>
    <_>
      <rects>
        <_>
          0 5 4 8 -1.</_>
        <_>
          0 5 2 4 2.</_>
        <_>
          2 9 2 4 2.</_></rects>
      <tilted>0</tilted></_>
    <_>
      <rects>
        <_>
          0 5 4 14 -1.</_>
        <_>
          0 5 2 7 2.</_>
        <_>
          2 12 2 7 2.</_></rects>
      <tilted>0</tilted></_>
    <_>
      <rects>
        <_>
          0 6 14 12 -1.</_>
        <_>
          7 6 7 12 2.</_></rects>
      <tilted>0</tilted></_>
    <_>
      <rects>
        <_>
          0 7 6 2 -1.</_>
        <_>
          0 7 3 1 2.</_>
        <_>
          3 8 3 1 2.</_></rects>
      <tilted>0</tilted></_>
    <_>
      <rects>
        <_>
          0 8 2 2 -1.</_>
        <_>
          1 8 1 2 2.</_></rects>
      <tilted>0</tilted></_>
    <_>
      <rects>
        <_>
          0 10 2 1 -1.</_>
        <_>
          1 10 1 1 2.</_></rects>
      <tilted>0</tilted></_>
    <_>
      <rects>
        <_>
          0 10 4 8 -1.</_>
        <_>
          0 10 2 4 2.</_>
        <_>
          2 14 2 4 2.</_></rects>
      <tilted>0</tilted></_>
    <_>
      <rects>
        <_>
          0 10 6 6 -1.</_>
        <_>
          3 10 3 6 2.</_></rects>
      <tilted>0</tilted></_>
    <_>
      <rects>
        <_>
          0 11 4 4 -1.</_>
        <_>
          2 11 2 4 2.</_></rects>
      <tilted>0</tilted></_>
    <_>
      <rects>
        <_>
          0 11 6 4 -1.</_>
        <_>
          3 11 3 4 2.</_></rects>
      <tilted>0</tilted></_>
    <_>
      <rects>
        <_>
          0 11 19 9 -1.</_>
        <_>
          0 14 19 3 2.</_></rects>
      <tilted>0</tilted></_>
    <_>
      <rects>
        <_>
          0 13 4 4 -1.</_>
        <_>
          0 13 2 2 2.</_>
        <_>
          2 15 2 2 2.</_></rects>
      <tilted>0</tilted></_>
    <_>
      <rects>
        <_>
          0 14 1 6 -1.</_>
        <_>
          0 16 1 2 2.</_></rects>
      <tilted>0</tilted></_>
    <_>
      <rects>
        <_>
          0 15 8 3 -1.</_>
        <_>
          4 15 4 3 2.</_></rects>
      <tilted>0</tilted></_>
    <_>
      <rects>
        <_>
          0 17 6 2 -1.</_>
        <_>
          3 17 3 2 2.</_></rects>
      <tilted>0</tilted></_>
    <_>
      <rects>
        <_>
          0 17 6 3 -1.</_>
        <_>
          3 17 3 3 2.</_></rects>
      <tilted>0</tilted></_>
    <_>
      <rects>
        <_>
          0 18 6 1 -1.</_>
        <_>
          3 18 3 1 2.</_></rects>
      <tilted>0</tilted></_>
    <_>
      <rects>
        <_>
          0 18 19 2 -1.</_>
        <_>
          0 19 19 1 2.</_></rects>
      <tilted>0</tilted></_>
    <_>
      <rects>
        <_>
          1 0 4 16 -1.</_>
        <_>
          3 0 2 16 2.</_></rects>
      <tilted>0</tilted></_>
    <_>
      <rects>
        <_>
          1 0 6 2 -1.</_>
        <_>
          1 1 6 1 2.</_></rects>
      <tilted>0</tilted></_>
    <_>
      <rects>
        <_>
          1 0 18 3 -1.</_>
        <_>
          7 0 6 3 2.</_></rects>
      <tilted>0</tilted></_>
    <_>
      <rects>
        <_>
          1 1 10 6 -1.</_>
        <_>
          1 1 5 3 2.</_>
        <_>
          6 4 5 3 2.</_></rects>
      <tilted>0</tilted></_>
    <_>
      <rects>
        <_>
          1 1 18 2 -1.</_>
        <_>
          7 1 6 2 2.</_></rects>
      <tilted>0</tilted></_>
    <_>
      <rects>
        <_>
          1 1 14 5 -1.</_>
        <_>
          8 1 7 5 2.</_></rects>
      <tilted>0</tilted></_>
    <_>
      <rects>
        <_>
          1 2 4 2 -1.</_>
        <_>
          1 2 2 1 2.</_>
        <_>
          3 3 2 1 2.</_></rects>
      <tilted>0</tilted></_>
    <_>
      <rects>
        <_>
          1 2 18 1 -1.</_>
        <_>
          7 2 6 1 2.</_></rects>
      <tilted>0</tilted></_>
    <_>
      <rects>
        <_>
          1 3 4 1 -1.</_>
        <_>
          3 3 2 1 2.</_></rects>
      <tilted>0</tilted></_>
    <_>
      <rects>
        <_>
          1 4 4 8 -1.</_>
        <_>
          1 4 2 4 2.</_>
        <_>
          3 8 2 4 2.</_></rects>
      <tilted>0</tilted></_>
    <_>
      <rects>
        <_>
          1 4 5 4 -1.</_>
        <_>
          1 6 5 2 2.</_></rects>
      <tilted>0</tilted></_>
    <_>
      <rects>
        <_>
          1 6 3 6 -1.</_>
        <_>
          1 9 3 3 2.</_></rects>
      <tilted>0</tilted></_>
    <_>
      <rects>
        <_>
          1 7 2 7 -1.</_>
        <_>
          2 7 1 7 2.</_></rects>
      <tilted>0</tilted></_>
    <_>
      <rects>
        <_>
          1 7 18 2 -1.</_>
        <_>
          1 7 9 1 2.</_>
        <_>
          10 8 9 1 2.</_></rects>
      <tilted>0</tilted></_>
    <_>
      <rects>
        <_>
          1 13 12 1 -1.</_>
        <_>
          5 13 4 1 2.</_></rects>
      <tilted>0</tilted></_>
    <_>
      <rects>
        <_>
          1 15 8 4 -1.</_>
        <_>
          1 15 4 2 2.</_>
        <_>
          5 17 4 2 2.</_></rects>
      <tilted>0</tilted></_>
    <_>
      <rects>
        <_>
          1 15 12 5 -1.</_>
        <_>
          5 15 4 5 2.</_></rects>
      <tilted>0</tilted></_>
    <_>
      <rects>
        <_>
          1 17 15 2 -1.</_>
        <_>
          1 18 15 1 2.</_></rects>
      <tilted>0</tilted></_>
    <_>
      <rects>
        <_>
          2 0 18 1 -1.</_>
        <_>
          8 0 6 1 2.</_></rects>
      <tilted>0</tilted></_>
    <_>
      <rects>
        <_>
          2 0 18 2 -1.</_>
        <_>
          8 0 6 2 2.</_></rects>
      <tilted>0</tilted></_>
    <_>
      <rects>
        <_>
          2 2 2 2 -1.</_>
        <_>
          2 2 1 1 2.</_>
        <_>
          3 3 1 1 2.</_></rects>
      <tilted>0</tilted></_>
    <_>
      <rects>
        <_>
          2 2 4 9 -1.</_>
        <_>
          4 2 2 9 2.</_></rects>
      <tilted>0</tilted></_>
    <_>
      <rects>
        <_>
          2 2 10 2 -1.</_>
        <_>
          2 2 5 1 2.</_>
        <_>
          7 3 5 1 2.</_></rects>
      <tilted>0</tilted></_>
    <_>
      <rects>
        <_>
          2 4 18 11 -1.</_>
        <_>
          11 4 9 11 2.</_></rects>
      <tilted>0</tilted></_>
    <_>
      <rects>
        <_>
          2 6 18 12 -1.</_>
        <_>
          2 10 18 4 2.</_></rects>
      <tilted>0</tilted></_>
    <_>
      <rects>
        <_>
          2 11 2 8 -1.</_>
        <_>
          3 11 1 8 2.</_></rects>
      <tilted>0</tilted></_>
    <_>
      <rects>
        <_>
          2 12 12 7 -1.</_>
        <_>
          6 12 4 7 2.</_></rects>
      <tilted>0</tilted></_>
    <_>
      <rects>
        <_>
          2 18 1 2 -1.</_>
        <_>
          2 19 1 1 2.</_></rects>
      <tilted>0</tilted></_>
    <_>
      <rects>
        <_>
          3 0 4 2 -1.</_>
        <_>
          3 0 2 1 2.</_>
        <_>
          5 1 2 1 2.</_></rects>
      <tilted>0</tilted></_>
    <_>
      <rects>
        <_>
          3 0 8 2 -1.</_>
        <_>
          3 0 4 1 2.</_>
        <_>
          7 1 4 1 2.</_></rects>
      <tilted>0</tilted></_>
    <_>
      <rects>
        <_>
          3 2 4 2 -1.</_>
        <_>
          3 2 2 1 2.</_>
        <_>
          5 3 2 1 2.</_></rects>
      <tilted>0</tilted></_>
    <_>
      <rects>
        <_>
          3 2 12 6 -1.</_>
        <_>
          9 2 6 6 2.</_></rects>
      <tilted>0</tilted></_>
    <_>
      <rects>
        <_>
          3 4 14 2 -1.</_>
        <_>
          3 4 7 1 2.</_>
        <_>
          10 5 7 1 2.</_></rects>
      <tilted>0</tilted></_>
    <_>
      <rects>
        <_>
          3 5 15 8 -1.</_>
        <_>
          3 9 15 4 2.</_></rects>
      <tilted>0</tilted></_>
    <_>
      <rects>
        <_>
          3 6 13 6 -1.</_>
        <_>
          3 9 13 3 2.</_></rects>
      <tilted>0</tilted></_>
    <_>
      <rects>
        <_>
          3 7 9 12 -1.</_>
        <_>
          3 11 9 4 2.</_></rects>
      <tilted>0</tilted></_>
    <_>
      <rects>
        <_>
          3 16 14 4 -1.</_>
        <_>
          10 16 7 4 2.</_></rects>
      <tilted>0</tilted></_>
    <_>
      <rects>
        <_>
          3 19 10 1 -1.</_>
        <_>
          8 19 5 1 2.</_></rects>
      <tilted>0</tilted></_>
    <_>
      <rects>
        <_>
          4 0 1 2 -1.</_>
        <_>
          4 1 1 1 2.</_></rects>
      <tilted>0</tilted></_>
    <_>
      <rects>
        <_>
          4 0 3 2 -1.</_>
        <_>
          4 1 3 1 2.</_></rects>
      <tilted>0</tilted></_>
    <_>
      <rects>
        <_>
          4 0 8 12 -1.</_>
        <_>
          4 0 4 6 2.</_>
        <_>
          8 6 4 6 2.</_></rects>
      <tilted>0</tilted></_>
    <_>
      <rects>
        <_>
          4 0 15 2 -1.</_>
        <_>
          9 0 5 2 2.</_></rects>
      <tilted>0</tilted></_>
    <_>
      <rects>
        <_>
          4 1 12 19 -1.</_>
        <_>
          8 1 4 19 2.</_></rects>
      <tilted>0</tilted></_>
    <_>
      <rects>
        <_>
          4 4 15 12 -1.</_>
        <_>
          4 10 15 6 2.</_></rects>
      <tilted>0</tilted></_>
    <_>
      <rects>
        <_>
          4 6 4 1 -1.</_>
        <_>
          6 6 2 1 2.</_></rects>
      <tilted>0</tilted></_>
    <_>
      <rects>
        <_>
          4 6 15 4 -1.</_>
        <_>
          4 8 15 2 2.</_></rects>
      <tilted>0</tilted></_>
    <_>
      <rects>
        <_>
          4 7 11 12 -1.</_>
        <_>
          4 11 11 4 2.</_></rects>
      <tilted>0</tilted></_>
    <_>
      <rects>
        <_>
          4 9 4 9 -1.</_>
        <_>
          6 9 2 9 2.</_></rects>
      <tilted>0</tilted></_>
    <_>
      <rects>
        <_>
          4 18 2 2 -1.</_>
        <_>
          4 19 2 1 2.</_></rects>
      <tilted>0</tilted></_>
    <_>
      <rects>
        <_>
          4 18 5 2 -1.</_>
        <_>
          4 19 5 1 2.</_></rects>
      <tilted>0</tilted></_>
    <_>
      <rects>
        <_>
          5 0 8 14 -1.</_>
        <_>
          5 0 4 7 2.</_>
        <_>
          9 7 4 7 2.</_></rects>
      <tilted>0</tilted></_>
    <_>
      <rects>
        <_>
          5 2 14 15 -1.</_>
        <_>
          5 7 14 5 2.</_></rects>
      <tilted>0</tilted></_>
    <_>
      <rects>
        <_>
          5 8 6 12 -1.</_>
        <_>
          5 12 6 4 2.</_></rects>
      <tilted>0</tilted></_>
    <_>
      <rects>
        <_>
          5 15 1 4 -1.</_>
        <_>
          5 17 1 2 2.</_></rects>
      <tilted>0</tilted></_>
    <_>
      <rects>
        <_>
          5 16 4 4 -1.</_>
        <_>
          5 16 2 2 2.</_>
        <_>
          7 18 2 2 2.</_></rects>
      <tilted>0</tilted></_>
    <_>
      <rects>
        <_>
          5 18 1 2 -1.</_>
        <_>
          5 19 1 1 2.</_></rects>
      <tilted>0</tilted></_>
    <_>
      <rects>
        <_>
          5 18 11 2 -1.</_>
        <_>
          5 19 11 1 2.</_></rects>
      <tilted>0</tilted></_>
    <_>
      <rects>
        <_>
          6 0 2 14 -1.</_>
        <_>
          6 0 1 7 2.</_>
        <_>
          7 7 1 7 2.</_></rects>
      <tilted>0</tilted></_>
    <_>
      <rects>
        <_>
          6 0 2 2 -1.</_>
        <_>
          6 1 2 1 2.</_></rects>
      <tilted>0</tilted></_>
    <_>
      <rects>
        <_>
          6 0 8 1 -1.</_>
        <_>
          10 0 4 1 2.</_></rects>
      <tilted>0</tilted></_>
    <_>
      <rects>
        <_>
          6 0 5 2 -1.</_>
        <_>
          6 1 5 1 2.</_></rects>
      <tilted>0</tilted></_>
    <_>
      <rects>
        <_>
          6 1 6 1 -1.</_>
        <_>
          8 1 2 1 2.</_></rects>
      <tilted>0</tilted></_>
    <_>
      <rects>
        <_>
          6 1 5 14 -1.</_>
        <_>
          6 8 5 7 2.</_></rects>
      <tilted>0</tilted></_>
    <_>
      <rects>
        <_>
          6 3 2 1 -1.</_>
        <_>
          7 3 1 1 2.</_></rects>
      <tilted>0</tilted></_>
    <_>
      <rects>
        <_>
          6 5 5 15 -1.</_>
        <_>
          6 10 5 5 2.</_></rects>
      <tilted>0</tilted></_>
    <_>
      <rects>
        <_>
          6 6 14 6 -1.</_>
        <_>
          6 9 14 3 2.</_></rects>
      <tilted>0</tilted></_>
    <_>
      <rects>
        <_>
          6 7 7 12 -1.</_>
        <_>
          6 11 7 4 2.</_></rects>
      <tilted>0</tilted></_>
    <_>
      <rects>
        <_>
          6 9 8 6 -1.</_>
        <_>
          6 12 8 3 2.</_></rects>
      <tilted>0</tilted></_>
    <_>
      <rects>
        <_>
          6 10 14 10 -1.</_>
        <_>
          6 10 7 5 2.</_>
        <_>
          13 15 7 5 2.</_></rects>
      <tilted>0</tilted></_>
    <_>
      <rects>
        <_>
          6 13 2 5 -1.</_>
        <_>
          7 13 1 5 2.</_></rects>
      <tilted>0</tilted></_>
    <_>
      <rects>
        <_>
          6 13 3 4 -1.</_>
        <_>
          6 15 3 2 2.</_></rects>
      <tilted>0</tilted></_>
    <_>
      <rects>
        <_>
          6 17 4 2 -1.</_>
        <_>
          6 18 4 1 2.</_></rects>
      <tilted>0</tilted></_>
    <_>
      <rects>
        <_>
          6 18 1 2 -1.</_>
        <_>
          6 19 1 1 2.</_></rects>
      <tilted>0</tilted></_>
    <_>
      <rects>
        <_>
          6 18 6 1 -1.</_>
        <_>
          9 18 3 1 2.</_></rects>
      <tilted>0</tilted></_>
    <_>
      <rects>
        <_>
          7 0 2 20 -1.</_>
        <_>
          7 0 1 10 2.</_>
        <_>
          8 10 1 10 2.</_></rects>
      <tilted>0</tilted></_>
    <_>
      <rects>
        <_>
          7 1 2 6 -1.</_>
        <_>
          7 4 2 3 2.</_></rects>
      <tilted>0</tilted></_>
    <_>
      <rects>
        <_>
          7 1 9 19 -1.</_>
        <_>
          10 1 3 19 2.</_></rects>
      <tilted>0</tilted></_>
    <_>
      <rects>
        <_>
          7 4 2 12 -1.</_>
        <_>
          7 4 1 6 2.</_>
        <_>
          8 10 1 6 2.</_></rects>
      <tilted>0</tilted></_>
    <_>
      <rects>
        <_>
          7 8 1 2 -1.</_>
        <_>
          7 9 1 1 2.</_></rects>
      <tilted>0</tilted></_>
    <_>
      <rects>
        <_>
          7 9 8 4 -1.</_>
        <_>
          7 11 8 2 2.</_></rects>
      <tilted>0</tilted></_>
    <_>
      <rects>
        <_>
          7 12 6 2 -1.</_>
        <_>
          7 12 3 1 2.</_>
        <_>
          10 13 3 1 2.</_></rects>
      <tilted>0</tilted></_>
    <_>
      <rects>
        <_>
          7 14 2 4 -1.</_>
        <_>
          7 14 1 2 2.</_>
        <_>
          8 16 1 2 2.</_></rects>
      <tilted>0</tilted></_>
    <_>
      <rects>
        <_>
          7 17 4 3 -1.</_>
        <_>
          9 17 2 3 2.</_></rects>
      <tilted>0</tilted></_>
    <_>
      <rects>
        <_>
          7 17 6 1 -1.</_>
        <_>
          10 17 3 1 2.</_></rects>
      <tilted>0</tilted></_>
    <_>
      <rects>
        <_>
          8 0 2 4 -1.</_>
        <_>
          8 0 1 2 2.</_>
        <_>
          9 2 1 2 2.</_></rects>
      <tilted>0</tilted></_>
    <_>
      <rects>
        <_>
          8 1 1 2 -1.</_>
        <_>
          8 2 1 1 2.</_></rects>
      <tilted>0</tilted></_>
    <_>
      <rects>
        <_>
          8 1 12 2 -1.</_>
        <_>
          14 1 6 2 2.</_></rects>
      <tilted>0</tilted></_>
    <_>
      <rects>
        <_>
          8 4 1 2 -1.</_>
        <_>
          8 5 1 1 2.</_></rects>
      <tilted>0</tilted></_>
    <_>
      <rects>
        <_>
          8 6 2 4 -1.</_>
        <_>
          9 6 1 4 2.</_></rects>
      <tilted>0</tilted></_>
    <_>
      <rects>
        <_>
          8 7 7 12 -1.</_>
        <_>
          8 11 7 4 2.</_></rects>
      <tilted>0</tilted></_>
    <_>
      <rects>
        <_>
          8 16 1 2 -1.</_>
        <_>
          8 17 1 1 2.</_></rects>
      <tilted>0</tilted></_>
    <_>
      <rects>
        <_>
          8 19 2 1 -1.</_>
        <_>
          9 19 1 1 2.</_></rects>
      <tilted>0</tilted></_>
    <_>
      <rects>
        <_>
          9 0 1 2 -1.</_>
        <_>
          9 1 1 1 2.</_></rects>
      <tilted>0</tilted></_>
    <_>
      <rects>
        <_>
          9 2 1 2 -1.</_>
        <_>
          9 3 1 1 2.</_></rects>
      <tilted>0</tilted></_>
    <_>
      <rects>
        <_>
          9 5 3 12 -1.</_>
        <_>
          9 9 3 4 2.</_></rects>
      <tilted>0</tilted></_>
    <_>
      <rects>
        <_>
          9 5 4 4 -1.</_>
        <_>
          9 7 4 2 2.</_></rects>
      <tilted>0</tilted></_>
    <_>
      <rects>
        <_>
          9 5 5 2 -1.</_>
        <_>
          9 6 5 1 2.</_></rects>
      <tilted>0</tilted></_>
    <_>
      <rects>
        <_>
          9 6 1 6 -1.</_>
        <_>
          9 9 1 3 2.</_></rects>
      <tilted>0</tilted></_>
    <_>
      <rects>
        <_>
          9 9 2 2 -1.</_>
        <_>
          9 10 2 1 2.</_></rects>
      <tilted>0</tilted></_>
    <_>
      <rects>
        <_>
          9 17 2 1 -1.</_>
        <_>
          10 17 1 1 2.</_></rects>
      <tilted>0</tilted></_>
    <_>
      <rects>
        <_>
          10 0 8 2 -1.</_>
        <_>
          10 0 4 1 2.</_>
        <_>
          14 1 4 1 2.</_></rects>
      <tilted>0</tilted></_>
    <_>
      <rects>
        <_>
          10 0 10 4 -1.</_>
        <_>
          15 0 5 4 2.</_></rects>
      <tilted>0</tilted></_>
    <_>
      <rects>
        <_>
          10 0 10 7 -1.</_>
        <_>
          15 0 5 7 2.</_></rects>
      <tilted>0</tilted></_>
    <_>
      <rects>
        <_>
          10 2 10 3 -1.</_>
        <_>
          15 2 5 3 2.</_></rects>
      <tilted>0</tilted></_>
    <_>
      <rects>
        <_>
          10 3 2 2 -1.</_>
        <_>
          10 4 2 1 2.</_></rects>
      <tilted>0</tilted></_>
    <_>
      <rects>
        <_>
          10 4 1 12 -1.</_>
        <_>
          10 8 1 4 2.</_></rects>
      <tilted>0</tilted></_>
    <_>
      <rects>
        <_>
          10 4 3 2 -1.</_>
        <_>
          10 5 3 1 2.</_></rects>
      <tilted>0</tilted></_>
    <_>
      <rects>
        <_>
          10 7 1 2 -1.</_>
        <_>
          10 8 1 1 2.</_></rects>
      <tilted>0</tilted></_>
    <_>
      <rects>
        <_>
          10 7 6 2 -1.</_>
        <_>
          10 8 6 1 2.</_></rects>
      <tilted>0</tilted></_>
    <_>
      <rects>
        <_>
          10 12 2 6 -1.</_>
        <_>
          10 12 1 3 2.</_>
        <_>
          11 15 1 3 2.</_></rects>
      <tilted>0</tilted></_>
    <_>
      <rects>
        <_>
          10 13 2 6 -1.</_>
        <_>
          11 13 1 6 2.</_></rects>
      <tilted>0</tilted></_>
    <_>
      <rects>
        <_>
          10 17 6 2 -1.</_>
        <_>
          10 18 6 1 2.</_></rects>
      <tilted>0</tilted></_>
    <_>
      <rects>
        <_>
          10 18 2 1 -1.</_>
        <_>
          11 18 1 1 2.</_></rects>
      <tilted>0</tilted></_>
    <_>
      <rects>
        <_>
          11 0 4 5 -1.</_>
        <_>
          13 0 2 5 2.</_></rects>
      <tilted>0</tilted></_>
    <_>
      <rects>
        <_>
          11 0 9 7 -1.</_>
        <_>
          14 0 3 7 2.</_></rects>
      <tilted>0</tilted></_>
    <_>
      <rects>
        <_>
          11 3 1 2 -1.</_>
        <_>
          11 4 1 1 2.</_></rects>
      <tilted>0</tilted></_>
    <_>
      <rects>
        <_>
          11 3 9 8 -1.</_>
        <_>
          11 7 9 4 2.</_></rects>
      <tilted>0</tilted></_>
    <_>
      <rects>
        <_>
          11 12 9 3 -1.</_>
        <_>
          11 13 9 1 2.</_></rects>
      <tilted>0</tilted></_>
    <_>
      <rects>
        <_>
          11 13 2 2 -1.</_>
        <_>
          11 14 2 1 2.</_></rects>
      <tilted>0</tilted></_>
    <_>
      <rects>
        <_>
          11 16 2 1 -1.</_>
        <_>
          12 16 1 1 2.</_></rects>
      <tilted>0</tilted></_>
    <_>
      <rects>
        <_>
          11 16 2 4 -1.</_>
        <_>
          11 18 2 2 2.</_></rects>
      <tilted>0</tilted></_>
    <_>
      <rects>
        <_>
          11 18 8 2 -1.</_>
        <_>
          11 19 8 1 2.</_></rects>
      <tilted>0</tilted></_>
    <_>
      <rects>
        <_>
          12 1 2 2 -1.</_>
        <_>
          12 2 2 1 2.</_></rects>
      <tilted>0</tilted></_>
    <_>
      <rects>
        <_>
          12 2 8 5 -1.</_>
        <_>
          16 2 4 5 2.</_></rects>
      <tilted>0</tilted></_>
    <_>
      <rects>
        <_>
          12 3 8 8 -1.</_>
        <_>
          12 7 8 4 2.</_></rects>
      <tilted>0</tilted></_>
    <_>
      <rects>
        <_>
          12 12 2 6 -1.</_>
        <_>
          13 12 1 6 2.</_></rects>
      <tilted>0</tilted></_>
    <_>
      <rects>
        <_>
          12 12 2 6 -1.</_>
        <_>
          12 14 2 2 2.</_></rects>
      <tilted>0</tilted></_>
    <_>
      <rects>
        <_>
          12 14 6 6 -1.</_>
        <_>
          12 14 3 3 2.</_>
        <_>
          15 17 3 3 2.</_></rects>
      <tilted>0</tilted></_>
    <_>
      <rects>
        <_>
          12 15 2 3 -1.</_>
        <_>
          13 15 1 3 2.</_></rects>
      <tilted>0</tilted></_>
    <_>
      <rects>
        <_>
          12 16 6 2 -1.</_>
        <_>
          12 16 3 1 2.</_>
        <_>
          15 17 3 1 2.</_></rects>
      <tilted>0</tilted></_>
    <_>
      <rects>
        <_>
          13 2 2 2 -1.</_>
        <_>
          14 2 1 2 2.</_></rects>
      <tilted>0</tilted></_>
    <_>
      <rects>
        <_>
          13 2 6 2 -1.</_>
        <_>
          13 3 6 1 2.</_></rects>
      <tilted>0</tilted></_>
    <_>
      <rects>
        <_>
          13 3 6 8 -1.</_>
        <_>
          13 3 3 4 2.</_>
        <_>
          16 7 3 4 2.</_></rects>
      <tilted>0</tilted></_>
    <_>
      <rects>
        <_>
          13 4 2 6 -1.</_>
        <_>
          13 7 2 3 2.</_></rects>
      <tilted>0</tilted></_>
    <_>
      <rects>
        <_>
          13 7 6 2 -1.</_>
        <_>
          13 8 6 1 2.</_></rects>
      <tilted>0</tilted></_>
    <_>
      <rects>
        <_>
          13 13 7 2 -1.</_>
        <_>
          13 14 7 1 2.</_></rects>
      <tilted>0</tilted></_>
    <_>
      <rects>
        <_>
          13 15 2 2 -1.</_>
        <_>
          13 16 2 1 2.</_></rects>
      <tilted>0</tilted></_>
    <_>
      <rects>
        <_>
          13 15 4 4 -1.</_>
        <_>
          13 15 2 2 2.</_>
        <_>
          15 17 2 2 2.</_></rects>
      <tilted>0</tilted></_>
    <_>
      <rects>
        <_>
          13 15 3 2 -1.</_>
        <_>
          13 16 3 1 2.</_></rects>
      <tilted>0</tilted></_>
    <_>
      <rects>
        <_>
          13 17 6 2 -1.</_>
        <_>
          13 17 3 1 2.</_>
        <_>
          16 18 3 1 2.</_></rects>
      <tilted>0</tilted></_>
    <_>
      <rects>
        <_>
          14 0 6 6 -1.</_>
        <_>
          14 0 3 3 2.</_>
        <_>
          17 3 3 3 2.</_></rects>
      <tilted>0</tilted></_>
    <_>
      <rects>
        <_>
          14 0 6 9 -1.</_>
        <_>
          17 0 3 9 2.</_></rects>
      <tilted>0</tilted></_>
    <_>
      <rects>
        <_>
          14 0 6 4 -1.</_>
        <_>
          14 2 6 2 2.</_></rects>
      <tilted>0</tilted></_>
    <_>
      <rects>
        <_>
          14 2 6 6 -1.</_>
        <_>
          17 2 3 6 2.</_></rects>
      <tilted>0</tilted></_>
    <_>
      <rects>
        <_>
          14 5 1 2 -1.</_>
        <_>
          14 6 1 1 2.</_></rects>
      <tilted>0</tilted></_>
    <_>
      <rects>
        <_>
          14 6 3 14 -1.</_>
        <_>
          14 13 3 7 2.</_></rects>
      <tilted>0</tilted></_>
    <_>
      <rects>
        <_>
          14 7 6 12 -1.</_>
        <_>
          14 7 3 6 2.</_>
        <_>
          17 13 3 6 2.</_></rects>
      <tilted>0</tilted></_>
    <_>
      <rects>
        <_>
          14 11 5 6 -1.</_>
        <_>
          14 13 5 2 2.</_></rects>
      <tilted>0</tilted></_>
    <_>
      <rects>
        <_>
          15 3 1 2 -1.</_>
        <_>
          15 4 1 1 2.</_></rects>
      <tilted>0</tilted></_>
    <_>
      <rects>
        <_>
          15 4 2 4 -1.</_>
        <_>
          15 4 1 2 2.</_>
        <_>
          16 6 1 2 2.</_></rects>
      <tilted>0</tilted></_>
    <_>
      <rects>
        <_>
          15 4 4 2 -1.</_>
        <_>
          15 5 4 1 2.</_></rects>
      <tilted>0</tilted></_>
    <_>
      <rects>
        <_>
          15 5 4 11 -1.</_>
        <_>
          17 5 2 11 2.</_></rects>
      <tilted>0</tilted></_>
    <_>
      <rects>
        <_>
          15 7 5 4 -1.</_>
        <_>
          15 9 5 2 2.</_></rects>
      <tilted>0</tilted></_>
    <_>
      <rects>
        <_>
          15 10 4 6 -1.</_>
        <_>
          15 13 4 3 2.</_></rects>
      <tilted>0</tilted></_>
    <_>
      <rects>
        <_>
          15 11 4 3 -1.</_>
        <_>
          17 11 2 3 2.</_></rects>
      <tilted>0</tilted></_>
    <_>
      <rects>
        <_>
          16 0 4 6 -1.</_>
        <_>
          16 0 2 3 2.</_>
        <_>
          18 3 2 3 2.</_></rects>
      <tilted>0</tilted></_>
    <_>
      <rects>
        <_>
          16 0 4 13 -1.</_>
        <_>
          18 0 2 13 2.</_></rects>
      <tilted>0</tilted></_>
    <_>
      <rects>
        <_>
          16 0 4 12 -1.</_>
        <_>
          16 6 4 6 2.</_></rects>
      <tilted>0</tilted></_>
    <_>
      <rects>
        <_>
          16 2 4 13 -1.</_>
        <_>
          18 2 2 13 2.</_></rects>
      <tilted>0</tilted></_>
    <_>
      <rects>
        <_>
          16 3 4 12 -1.</_>
        <_>
          18 3 2 12 2.</_></rects>
      <tilted>0</tilted></_>
    <_>
      <rects>
        <_>
          16 5 4 4 -1.</_>
        <_>
          16 5 2 2 2.</_>
        <_>
          18 7 2 2 2.</_></rects>
      <tilted>0</tilted></_>
    <_>
      <rects>
        <_>
          16 7 4 2 -1.</_>
        <_>
          18 7 2 2 2.</_></rects>
      <tilted>0</tilted></_>
    <_>
      <rects>
        <_>
          16 11 1 4 -1.</_>
        <_>
          16 13 1 2 2.</_></rects>
      <tilted>0</tilted></_>
    <_>
      <rects>
        <_>
          16 13 2 6 -1.</_>
        <_>
          16 13 1 3 2.</_>
        <_>
          17 16 1 3 2.</_></rects>
      <tilted>0</tilted></_>
    <_>
      <rects>
        <_>
          16 13 4 2 -1.</_>
        <_>
          16 13 2 1 2.</_>
        <_>
          18 14 2 1 2.</_></rects>
      <tilted>0</tilted></_>
    <_>
      <rects>
        <_>
          16 14 2 4 -1.</_>
        <_>
          16 14 1 2 2.</_>
        <_>
          17 16 1 2 2.</_></rects>
      <tilted>0</tilted></_>
    <_>
      <rects>
        <_>
          16 14 4 2 -1.</_>
        <_>
          16 14 2 1 2.</_>
        <_>
          18 15 2 1 2.</_></rects>
      <tilted>0</tilted></_>
    <_>
      <rects>
        <_>
          16 15 4 2 -1.</_>
        <_>
          16 15 2 1 2.</_>
        <_>
          18 16 2 1 2.</_></rects>
      <tilted>0</tilted></_>
    <_>
      <rects>
        <_>
          17 5 2 2 -1.</_>
        <_>
          17 5 1 1 2.</_>
        <_>
          18 6 1 1 2.</_></rects>
      <tilted>0</tilted></_>
    <_>
      <rects>
        <_>
          17 10 2 2 -1.</_>
        <_>
          18 10 1 2 2.</_></rects>
      <tilted>0</tilted></_>
    <_>
      <rects>
        <_>
          17 11 1 2 -1.</_>
        <_>
          17 12 1 1 2.</_></rects>
      <tilted>0</tilted></_>
    <_>
      <rects>
        <_>
          17 12 1 8 -1.</_>
        <_>
          17 16 1 4 2.</_></rects>
      <tilted>0</tilted></_>
    <_>
      <rects>
        <_>
          17 13 2 1 -1.</_>
        <_>
          18 13 1 1 2.</_></rects>
      <tilted>0</tilted></_>
    <_>
      <rects>
        <_>
          18 0 1 6 -1.</_>
        <_>
          18 2 1 2 2.</_></rects>
      <tilted>0</tilted></_>
    <_>
      <rects>
        <_>
          18 2 2 2 -1.</_>
        <_>
          18 3 2 1 2.</_></rects>
      <tilted>0</tilted></_>
    <_>
      <rects>
        <_>
          18 5 2 9 -1.</_>
        <_>
          19 5 1 9 2.</_></rects>
      <tilted>0</tilted></_>
    <_>
      <rects>
        <_>
          18 9 2 4 -1.</_>
        <_>
          19 9 1 4 2.</_></rects>
      <tilted>0</tilted></_>
    <_>
      <rects>
        <_>
          18 18 2 2 -1.</_>
        <_>
          18 18 1 1 2.</_>
        <_>
          19 19 1 1 2.</_></rects>
      <tilted>0</tilted></_>
    <_>
      <rects>
        <_>
          19 0 1 8 -1.</_>
        <_>
          19 4 1 4 2.</_></rects>
      <tilted>0</tilted></_>
    <_>
      <rects>
        <_>
          19 0 1 14 -1.</_>
        <_>
          19 7 1 7 2.</_></rects>
      <tilted>0</tilted></_>
    <_>
      <rects>
        <_>
          19 4 1 12 -1.</_>
        <_>
          19 10 1 6 2.</_></rects>
      <tilted>0</tilted></_>
    <_>
      <rects>
        <_>
          19 6 1 3 -1.</_>
        <_>
          19 7 1 1 2.</_></rects>
      <tilted>0</tilted></_>
    <_>
      <rects>
        <_>
          19 7 1 6 -1.</_>
        <_>
          19 9 1 2 2.</_></rects>
      <tilted>0</tilted></_>
    <_>
      <rects>
        <_>
          19 11 1 9 -1.</_>
        <_>
          19 14 1 3 2.</_></rects>
      <tilted>0</tilted></_></features></cascade>
</opencv_storage>
